4356 64
， 0.238835 -1.239225 0.929417 0.314594 2.039196 -1.393778 0.084512 -0.112685 -0.961906 1.869361 0.443736 -1.762801 0.665006 0.239365 -0.843461 0.383978 -1.145131 -0.285990 -0.309200 0.238706 -3.450029 -0.604003 0.728167 -2.255043 0.883625 -1.171052 -0.495054 -1.256282 -2.501758 0.594178 1.943911 0.549443 -1.930424 1.231833 0.587478 -1.823649 1.950869 -0.509486 -1.124659 -0.386725 1.600691 2.285604 1.550670 -1.448498 2.121361 3.172316 0.385060 -0.318098 2.884175 1.635736 -0.404530 0.590579 2.324644 0.754640 -0.119903 -1.534389 -1.395764 0.697985 -0.754348 -0.713702 1.927716 4.436674 -1.692844 -0.957917
0 -0.354186 0.420505 -3.604340 1.410993 1.531430 -0.551417 1.431801 -1.623794 0.928324 -1.137221 -0.006247 -1.094155 1.209644 -5.592754 0.991340 -2.035896 0.151854 -0.883956 -1.871199 0.440982 -3.436678 -2.027290 -2.006426 1.669147 1.981342 -2.930965 -3.998744 -0.367806 2.336521 0.680389 -0.357235 1.427080 -2.084278 -2.345202 -0.488920 -1.582140 0.413878 -0.511847 -0.738127 -5.080019 -2.321045 -1.748004 -0.447738 2.979126 0.136602 -2.462597 0.626718 0.730127 -6.494906 0.836167 -2.039442 -1.920132 0.095473 1.841655 -2.515203 -3.236281 -2.873072 0.708822 0.759229 1.476503 2.462594 -0.540130 -0.461820 3.902906
的 1.859257 0.412594 1.100559 2.150403 1.831746 -1.842597 -0.750201 -0.027864 -1.284907 0.986624 -0.514269 -0.652730 -0.383608 0.766785 -0.745643 -0.351830 0.054606 0.586646 -0.689073 -0.920838 -1.142234 0.038921 0.035182 -2.574334 -0.144087 0.422990 -0.230960 -1.087507 -2.450416 0.319041 0.158965 1.100908 -0.676804 1.633213 1.711533 0.018773 0.243496 0.102544 -1.800726 1.171036 0.007443 -0.159906 1.394299 -1.572466 -0.456469 3.440326 -0.785603 -0.046209 1.530633 1.198042 0.726719 0.526137 -0.138152 0.129943 0.473624 -0.216992 -0.649304 0.114787 -1.466514 -0.533171 3.384984 0.034604 -1.266841 -2.368103
1 0.233524 -0.445363 -3.951884 0.759103 0.827059 -0.253250 1.944921 -1.257274 1.867271 -1.136815 -0.447043 -0.407203 1.272839 -5.736121 1.003502 -0.868622 -1.136648 -1.049652 -0.926805 -0.254113 -3.265681 -2.761571 -1.559969 1.127304 1.396748 -3.222182 -3.991176 -0.748357 1.883176 -1.204676 -0.724846 1.694917 -2.081847 -1.463010 -0.495313 -1.661255 0.400078 0.007808 -0.196361 -4.747192 -2.560857 -1.848201 -0.497420 3.414391 0.496854 -2.260649 0.111306 1.457163 -5.955579 0.387481 -1.922218 -2.452677 -0.525643 1.450211 -2.509123 -2.444453 -2.628012 0.661582 0.430572 1.099757 2.158874 -0.824840 -0.335387 3.119839
公 1.956663 2.444789 2.139092 0.511555 2.455482 0.733182 -1.731328 0.021663 3.535053 0.606462 0.875533 1.278676 0.276120 -4.298467 2.257815 0.257431 -1.520858 -1.735294 -3.163939 -2.035763 0.564225 2.451732 2.358944 3.219775 1.350275 -1.050384 -1.240927 0.117723 -1.756716 2.938250 -1.967218 0.315329 -4.838753 -2.503860 1.978961 0.828009 -4.294639 -3.173513 -1.426137 0.299143 -0.513229 0.955379 0.041152 1.967738 0.390957 -0.325495 1.638777 -1.118736 1.775971 -3.505803 0.650889 1.009775 3.675518 -1.955865 -2.636501 -0.413764 3.258981 2.136679 -2.718209 1.943254 0.415942 -3.424226 0.234364 -3.868980
2 0.480291 -0.137406 -4.537988 0.322121 0.581389 -0.527351 2.766750 -1.617955 1.828467 -1.719973 -0.163456 -0.306220 1.498574 -5.331789 1.294774 -1.337183 -1.298037 -1.124894 -0.693505 -0.425817 -3.213736 -2.183278 -1.125342 1.266987 1.148185 -3.566495 -4.118876 -0.401324 2.108984 -1.297698 -0.779242 1.302039 -1.642790 -1.880375 -0.506801 -1.807786 0.335098 -0.010368 -0.306829 -4.369506 -1.906956 -2.300422 -0.913831 3.153031 0.586012 -2.806904 0.421349 1.529400 -5.576459 -0.195381 -2.341791 -2.248424 -0.452833 1.258998 -3.145970 -2.876754 -2.243399 0.923502 0.544990 1.124079 1.691494 -0.967801 -0.126262 2.115089
、 0.873345 -0.178630 -1.434961 2.766980 -1.032505 -1.616126 1.670053 2.187520 0.153331 -0.567739 -1.259923 -2.967358 0.303837 2.432173 0.833806 -0.435836 -0.578463 1.118645 -2.217411 0.591104 0.947432 -3.281402 -1.469621 -1.264694 2.216983 1.500232 1.476305 2.762177 0.468763 -0.998055 1.082469 0.327195 0.087108 -1.076351 1.478851 0.579164 -2.367271 0.638670 -1.610669 0.119985 -2.617685 0.713780 1.617805 -0.522305 3.020132 1.952635 -1.252228 0.592526 -0.194235 2.209052 1.848460 -0.986248 1.019474 -0.703200 -0.423097 0.498534 -0.056777 0.875504 -0.403291 0.631252 0.779805 0.495899 0.670514 -0.257653
司 -1.843418 1.739063 -1.022827 2.465567 -1.085393 0.637497 -0.652804 -1.815662 -0.117431 2.346241 1.109149 2.223172 -1.113465 -2.789310 -1.446432 3.501427 1.774879 -0.221445 -3.112054 -3.403247 0.467812 -0.119626 -0.826569 4.049708 1.134117 1.101829 -0.757947 -1.973636 0.709411 4.583248 1.714968 2.105321 -2.821846 -3.235889 -2.037101 -0.883277 -1.152035 0.960725 -0.216217 2.775556 1.821703 -0.336303 1.719863 2.055626 1.767487 2.216563 4.684721 -3.998441 -3.414444 -3.935368 0.351256 0.843002 -2.774633 -0.651595 0.010046 0.815160 -0.381716 1.659639 3.577329 -0.168531 -0.555581 0.471905 -0.917969 -3.872311
。 -0.166462 -0.006566 -1.411216 1.046028 -0.379586 -1.978330 0.197496 2.040681 0.637993 -0.604231 -2.005313 -1.108568 0.934129 1.434813 1.467366 0.467888 -0.808621 -0.275107 -2.084585 0.754829 -0.411253 0.005422 -0.584029 -1.002144 3.304810 -2.712389 -0.136669 -1.343636 -0.787507 0.285260 0.450039 1.426950 -0.002816 0.458357 1.600156 -1.752947 -0.381543 0.455109 -0.495243 -1.064945 -0.194476 2.175179 0.285030 0.984307 1.342618 3.029516 -0.914906 0.528571 2.255603 2.976123 1.519079 -0.534067 -0.571164 -1.676846 -0.326871 0.303245 -0.914478 1.283460 -0.982637 -1.054752 3.255903 3.075951 -1.745246 0.008332
股 -0.018901 4.741195 1.716103 5.573701 2.511507 -1.660021 -2.074888 -0.653843 1.982947 -0.580114 -3.680941 3.603876 0.814916 -5.518965 0.930825 0.881106 1.876546 0.991526 -3.324983 -3.647764 0.787124 3.415606 -1.461516 1.412862 0.199921 0.549734 3.053874 -6.416347 1.913780 4.411188 2.201285 6.494989 -2.261464 -4.045171 -0.029521 0.426841 -0.167932 -1.704282 2.949605 2.842449 -4.455381 0.933087 3.564542 0.742358 2.132498 1.935737 2.354628 -1.674570 0.390721 1.042185 -2.920166 -2.698693 2.427763 1.082514 -0.242555 -3.221752 3.579288 -1.175724 1.071559 4.722610 -0.634606 0.473296 -3.337687 -0.390846
资 -1.481208 1.153709 2.613183 -0.875111 2.006919 3.395156 1.695877 1.443763 -3.882328 1.034819 -1.311630 -3.352032 -0.717477 0.088464 -1.966440 -2.566370 2.047078 1.526286 1.287966 -2.831137 0.280790 -3.461203 1.807806 0.002349 -2.409539 -0.039113 -0.963286 -0.741309 0.615909 4.584915 -0.663789 3.326264 -0.821099 -2.561301 5.050446 2.647061 -1.313028 0.126185 1.028012 0.521300 2.721610 -0.493338 3.375233 4.211845 -0.246995 3.411592 2.558538 4.595355 0.433423 -5.665864 3.353659 1.606245 -4.593733 3.534819 2.200805 -2.666785 1.163209 0.181121 -1.422177 2.462360 1.238944 1.021898 6.032733 -0.097546
０ -0.090470 1.651766 -3.298341 2.691839 1.243178 1.446184 -1.561991 -2.991043 0.364747 2.987380 0.958087 -4.423287 2.010532 -2.285353 -2.542383 3.915408 -0.257345 -2.037211 2.188898 1.178933 2.918705 1.704495 2.856333 -0.856220 -3.800447 -3.545207 -0.107116 0.273653 0.914084 -1.031655 1.662281 -1.532208 -0.009987 -1.773170 0.574065 -0.570910 -0.482074 -3.497609 -0.458290 -0.445384 0.823908 1.973334 0.467113 -0.274346 3.563658 -0.017147 0.579775 1.328700 -3.203671 0.213209 4.326694 -1.269638 3.870012 -2.077034 -1.368678 2.775537 1.602489 0.628291 2.660969 1.816665 0.289102 3.660510 0.020055 -1.702839
3 0.240862 0.908304 -2.650700 1.161627 0.914569 -0.139148 2.679856 -0.310745 0.550178 -1.529030 -0.952710 -1.084704 1.142731 -5.523802 0.596738 -1.616163 -1.123466 -0.310013 -0.638836 0.023870 -2.713112 -2.450744 -1.431494 0.270512 2.176306 -2.320101 -3.469118 -0.257021 1.923133 -0.638754 -0.957239 1.190271 -1.641818 -1.722314 -0.584143 -1.023305 0.263586 1.165525 -0.791535 -4.973851 -2.755607 -1.933783 0.824545 2.059853 -0.131528 -2.888504 1.218964 1.449034 -4.917306 0.909960 -2.010951 -2.392557 -0.999844 2.182728 -1.416277 -2.950789 -2.519463 0.065448 0.002536 0.423228 1.112254 -0.703484 -0.258781 3.330160
有 3.604507 -2.120476 3.252017 4.066425 2.375370 -0.870505 3.827350 2.799738 2.809433 1.923907 -3.140150 1.652582 -5.355381 -3.632701 -1.576030 4.355577 3.339980 0.979857 -2.689477 -4.571093 0.116693 -0.193824 2.124272 2.289376 -0.479934 3.139451 3.362964 -0.637340 0.758593 3.311962 0.382674 -4.422161 -2.051110 -6.377178 4.366688 -1.641608 1.021963 -0.821158 -1.620609 1.032514 -0.843586 -2.467191 0.583129 0.578401 1.833540 3.599684 1.449604 -3.606209 2.295796 -2.400171 -0.794790 -0.088249 -0.126062 -0.160825 0.046867 0.716644 -4.481035 -2.281349 -1.121310 3.407493 1.861611 0.086951 -4.111761 -3.151489
. -1.980235 1.458672 -0.494804 1.408518 0.144754 -1.823529 3.365033 -0.918094 -1.392885 -2.278844 -0.964856 -2.901343 2.118461 -3.231128 0.126658 -4.239531 -1.405172 1.493297 -3.132169 1.373867 -3.351434 -2.039566 -3.057915 0.246935 3.165128 -0.830897 -2.073986 -0.302218 0.327163 2.485224 1.401196 1.623523 -3.181697 -4.478933 1.190944 -3.302760 0.896601 4.431434 -1.412114 -6.108531 -3.484371 -1.033092 1.749607 0.417781 0.045394 -1.647848 3.046658 0.423511 -0.810127 1.892920 -0.149347 0.599365 -0.239380 0.506383 -1.627527 -5.172634 -3.125103 0.558564 -1.082657 -0.071002 1.546897 0.991224 -0.595064 4.635354
, -1.536630 0.754825 0.018957 0.884723 1.375442 -0.954992 5.073777 2.854527 -4.185749 -0.914913 -3.357432 -3.515363 1.124582 -4.789187 -0.921253 -2.745304 -0.013724 -0.956115 -2.602223 1.536181 -3.949453 -2.515551 -3.404311 0.559451 1.272234 0.296635 -2.358382 0.595012 -1.845036 2.444837 0.496250 0.900478 -3.847978 -5.929097 -0.780887 -1.443431 0.970205 4.399796 -1.557742 -6.149745 -1.846986 -1.638004 1.230892 -0.776910 0.353371 -1.304187 2.862768 -0.004097 -0.443324 2.878276 -2.199113 -1.283487 0.066451 0.593342 0.029179 -5.687468 -2.882529 0.451551 -0.484851 1.998545 -1.003071 1.828669 2.685972 3.232073
行 -3.590018 3.885547 3.443344 0.416436 -1.272408 -1.035062 2.284304 -0.507038 0.731967 0.934755 -1.681922 2.152222 1.292033 -3.601589 -2.033497 2.468272 2.941909 4.817398 -6.026061 2.911959 0.423991 -0.252901 4.260922 3.329857 -1.063061 -1.596429 -2.146986 1.571913 -4.269749 1.048236 3.445875 0.965508 3.522524 4.760980 -1.277500 6.014977 -0.661290 0.835866 -0.321768 1.663504 3.890570 1.065773 1.612485 0.905481 5.043147 -1.154983 -2.178995 1.904174 1.611425 0.179242 -6.227628 2.292458 -1.021514 -4.508328 0.282375 -0.155133 -0.652619 0.233032 1.565237 -1.333280 2.842556 -0.122529 -3.085176 -3.803494
5 -0.306515 0.510739 -2.255761 0.983386 1.684057 0.006545 2.328509 -0.868016 -0.061012 -1.710100 -0.843892 -1.834760 0.688598 -5.220671 0.532985 -2.688817 -0.605981 -0.239189 -1.643530 -0.296351 -2.450445 -2.412566 -1.796317 0.079890 2.599250 -1.747739 -3.213270 -0.704204 1.736615 0.157298 -0.637794 1.505418 -1.740749 -2.057694 -0.571532 -0.460164 0.724644 1.813104 -1.095587 -5.188494 -2.942677 -1.920246 0.694826 1.955975 -0.274063 -2.703260 1.266716 1.010045 -4.691851 0.882688 -2.048815 -2.054880 -0.560186 2.997903 -1.346590 -2.504068 -2.496344 -0.001759 0.562316 0.326625 1.081286 -0.341568 -0.126068 3.866091
4 0.054534 0.593283 -2.893275 0.604977 1.323485 -0.445588 2.919313 -0.974700 0.172415 -1.608431 -1.053862 -1.283131 1.246418 -5.203607 1.227394 -1.620779 -0.801089 -0.302863 -1.593681 0.168668 -3.035149 -2.001408 -1.750705 0.683718 1.988531 -2.100259 -3.654338 -0.457022 1.510436 -0.202735 -1.166589 1.422939 -2.436513 -2.244699 -0.795963 -1.169098 0.673640 1.015750 -0.793222 -5.117492 -2.525738 -1.767923 0.116135 2.037676 -0.210919 -2.942947 0.903545 1.179565 -5.424163 0.955937 -2.013684 -2.678584 -0.899202 2.005365 -2.002631 -2.450907 -2.070028 -0.127230 0.316777 0.548224 1.218908 -0.608853 -0.088397 2.616638
１ 0.095704 1.271942 -2.900726 2.187286 0.595751 1.715971 -0.988049 -2.822766 1.400601 2.092432 0.960502 -3.699653 1.869520 -2.918391 -2.686277 4.599733 -1.395218 -2.038601 2.549106 0.160621 2.560965 -0.005032 3.197272 -1.619807 -3.525469 -3.707728 -0.340311 -0.305860 0.590094 -2.683764 1.669807 -1.367931 -0.962843 -0.341927 0.315599 0.018128 -0.064904 -2.367922 -0.409376 0.326263 -0.455380 2.476229 0.914474 0.320733 3.088228 -0.002426 0.762881 1.959652 -2.424695 -0.386788 3.096836 -1.378108 3.027518 -1.287159 -0.134078 3.085858 1.359564 0.170539 1.516624 1.041429 0.116734 2.611531 0.108543 -1.718946
发 0.202606 -3.414751 1.702315 4.868731 -1.004427 -2.204520 -2.988540 -2.117791 -2.463018 -0.484325 -3.247776 2.086902 4.370242 0.945001 -1.190119 -1.490492 0.440720 -0.556518 -0.181934 -4.404321 -1.448834 -1.017449 0.820158 -0.105778 1.712056 2.676012 -1.907886 -4.935038 3.437366 0.172296 -1.166256 -1.145213 2.724623 0.914785 0.776276 0.478129 -6.395458 -2.591246 1.717869 -0.026478 0.322640 2.116386 0.051501 -1.811543 -7.480711 -1.021990 -1.611705 -4.309494 1.254494 0.722328 4.462382 -4.144246 3.745752 -5.810339 -3.149760 -2.309951 -2.354421 0.546254 0.202340 3.582659 -1.177051 -3.940779 1.711449 -3.534224
6 0.005487 0.433056 -2.317538 0.641907 1.675352 -0.129580 2.977497 -0.596273 0.343063 -1.549738 -1.242777 -1.588287 0.846726 -5.494824 0.603622 -2.236027 -0.812603 -0.653246 -0.892583 0.055979 -2.606303 -2.563532 -1.952278 0.455442 2.777636 -1.799191 -3.276052 -0.950733 1.744760 -0.366727 -1.286918 0.847055 -1.783126 -2.177511 -0.746257 -0.440869 1.072411 2.055229 -1.104479 -5.055243 -3.033170 -1.835787 0.797213 1.897548 -0.125426 -2.919919 1.276331 1.215733 -4.471737 1.611563 -2.317969 -2.216659 -0.891485 3.108725 -1.277809 -2.957590 -2.599501 -0.495481 0.006261 0.498465 0.534281 0.058803 -0.161446 3.532834
年 -5.022024 -3.203076 -5.552184 -0.584228 -2.860269 0.202338 -1.744244 -0.597985 0.174699 0.638085 3.941533 0.497664 8.571937 -2.282867 -1.677364 3.064930 -2.280313 -3.497644 0.841299 -0.452548 -1.153713 -0.868255 1.202768 3.390115 0.206359 -3.934195 -3.240574 -2.705237 2.323069 -1.384129 0.663640 -0.978375 -3.974099 -4.578332 -2.861878 -4.063026 1.232127 1.406004 2.683626 -1.984077 0.626544 0.279503 -2.450036 5.829989 6.459972 2.260903 1.702480 0.781300 0.508055 3.076931 -1.018732 -3.406883 5.069368 -1.473515 -4.365158 -5.129855 -6.401826 3.484503 0.585263 2.133718 0.684652 1.857668 -0.129676 0.811486
本 1.882686 0.143091 1.148937 1.465687 -1.077799 3.568149 -0.702806 -3.628720 2.535591 0.444969 -4.155842 2.371766 3.019156 2.857449 2.706321 4.075712 -0.957412 0.378571 -2.174371 -0.131885 2.126243 -0.769635 2.805864 2.968079 -3.348349 -2.462515 -3.695578 -1.837009 -1.520319 1.443447 0.434123 2.246144 4.375436 -2.090181 -1.746747 0.002171 0.466501 -0.074172 -2.175914 -6.735001 -0.705423 0.663201 4.569601 0.379163 -5.066897 0.197339 -0.331315 -0.433017 -0.398644 1.426202 -2.125684 0.399601 2.612652 -4.233582 -0.836177 -1.590516 -0.156786 0.426924 0.007790 0.088282 0.380980 -1.064471 -0.156005 -2.330646
9 -0.340979 0.244372 -2.338204 0.206622 1.445755 -0.283529 3.174901 -1.053429 -0.252770 -2.045576 -0.592122 -2.043277 0.972927 -5.365786 0.740820 -1.860191 -0.969635 -0.632392 -0.968567 0.079210 -3.080724 -2.762784 -1.718062 0.235921 2.467577 -2.079198 -3.552732 -1.160749 2.183040 -0.769339 -1.795683 0.900844 -2.327656 -1.935067 -1.381914 -0.808551 1.406904 1.885866 -1.038060 -5.300681 -2.638386 -1.507851 0.446708 1.700457 -0.172445 -3.298064 0.711556 1.525951 -4.453018 0.821926 -2.162033 -2.169042 -0.379764 2.195710 -1.530345 -2.799013 -2.850068 -0.217915 0.453713 0.512430 0.873501 0.884044 0.208099 3.561192
8 -0.042417 0.729518 -1.961417 1.010692 1.610935 -0.299977 3.243056 -0.459752 -0.159391 -1.490076 -1.310907 -2.069538 0.941214 -5.050989 0.438937 -2.145354 -1.083768 -0.443459 -1.104097 0.334210 -2.309673 -2.809178 -2.215542 0.202179 2.838452 -1.620294 -3.313087 -0.365534 1.174460 -0.068128 -1.179364 0.792243 -2.352596 -2.448370 -0.638680 -0.379813 0.905185 2.306825 -1.296727 -5.182287 -2.714646 -1.576944 0.647404 1.503888 -0.359135 -3.247956 0.871136 1.141940 -4.493608 1.838757 -2.083937 -2.057671 -1.007787 3.254818 -1.121172 -2.930659 -2.249936 -0.445024 0.555436 0.458754 0.131368 0.305396 0.066816 3.935448
业 -2.303546 2.142461 0.101097 -4.353237 1.238408 3.893137 1.993695 -1.429133 2.848819 -3.129370 3.236341 1.150911 -0.979359 1.995256 -1.911283 -4.129499 -1.728518 -3.797570 0.820039 -2.141716 -0.336005 -1.478282 -2.498522 -2.314894 -2.465389 5.349741 7.235003 -1.281584 -2.624367 -3.139638 -2.338243 2.016722 0.870695 -0.281715 1.439860 0.428401 0.024862 1.205014 -0.039568 3.664338 2.470636 -2.310686 -3.147640 -0.743392 0.949838 0.795493 3.565458 -5.870122 1.065381 -4.292181 5.192633 -4.374160 2.184250 -0.638302 3.699956 -2.472419 -1.627605 0.890099 -2.382957 5.248712 2.896552 -0.559842 4.797373 0.226386
２ 0.357638 1.782406 -3.160683 1.062146 0.477855 1.510155 -0.453165 -2.864457 1.293588 1.197267 0.504312 -3.567930 2.045155 -2.179730 -2.895326 4.406857 -1.206524 -1.172021 2.612461 0.529747 2.086885 0.663964 3.505124 -1.186316 -3.601727 -3.424257 -0.805262 0.238765 1.549265 -3.108717 0.938062 -1.114832 -0.863149 -0.855714 0.753051 -0.746796 0.057206 -2.333614 -0.119253 0.677298 0.025030 1.293159 0.392940 0.446580 3.555123 -0.410230 0.501252 2.298905 -2.425836 -0.646605 3.556277 -1.582674 2.941483 -1.618252 -0.853718 2.638490 2.060219 0.126050 1.711717 1.615937 -0.378202 3.291679 -0.012529 -2.337689
7 -0.034086 0.491404 -1.941608 0.678762 1.450410 -0.278669 3.489224 -0.525614 -0.440155 -1.653629 -1.596101 -1.919334 1.103461 -5.407351 0.474309 -1.881076 -0.956662 -0.079069 -1.391800 0.380258 -2.686732 -2.594306 -1.870274 0.009509 2.418629 -1.672063 -3.402419 -0.797253 1.342148 0.215815 -1.201675 0.817560 -2.306273 -2.189453 -0.923243 -0.785274 0.834779 2.190234 -1.288598 -5.210944 -2.931490 -1.659313 0.838396 1.511761 -0.109166 -3.225804 1.020629 1.104680 -4.409467 1.251435 -1.687550 -2.594684 -0.778603 2.592527 -1.114555 -3.075999 -2.306279 -0.601404 0.212790 0.512347 0.471773 0.273742 0.005464 3.464664
人 0.073252 0.010127 -0.999758 0.273132 -3.001547 -2.405312 2.247219 4.034433 1.035004 0.863501 -1.963951 1.040316 0.899844 -0.388285 0.833097 -4.055048 1.433420 -1.008770 -2.419952 -4.454851 0.331421 3.570696 -2.624552 0.225991 -3.570995 -2.733097 3.907196 -1.929194 -1.309273 1.996013 -0.894875 1.975018 2.396107 -0.928809 -1.791434 -0.971957 0.803681 -0.459105 -0.503494 -1.687121 0.257137 1.452164 0.965490 -1.399034 2.726943 -1.047953 -2.901655 1.842990 -0.832592 -1.214278 1.608317 4.154785 1.780228 -0.260020 7.625245 3.333141 1.873051 2.247647 3.343331 0.107141 1.780623 -0.103337 1.082306 3.464956
： 4.080518 1.777597 -2.043224 0.754731 -0.529565 -2.187498 -0.730398 -0.882567 0.517056 1.423856 -0.046739 -2.294795 -0.366892 -2.716616 -0.279419 0.799023 0.256214 -0.709607 -4.520900 3.566169 0.201757 -3.117742 -3.504988 -0.458636 4.551174 -4.992145 0.896151 2.074957 1.989394 -1.702577 3.133520 0.816623 -1.757653 -0.928813 4.260998 2.201256 -1.058036 0.379020 -0.492102 -2.909170 -0.426719 3.180244 0.866741 -0.843231 1.631753 1.786483 -1.751473 -1.727017 1.057549 3.298357 2.273953 -0.221473 0.625853 2.050290 1.519045 -1.179097 -1.687731 2.501168 -1.065777 1.468555 2.123129 1.856172 -2.143178 1.607146
） -0.449088 2.765795 -2.789859 2.187160 -6.760991 -1.268984 -1.616319 -0.783704 0.694240 -2.515260 -1.579704 -1.596186 3.164526 -2.876451 -0.128762 1.248196 1.530310 -0.067857 -1.543403 -0.243485 2.901109 -0.481716 -2.304999 1.602462 2.471121 -1.515975 1.207866 -2.569950 1.254760 0.805154 -0.384313 0.996487 1.692677 -2.855936 1.748579 -1.061839 -2.459922 1.087587 2.385326 -1.373932 -2.733648 1.337336 0.487461 5.023727 -2.998056 -0.697710 3.320780 0.874543 1.363192 2.340147 3.371547 -0.028106 -3.902139 -3.000769 -1.464704 3.105040 -1.344659 -3.446733 0.419374 3.467540 0.425087 2.037268 0.237586 0.279362
产 -1.071791 5.232312 0.583066 4.412860 2.438625 -2.723377 -1.694638 -0.125356 -5.781668 -0.706441 3.238283 -1.697264 -0.958102 -0.126630 1.723196 -0.236141 -1.055182 -0.540237 3.044372 -4.667981 1.838946 -2.143034 0.485008 2.482749 1.177768 2.315541 -1.592821 -2.674822 1.150535 -3.659566 0.404219 -1.790654 -0.143104 1.936710 1.719104 0.085216 1.017741 3.983870 -6.245121 0.146561 -3.011571 -0.367447 4.179408 -1.177690 -5.860759 -1.547576 0.365869 -5.373461 -2.736484 5.334075 -5.104888 0.352138 -0.968901 -5.542360 1.140605 -2.559644 4.995578 1.709251 -1.238737 -1.337972 -2.370822 1.631567 -0.512988 -6.841213
金 -0.126668 7.562520 3.186111 1.580766 4.173752 0.410660 3.597886 2.342083 1.573452 -0.435612 -0.479742 0.226216 -0.521657 -3.403062 3.264292 -0.499294 3.244138 -1.406678 4.152060 0.255045 0.460056 -3.030442 0.214819 1.913848 -6.829797 -0.256138 1.071059 1.806877 -2.907640 0.912196 -2.007287 -0.000372 -0.901803 2.418634 -1.158286 1.069702 -1.250633 0.668031 -2.975384 -5.138197 -6.606884 -3.563044 1.726663 0.883678 -5.266951 1.996975 0.955519 0.924091 2.846944 2.537914 -1.697160 1.623403 -2.009458 -1.861969 -0.068512 1.207481 -1.712093 6.567800 1.071208 2.533691 -5.869996 3.346619 0.961637 -3.289835
（ -1.573525 1.993529 -3.520654 4.004203 -0.426556 0.332627 2.221626 5.880409 3.287905 0.319023 -1.110659 -0.089785 -2.682484 1.096856 0.565576 -0.357023 -4.941909 3.036346 -6.172495 5.781384 1.013037 -1.205466 -0.009895 -1.823876 -0.132165 -2.463427 -1.111802 1.712162 4.891711 -2.007962 1.570383 1.614209 -0.562990 -2.387589 3.945521 -2.722893 -2.537937 -2.887039 -0.067967 -1.212958 -1.229212 -0.254927 5.450483 -0.623157 1.887585 4.682751 0.701817 0.086499 -1.112534 4.995130 2.736221 -0.063226 4.442930 0.497244 -0.052368 -0.804921 -0.652926 0.920137 -2.422528 -0.913121 4.319763 0.270626 3.031207 -0.659339
限 -2.109262 0.209812 -4.744021 2.110050 0.798055 -0.721263 -1.245625 -7.222542 3.071170 0.770591 -1.125368 -0.230211 -2.487832 -0.741574 -1.258151 -3.880394 2.933777 -0.926574 -7.478251 1.512188 -0.402214 -2.890648 -5.064559 2.591147 5.491256 1.672331 -0.956877 1.351774 -3.246914 2.984829 2.078870 5.081079 -3.632642 -1.820314 -2.195158 4.407985 -5.155147 0.207975 -3.478400 -3.155171 2.031248 0.542869 4.453312 2.051891 -3.366816 3.799339 3.662753 -0.145899 -7.943761 -4.934889 0.505552 2.917886 3.872150 -3.515840 2.909461 0.298576 8.305249 2.312233 -5.514083 4.298654 -2.702796 4.310427 -0.512797 -4.570313
中 0.777553 -1.703932 4.731667 -2.693076 1.083854 -2.380019 5.641171 -3.577017 3.660420 2.079815 -1.260623 -0.610273 1.764649 0.884400 1.162115 0.369918 4.986106 2.857937 3.071291 1.665386 0.276335 -1.960178 -3.076576 1.405378 4.102666 -1.358301 0.738588 -0.006649 3.942136 -3.623054 1.416632 -5.464270 0.670537 -1.130592 3.881639 -1.331964 -0.247422 -6.152862 0.324984 2.450831 0.165100 -2.619952 0.865573 3.097295 0.840624 -1.544122 -1.409757 -1.285107 0.510670 -2.706182 -4.044881 -0.492239 -1.433971 0.340013 2.583982 1.219585 3.327042 0.569685 1.271209 -0.209848 0.358878 4.218364 2.687015 -1.458999
． -2.252509 3.062226 -1.425967 2.133834 -0.000500 -1.119351 1.367808 -2.457296 -2.248559 -0.175329 -0.212424 -5.745966 3.020431 -1.801294 -2.238747 -0.553491 -1.730823 0.730757 0.297807 3.094794 0.738002 1.165966 -0.717877 -0.489478 -0.092191 -2.223747 0.540272 0.770411 -1.260943 1.961373 3.247698 -1.234149 -2.319673 -5.814218 1.830123 -2.512483 1.094437 3.179318 -1.885584 -3.349719 -2.124697 1.678711 3.846129 -1.721286 3.147092 -0.348914 4.666308 1.595167 3.233219 1.908144 3.865822 0.745135 2.180526 -1.849880 -0.470988 -2.125424 0.302782 0.467569 0.063726 1.497948 -1.341844 6.526549 0.755641 0.962383
市 1.984921 -2.339137 -0.764418 3.768165 4.239654 6.469963 -5.897470 -5.722530 -0.595053 -1.005141 -4.075354 1.297589 2.847184 1.254513 1.616675 0.020258 3.647039 2.253805 -4.432920 1.287544 -2.249041 -7.098856 5.306180 -0.281629 4.979985 2.758718 3.297154 -0.059417 -3.290105 -1.377628 -3.432388 -3.205265 0.593666 -2.978643 -1.396519 1.803636 6.346385 -1.052489 3.392882 0.854020 -0.535678 1.461309 -0.200906 -1.059882 2.031066 3.394139 2.779954 -1.813368 -0.123506 1.175359 -2.694494 4.040430 3.079485 -1.193586 0.438989 4.576377 3.635705 -2.361396 -2.105825 -1.279270 1.438980 -2.869125 2.781978 -0.615746
为 4.789217 -1.704956 2.021002 0.471963 0.271116 0.079583 0.147949 -1.143707 1.613540 2.022480 -0.353454 -0.685027 1.148471 1.973514 -1.816883 -0.492909 -1.738874 0.893899 -0.960481 2.535155 0.193329 0.435999 -2.310551 -2.948810 2.109317 0.562203 -0.264378 -3.061142 -0.008891 -0.870386 0.434746 0.301700 0.532545 -0.647719 2.377854 -1.010047 -0.263527 -2.340992 -3.070124 -3.952163 1.867765 -0.366494 -0.770345 0.064646 0.031683 0.221401 3.423170 0.720044 -0.303736 2.577542 0.681200 -1.472401 2.498354 0.670443 3.395774 -4.163135 -2.545787 -0.685754 0.160370 1.065097 0.367120 0.587161 -2.146254 0.776083
会 1.349635 -0.214369 -3.238875 1.655899 -3.151886 -1.619549 0.492589 -2.598070 1.708629 0.116351 -4.043938 -0.818744 4.092371 4.475175 7.403678 2.627801 0.393112 1.915422 -1.712985 0.771520 0.293528 -0.005151 -2.033130 1.850522 -0.871591 -2.586531 1.207853 -2.727877 -4.359285 -2.996235 -5.714232 0.112081 -1.559204 1.527647 -5.393518 -2.900520 -3.782639 -0.511829 -5.864559 1.287722 2.186687 5.418547 1.692654 -3.004701 2.845341 4.111681 -4.985820 1.747780 -0.680296 -0.721884 -3.673018 4.542806 3.464726 3.351857 -0.699900 -1.403948 3.094139 -0.287750 6.117257 3.064810 2.261385 -1.887808 -1.444649 -1.247668
国 -7.113682 1.136055 -2.218038 -0.273132 -1.420631 -3.228357 -1.863039 0.303397 0.422641 -0.232219 -3.831292 3.717466 -1.212167 -0.488722 1.595855 -0.737300 -2.034837 -4.290539 1.413909 -0.592886 1.233262 -4.835425 1.256087 -5.126955 -2.727774 5.217918 0.336795 5.231549 -1.207415 2.958569 -4.139921 -1.272918 -5.491444 2.440347 1.597211 5.081727 -0.790948 2.862336 4.278718 -1.928216 6.857171 3.566873 -1.607823 -0.738345 -2.284465 -1.136931 2.551080 -1.460836 -3.781122 -2.730302 -0.567676 1.030124 6.905888 0.394478 2.779944 5.162273 -2.165412 0.860187 0.099392 0.431106 -0.560891 0.665951 -3.624292 3.153553
上 0.347690 1.487844 3.439565 -0.003786 -3.719297 -2.150004 2.273868 5.259792 3.165146 1.014861 2.951288 2.873472 -2.530886 -1.035400 5.763838 0.160247 -1.004656 0.475054 1.158010 -0.408827 1.931114 3.125392 -2.840982 2.344184 -4.788607 -1.295006 -6.494987 -0.953618 0.360796 -1.178548 6.409854 4.866872 0.069823 5.648702 2.905345 -3.183670 -1.137709 -4.485723 2.981141 -1.990061 0.917532 -0.159177 4.533072 -0.720095 1.170902 -2.967456 2.145968 -7.070231 0.543087 -6.642801 5.289976 -2.373556 -0.297933 0.226847 -1.970349 -3.616238 -0.220149 0.975497 -0.755731 1.032356 -3.158441 2.056358 -5.403927 -0.834393
券 1.385882 -3.015384 -2.838679 0.876177 0.859089 -1.963207 0.441311 -0.916015 3.806853 -2.321897 -2.151313 2.481561 5.402515 -1.845031 -3.553833 0.636988 4.603924 10.135605 -4.552732 -4.389290 2.775445 -3.394330 -0.430247 4.648495 -5.583563 3.132339 -4.095300 1.659882 2.568505 2.149099 -1.374264 -2.313171 -8.101120 3.068210 -2.099334 5.360550 0.268380 -5.466272 1.308656 -6.162734 1.800350 -0.469713 6.908578 3.769192 -0.514759 2.050805 -2.735861 -3.842741 1.050624 1.198953 7.032477 1.963745 -3.398552 1.916101 4.570675 2.723189 0.967516 -1.161785 2.561486 -2.819575 -0.588075 -0.079944 2.460384 -1.538412
投 1.633482 4.589692 4.143330 6.342108 5.716424 1.985013 -0.940643 -0.994129 -1.444932 0.640742 -1.262133 4.744345 -5.009645 -0.780295 0.908039 6.680102 0.233885 1.078488 0.108508 -0.374283 3.017664 -1.287628 -0.524431 2.643028 -2.798017 0.853462 -2.182859 2.166238 1.540505 1.119975 -5.284974 2.103964 1.436460 1.962788 0.292932 1.442653 4.516721 0.381912 -0.215597 -0.550159 -4.163251 -1.012577 1.197121 2.847752 -2.557212 -1.107210 1.346556 -3.918225 1.015803 4.033355 -2.060210 -1.058327 1.691119 -1.738908 3.246275 -1.201042 0.648390 3.520712 -3.142779 0.867689 -1.577460 -1.997583 -0.737779 -1.711728
事 3.787232 -0.591107 -1.432425 -6.679790 0.800206 -1.357104 1.006368 -2.395450 -3.392265 -4.481809 -5.181715 2.145544 -0.311645 4.499565 5.627802 -0.060123 -5.371387 -7.170144 -4.836388 0.943762 -1.964061 -0.950465 0.216760 -1.320966 -0.022189 -2.603901 1.935230 2.700807 3.689193 1.829996 2.325938 3.249843 -0.881743 -3.480948 -0.108834 1.224717 -2.424383 -1.942020 -7.314363 5.272578 0.042351 0.764517 3.621321 2.404350 4.833773 -1.963276 1.227510 -0.472826 4.412331 -3.783509 -2.736350 2.768944 0.618610 -5.792397 -6.120296 5.643327 0.135264 -2.842632 9.841973 4.330280 2.133620 -1.381006 -2.969945 0.112153
务 -0.182985 0.256940 -1.876596 2.218230 -2.234109 -2.680295 0.462610 -0.582723 -2.276457 2.282538 3.444885 1.649536 0.730964 0.511357 -0.604471 1.657822 4.682973 6.944685 0.897290 1.473012 -0.699778 1.203612 3.189471 5.324338 1.424394 1.753580 -3.631956 1.286009 1.195688 -2.683753 -1.932362 -9.572497 -1.690523 -0.196479 0.903332 -0.497307 -3.462336 3.977237 -6.411141 -2.013204 0.428071 -1.698348 4.773627 -0.079204 -5.116152 -0.738625 -5.927521 3.849243 -0.518494 1.703830 2.492774 5.737296 -2.050849 -1.550562 1.758524 2.194022 -1.928845 -0.867456 3.070189 -5.809404 -0.423148 -2.506478 -0.021652 -6.660455
３ 0.339314 2.225496 -1.235803 2.100313 0.310735 2.134815 -0.718040 -1.828454 -0.167560 1.799315 -0.535878 -4.362699 1.475268 -2.367706 -2.732691 3.783598 -0.623468 -1.485438 2.631590 0.893205 3.213101 0.394982 2.848624 -2.379209 -2.410699 -2.896312 -0.371935 -0.304347 0.942235 -1.902425 0.902631 -2.167823 -0.551348 -0.510322 0.047049 0.410602 0.266535 -1.427351 -0.481647 -0.639761 -0.935808 2.324457 2.201372 -0.490958 2.696206 -0.482478 2.114275 1.719523 -1.384508 0.145611 2.450635 -1.634721 1.381496 -0.419691 0.335417 3.311507 1.233164 -0.886383 0.686896 0.530366 -1.482093 2.714115 0.733437 -0.723980
期 -3.969008 0.573083 -1.945825 1.684715 -1.210617 -4.978416 2.542736 0.321623 -4.581365 -2.263666 1.461300 -0.261900 1.421060 -7.322693 0.073948 0.422319 -1.865333 -2.833154 -5.061866 -5.278624 4.518739 3.532353 1.730935 -2.347200 -6.207154 -6.125389 -3.628041 -0.869594 1.930853 2.631456 0.543584 -5.736681 0.136555 1.673930 0.033500 -1.879641 0.319438 0.916189 0.551525 -0.875876 3.210619 0.077491 -3.075446 4.615488 1.664030 3.752716 4.409828 -1.938395 6.792272 1.722947 -0.316985 -2.424355 -0.719398 2.173157 0.872433 3.018981 -1.579553 4.064056 -0.657013 -2.985354 1.612043 -4.607226 4.179430 -5.969265
日 -2.581351 -4.482600 -2.542521 -2.989615 0.347944 1.300350 0.954134 0.899929 6.026856 1.984478 -2.315895 1.777022 7.720967 -3.178129 0.755978 2.480752 -1.995979 -5.991512 -1.472539 0.460485 2.993456 -0.926003 -3.166167 2.190376 -1.028087 -4.365111 -5.596231 -4.578756 0.443867 -5.009340 2.799955 1.000909 -2.792094 0.468484 -2.058544 -0.235064 1.857449 0.017583 3.851920 -1.394952 -2.979826 2.528092 0.177219 3.641044 1.660795 0.816876 2.753833 2.476187 0.793391 -1.201108 -1.318441 0.065187 2.328891 -1.047053 -0.314393 -0.001778 -5.185355 0.753192 -0.244452 -0.928651 0.424100 0.670365 3.166358 1.479715
和 2.083599 -0.700426 0.564045 2.374414 1.977778 -1.392727 2.170101 1.198547 -0.869681 1.345353 -0.888989 -2.261362 -0.780785 2.658495 -0.421773 -1.470459 0.223445 1.366913 -1.202162 -0.066203 -2.199629 -2.785448 -0.839986 -3.611249 2.026011 1.512089 0.920774 0.998333 -2.200564 -1.494444 0.149499 -0.208993 -0.370950 1.018457 2.857495 1.028812 -0.728728 0.191291 -2.103276 1.132112 -0.808056 -1.610263 1.838860 -1.401601 1.294703 1.941388 -1.456019 -0.221265 -0.522957 0.649813 1.722211 0.114065 1.269000 0.921945 1.681176 0.131055 -0.322586 1.174319 -2.312836 0.167763 2.778076 1.646038 -1.141057 -1.721322
理 4.103881 4.781032 -1.310446 3.066018 -3.810622 1.767010 0.726765 -4.021785 -0.126477 -0.559009 3.554559 -3.559663 -1.435466 3.526347 0.691587 -3.679685 0.759877 1.759332 -3.429201 -5.637896 3.984802 3.673071 1.048876 -1.754726 -2.393870 2.417950 5.049237 3.029775 -0.204080 4.130280 -3.016551 -0.764324 -3.422342 -3.375075 7.652128 8.257513 -0.720728 -1.081137 2.018865 0.056946 -4.394498 -0.238566 4.001428 -2.353408 -3.193890 -3.309637 -5.722435 1.178530 -3.347997 -4.435608 -5.542198 -1.937899 -0.600552 -0.094375 2.865345 -0.949925 -4.160246 4.657362 1.730579 -5.133267 2.261899 -0.388774 1.154082 -6.481618
经 -2.637065 -0.280006 -5.011192 -5.803078 0.702762 4.666460 1.021679 2.017743 -4.953530 0.847671 3.086877 4.158181 2.653573 -2.290041 2.057134 5.477407 -0.384666 3.472137 2.551909 -5.782021 -3.381611 -5.464276 -3.742377 -0.698776 0.486552 4.743164 -3.708681 0.807033 -2.654693 -4.411527 0.333567 -2.032866 3.109139 -3.297590 2.152286 -0.447666 1.301380 -4.648427 -6.017056 0.072802 0.779002 3.590009 1.639734 -2.375890 1.931870 1.389265 -0.380131 -0.145335 -3.601347 -4.988945 5.331076 -3.109864 -0.647659 -6.253816 2.501372 0.193598 -0.829578 -3.280255 -3.835402 2.000770 2.026123 -5.297377 -0.331702 -0.502695
关 0.614072 4.756616 -2.078518 -1.474210 0.356680 -0.673600 -3.487945 -2.019012 -1.089879 2.648135 0.875059 5.906074 2.645627 4.787263 3.684783 0.595755 -0.561422 0.138573 -3.204252 1.181509 -0.329377 0.416906 -0.734150 -1.156058 4.436961 -6.516458 -2.697332 -0.644634 3.418410 2.136832 1.197318 4.876573 -10.373424 3.461915 -2.131825 4.618737 -0.138872 3.410440 0.836360 2.769304 7.130906 -3.001760 -1.722743 -4.254654 -0.336573 -1.668587 -4.931509 1.595633 -3.519517 1.088795 3.706409 1.750643 1.412154 -0.860392 3.753816 1.063233 10.905270 2.943619 4.192718 2.892456 -0.982184 -2.125531 6.577466 -3.166085
一 -1.218928 1.154326 -2.885142 -1.876133 0.097947 0.116713 -3.994715 -2.190611 3.315494 2.071896 -0.809414 2.939874 -0.295661 3.433465 0.109741 0.057623 0.145516 -1.570518 1.573294 0.134281 -1.160413 3.945440 4.663445 -1.706969 -1.709053 -3.469696 -0.888765 -2.650100 -1.000691 -2.769869 0.261712 4.347534 3.165984 2.768142 -1.203654 0.679180 -1.050640 -0.928658 0.188791 0.044285 -0.075652 0.698787 -1.672438 1.783949 -2.392351 -0.718361 -3.335188 2.308974 1.329099 0.075625 -1.887736 -2.538276 -3.350206 -0.517606 3.478264 4.705436 1.293171 1.019533 -2.288003 -2.786189 7.039971 -1.478461 -2.314186 0.313157
在 3.139818 -0.937295 0.017238 -0.520073 1.633305 -2.814704 -3.088181 0.762276 -1.126629 2.656927 0.930728 1.369484 0.350956 -1.012268 -0.973568 1.756524 1.592076 -0.307585 -1.744455 -0.681617 -0.620583 0.201291 0.197224 -3.434808 1.198767 2.273234 -1.043351 1.777549 -1.461234 -1.867026 2.427600 1.835806 0.726840 1.013940 -0.781294 -1.210497 2.761931 -2.337291 1.169581 -1.050449 2.704934 -0.829466 1.414999 -2.700450 -0.244050 1.342484 0.404877 0.206631 1.466031 -0.042153 -1.028652 0.794127 0.241611 0.515488 0.585668 1.767235 -4.701156 0.446587 -1.453441 -0.101236 1.648181 0.166470 -1.275538 -2.472381
证 0.946306 1.403126 4.981820 -3.082094 -3.078128 -1.668050 -1.416973 -0.790170 -5.933587 -1.673024 -4.375513 0.311411 -4.722392 -0.522840 7.152326 -1.855367 0.309507 -8.209701 0.165089 -1.050347 -0.358853 -1.991159 -5.272002 -0.270676 0.277376 -7.121263 0.558959 4.940892 -2.144671 1.237568 -1.907502 -7.782273 7.008086 -6.319564 1.567614 1.342518 -0.745404 -1.552935 7.346583 2.869357 2.374883 2.844699 3.173597 1.126243 4.022900 0.448864 4.690491 -2.601613 -6.704362 2.520694 -2.325628 1.932872 1.711542 2.784488 2.417662 0.440401 0.697109 1.024572 0.335582 7.976725 0.218519 -1.932354 -3.350974 -5.912681
大 5.237495 -0.235102 -4.204679 3.035339 3.430181 -0.190644 1.386840 -0.543402 -0.055040 -0.392978 1.025194 0.977342 0.862791 3.509549 -1.460116 0.022078 0.606355 -0.431940 2.560435 1.913151 -1.105278 -3.142232 3.595799 -5.237473 1.109486 2.521962 0.467240 -3.346450 -2.803990 4.466506 -4.835910 1.850059 -0.800507 0.970784 1.230819 -6.500850 -3.948971 -0.155299 2.772888 -1.122767 2.864821 -0.701862 -1.184191 1.805515 4.011082 -3.541567 -0.762600 -5.459093 1.690195 -0.435953 -0.829385 -0.413830 -4.562858 0.408281 2.433355 3.361856 3.108818 -3.062248 -1.010104 0.093684 -1.898850 1.020139 -2.284583 -1.489242
及 4.621013 -1.307146 2.446554 -0.043332 3.049057 -1.446954 4.968706 3.523895 -0.290847 2.769940 -0.901944 -1.118243 -2.637401 0.668660 0.120177 1.062035 -0.287404 2.673513 -1.679675 1.547565 -3.384514 0.070034 -3.000066 -5.884542 2.840392 0.769742 -1.113602 1.299228 -1.550554 -2.569197 3.300678 3.532554 -1.774832 1.159264 4.335364 0.522883 -4.401497 -1.166355 -1.183218 1.063719 0.305817 -2.266703 5.548933 -2.179152 -0.139661 4.385870 -3.165169 -1.098871 0.433093 0.977291 2.163998 -1.485132 2.651110 0.067050 -0.514425 -1.319632 4.352609 1.393603 -1.005996 -0.905185 2.459729 4.612929 1.357304 -4.638328
５ -0.093978 2.032215 -0.858208 1.589922 0.770136 2.048019 -0.835841 -2.154693 -1.229642 1.881273 -0.370236 -4.896893 0.704572 -2.613447 -3.126775 3.172992 -0.199389 -0.767840 2.518138 0.546623 3.623545 1.044824 2.721814 -2.390383 -2.228813 -2.376704 0.032228 -0.464167 0.495295 -0.538501 1.085646 -1.736585 -0.849452 -1.485792 0.168997 0.007820 0.383312 -0.813219 -1.138268 -0.547655 -0.570341 2.289128 2.802989 -1.201791 2.565579 -0.802343 2.285087 1.012897 -0.975038 0.223961 2.720248 -1.243177 2.186191 0.160492 0.809416 3.541481 1.913899 -1.206187 1.805299 0.770968 -1.381531 3.104694 0.662135 -0.115472
元 1.291063 3.536762 -5.514617 0.257330 -4.101191 5.553890 4.105251 0.956586 -0.346767 3.573291 -2.138432 -2.260322 6.122081 -6.294849 2.836600 -2.187250 1.593324 0.472637 0.682994 0.856673 1.358376 5.996471 0.595548 0.995955 -1.454360 -3.673801 1.335873 -0.408560 3.518315 4.366543 -1.777769 2.728180 0.896461 -2.549794 8.679225 -4.487758 3.333875 1.322659 1.438494 -4.341206 -3.552058 0.898596 -1.137192 2.044929 0.678647 -3.654307 6.136955 2.806845 -0.897023 2.995648 -4.292809 -1.871201 5.972652 5.819786 0.892852 -2.595313 -1.240869 0.695161 4.827264 0.387389 -4.693766 -0.797837 4.782520 3.142707
东 -2.177156 -4.162946 4.284667 0.129472 -0.759258 2.061197 -1.929093 2.569698 0.229001 4.103783 -4.356678 3.305163 -5.300154 -0.605208 0.611544 -0.467752 0.225791 1.610320 -0.032235 8.311545 -2.631497 0.704377 1.495831 0.690239 0.104022 -2.832495 -6.882536 -2.693809 -1.697412 2.147893 1.354526 -1.501379 -2.404406 -9.438067 -3.055517 0.640093 -3.035719 -3.614161 1.157040 1.560580 -1.891110 4.519921 -0.638573 2.123938 -0.916077 3.060526 -0.347320 -0.775602 -1.403527 -7.564545 -0.754728 -2.631549 1.131444 -1.105397 -1.619793 3.323705 2.483913 -8.640999 3.526648 -1.512722 -3.395448 -3.877124 -2.948040 2.530425
份 1.268136 -0.240721 1.737777 1.481441 1.955403 2.625795 -0.011909 0.106830 4.523203 4.679606 -2.802882 -0.076285 -3.478392 -2.835992 -2.660971 -0.879628 5.362113 -1.344882 -5.331670 4.182003 1.052116 0.202690 -3.103083 4.841804 -1.781224 -1.819120 -4.901946 -2.679218 -2.061109 6.545532 0.857612 -2.787926 -1.892024 -2.759925 -3.062149 -0.636447 -7.394664 -1.198015 -4.702293 -1.794584 1.091268 0.918210 -0.181257 4.506017 -3.159508 2.245600 3.766769 -3.820655 -4.633602 -6.534893 0.950868 -0.234709 4.336839 1.002561 1.447619 4.620657 -1.605809 -5.269924 0.047837 1.565115 -1.978199 -5.600510 1.086075 -2.854642
合 3.119930 4.404907 0.806444 4.995366 -0.217713 1.887960 3.746337 4.918372 -0.687016 2.916612 -0.245570 -0.176223 5.544837 6.272368 4.691725 1.837711 2.183278 0.912050 0.750227 0.364537 1.146504 -6.971896 -2.598403 3.496183 -1.312982 -4.780719 0.549976 -2.625135 -1.067609 -1.277784 -0.311476 -1.582173 -4.897378 1.775548 -4.238045 -0.002089 3.109208 8.516840 -8.932135 3.776938 7.418809 0.946014 -3.013753 -1.045576 -2.421515 1.364505 5.231077 0.415081 1.115171 1.717269 6.511827 0.275615 1.945275 3.633846 3.018773 -2.055290 0.249247 -0.267112 -0.016646 6.933306 4.933963 -3.794599 -2.583269 2.369806
月 -1.562681 -2.157200 -8.229423 2.261022 -7.791486 -7.191705 -0.667752 -2.463766 3.033301 -4.659701 3.362986 -2.816239 3.474509 -4.727073 -4.344186 -2.987964 -2.472196 -4.803161 -0.879306 -0.004663 -7.769871 -4.885946 -0.306505 2.267991 1.443499 -8.143176 -1.572883 1.860301 0.213931 -0.539595 5.150254 -0.710189 -6.449721 -1.386740 -2.090156 -5.578929 4.261064 -5.125239 5.030718 -7.780242 3.174405 3.476082 0.365257 2.037159 3.957511 -5.002427 3.056292 1.537703 -0.148814 -3.418966 -3.133100 -2.539642 0.030181 -1.403276 -2.818937 -2.744987 1.705709 1.030283 -0.829456 4.175515 -3.360965 4.117268 2.560972 -3.233544
４ 0.253255 3.015275 -0.965919 1.385304 0.686686 1.782336 0.056358 -2.077459 -1.316547 1.523520 -0.763131 -4.684464 1.375774 -2.024108 -2.410003 3.244006 -0.680884 -0.685378 2.574167 0.731426 3.597913 1.428038 2.862893 -2.523448 -2.367579 -2.362781 -0.220240 -0.099384 0.801019 -1.186325 0.399830 -1.846832 -0.250092 -0.990532 0.043787 -0.180680 0.371098 -0.292373 -1.056731 -0.385339 -0.544639 2.461751 2.335262 -1.564542 2.571005 -1.051476 2.261300 1.515718 -1.280708 0.502628 2.497273 -1.462596 1.713869 -0.390233 0.649168 2.964565 1.765160 -1.193317 1.368639 0.720755 -1.647045 3.327351 0.526622 -0.432416
９ 0.157909 1.362077 -2.398332 0.999987 0.765596 1.347929 0.063741 -2.854536 -0.647917 0.822290 0.558745 -4.476224 1.437434 -2.367158 -2.657568 3.802701 -0.757781 -1.319840 3.166398 1.099957 2.599820 0.690145 2.798628 -2.388238 -2.701018 -2.545590 -0.493315 -0.579648 1.450725 -2.584085 -0.124284 -2.175032 -1.811195 -0.920560 0.051641 -0.407066 0.575450 -1.025154 -0.837696 -0.090315 -0.447190 2.432937 2.061071 -0.946505 3.069671 -1.027982 1.310355 1.330893 -1.673211 -0.759343 2.538363 -1.811780 2.755441 -0.445451 0.081368 2.950067 1.594697 -0.194106 2.027351 0.410589 -1.359308 4.351484 0.476496 -0.727873
定 6.410300 -0.352573 1.434257 4.784186 -7.031234 1.860148 4.753980 -2.274115 2.266246 -2.847906 -4.183725 -2.584858 1.690448 0.661715 -0.310392 0.249738 0.405766 2.111813 1.942819 0.139544 3.275895 2.278247 1.582758 -1.725044 0.504417 -6.180136 -3.560422 3.851293 -2.119854 4.550202 -1.073509 -0.954655 1.419177 4.419176 -1.399333 3.764524 0.086364 -2.440093 -0.000111 5.457076 3.067155 -5.358094 2.726808 -0.772445 -2.063484 2.754225 -1.399030 -4.428216 1.323561 1.218012 0.961053 5.936959 3.234316 -3.722220 -2.783602 -1.417457 -6.899039 -3.401944 -0.706081 2.208496 -4.278729 0.860422 5.615098 3.403463
６ -0.090613 2.402503 -0.763108 0.978999 0.382203 1.740131 -0.239477 -2.002595 -1.052571 1.780072 -0.427684 -5.053301 1.343628 -2.656116 -2.690029 3.390295 -0.444332 -1.739827 3.024555 1.297952 3.154099 0.926207 2.729504 -2.530931 -1.950676 -2.886915 -0.316584 -0.048428 0.184590 -2.039301 0.967686 -2.532945 -0.931605 -0.935337 0.030242 0.224531 0.532897 -0.338868 -0.854439 -0.371096 -0.699167 2.901707 2.666505 -1.807625 2.682589 -0.505571 1.861778 0.993701 -1.241639 0.278428 2.605564 -1.605640 1.765314 0.259250 0.926667 3.009050 1.255541 -0.892314 1.679648 0.290021 -1.941858 3.600319 0.552390 0.100033
８ 0.404409 1.895465 -1.416099 1.641618 0.640925 1.538587 -0.179013 -1.986976 -1.079719 1.767035 0.162680 -4.778466 1.299433 -2.333946 -2.700211 3.662031 -0.254901 -1.493366 3.492036 1.112564 3.334839 0.793624 2.905226 -2.906713 -1.765372 -2.650295 -0.226090 -0.128875 0.333984 -1.901139 0.933953 -2.401226 -1.398267 -1.344280 -0.031694 -0.001873 0.928137 -0.188553 -0.500623 -0.977599 -0.747803 2.258125 2.125185 -1.310913 2.850422 -0.748909 1.823211 1.175999 -1.438756 0.634520 2.388367 -1.470664 2.054887 0.604450 0.540794 2.630901 1.874200 -0.546021 1.846238 0.241517 -2.240825 4.078479 0.655543 -0.560351
债 -1.573301 1.884774 5.979628 -3.579658 -2.238810 3.311988 -0.049365 0.206704 -4.000788 -0.428879 -11.668283 -5.555753 -0.781355 -2.066635 2.903267 -2.755322 -4.453886 -5.973464 -4.240919 -4.296093 3.789755 7.702768 -1.162557 -2.882963 -1.380205 -9.692729 4.026542 -0.463195 -1.003127 -1.855086 0.216403 5.788571 7.004457 -5.216102 1.306734 4.574283 4.727462 1.285284 0.945836 4.200492 5.533286 -1.644341 1.691749 4.502251 -1.674243 1.985164 1.893129 -2.056459 -0.057754 -0.078861 -2.564456 -2.921558 0.196691 -3.249083 0.222363 -0.368219 -1.308101 6.458664 -3.408152 8.039961 2.405384 -0.174624 -1.681580 -2.674749
交 5.623919 1.409299 -1.672869 -1.953679 -2.502777 0.998285 -5.671462 -0.619062 4.078144 -5.531253 -9.344112 -3.554913 -2.769740 3.108644 2.124015 8.196968 8.142252 -5.134135 -3.363714 5.659106 -6.498539 0.727656 2.040119 -3.156930 -3.682547 -1.214188 -3.832905 -1.057367 1.410895 -0.049192 4.719442 -2.032664 -3.634316 -0.465348 0.539280 0.745485 7.253333 3.261062 3.320919 0.627716 1.892502 3.618291 6.873863 -0.591525 1.920308 2.632251 -2.728132 -0.924961 2.431288 -0.394045 3.173617 1.181764 -5.450079 -2.112084 2.567573 -7.710879 -0.518236 3.144671 3.234463 -4.327835 -4.970647 -11.090124 0.207377 -2.747372
议 5.393031 3.033836 0.906971 -0.695848 -4.880148 4.390506 -0.788933 -0.467380 -2.574246 -0.971098 -6.061153 8.392179 1.765773 0.141677 -0.246336 5.456290 -5.108129 1.929862 1.075211 5.144350 -1.219547 -0.561257 -3.475218 -1.375038 -0.994781 -1.546453 -0.433814 0.608708 -1.474182 7.311529 -1.729119 1.734189 -6.572006 -3.176660 -4.301409 -2.375116 1.903477 -5.810523 5.278193 3.932139 -3.046546 0.965990 2.804297 0.697587 1.012448 -5.106705 -3.948160 -3.707546 -0.673247 6.718698 2.024689 -6.155799 -1.608866 -10.108091 -3.982375 1.749380 -2.883888 -2.436191 6.108543 -3.166311 0.140120 0.253973 1.564203 -2.897966
于 -0.526356 -1.465294 4.113696 2.600328 3.503952 0.434636 2.415717 -0.361394 2.687513 0.523776 -0.242813 -3.756018 3.664950 -1.022054 5.224467 2.030773 1.656355 -1.085411 1.396585 1.010189 -2.759850 2.562989 1.731703 -0.869048 -0.442974 6.306855 -1.011451 3.986187 -2.912274 -0.241552 0.374405 2.448239 -0.895752 -1.708478 -1.257697 -4.017523 -0.955617 -2.968618 -0.096760 -1.142106 -5.521173 6.533327 4.221607 -1.806130 -1.112520 4.044641 5.742516 -1.854883 1.467458 -3.037554 -1.640201 2.864907 -1.648612 -2.277276 -5.960233 0.498124 -8.686802 -0.336424 -0.187281 -1.216586 6.628149 2.669350 0.436137 -1.562137
７ 0.366762 2.352912 -1.208315 1.564701 0.502504 1.907789 -0.116813 -2.483361 -1.420572 1.318120 -0.330418 -4.891594 1.254876 -2.522533 -2.649074 3.433518 -0.452944 -1.090246 3.280268 1.262303 3.322369 1.237427 2.708671 -2.635247 -1.947116 -2.643009 -0.336985 -0.280830 0.514762 -1.732240 0.993874 -2.026672 -1.102858 -1.188266 -0.077037 0.102776 0.919437 0.080851 -1.602409 -0.605773 -0.100092 2.511210 2.568377 -1.635860 2.625120 -1.024710 2.493101 1.220243 -1.036270 0.350339 2.478234 -1.291342 1.849617 -0.051791 0.781522 3.061205 1.249332 -1.083422 1.767596 0.223995 -1.396954 3.464449 0.791092 -0.650225
权 2.126040 -0.941546 0.867126 3.597685 0.920666 0.136615 2.004341 -1.756873 2.440637 -0.172272 2.379926 1.161801 2.086513 -2.909162 -1.843345 -0.247319 -2.489408 7.676483 -2.685698 1.810264 0.293945 -0.248935 -1.717819 -1.515592 -5.065762 -0.653856 -10.200888 -0.871726 0.788154 7.341430 -1.690396 0.160744 -3.236615 -0.064917 -1.517649 1.081825 -2.937261 0.190252 -4.763054 -3.319007 -3.818018 2.214704 2.117648 1.199045 -4.181210 2.317085 1.297871 -0.957916 2.882270 -2.871234 3.884094 2.185972 -1.678424 -4.350940 2.234160 2.115629 2.508766 -8.675611 1.910055 -0.528711 -0.555370 -0.710670 2.244520 1.014088
对 3.411452 2.302068 0.789919 0.310176 0.747077 -4.358608 -1.327823 -2.193310 -1.725750 3.109775 -1.875092 2.849156 -1.134762 0.614699 -4.058808 1.538215 0.552982 1.844455 -1.174342 1.602098 -0.182187 1.394186 -2.626896 -2.087441 0.630072 -0.944117 -3.021169 -0.067168 -1.356057 -1.501583 2.248781 5.229357 1.449544 -0.567495 2.020483 -1.832304 3.809270 -0.090345 -0.974479 1.842153 4.172113 -2.344227 -1.804595 -3.459853 -1.253154 1.061259 -2.314938 2.909967 0.081155 -0.557051 1.320617 0.645740 2.419579 -1.953363 -0.988623 -1.494496 1.702473 -1.075599 2.494099 2.220068 -0.871052 -1.791617 -0.565071 -1.979161
集 1.708089 -4.071553 1.297152 -2.797660 0.006190 -0.365997 -1.739730 -0.441663 -6.292820 0.091320 1.406056 3.543765 -4.701857 -1.791988 -3.403690 8.168274 2.495543 -1.583544 -4.937594 -1.220282 -0.316941 6.663733 7.072721 1.756706 2.885176 4.800119 2.640849 3.729251 2.773563 -1.438802 -1.266253 9.942513 -1.824057 0.479498 -2.025460 0.654076 -4.409957 7.008379 3.944687 -4.768016 -7.021389 2.679868 -3.681591 10.051975 -2.785771 -2.835089 3.763419 -0.690650 -2.890928 0.693829 2.583966 3.134534 9.818987 5.579321 4.785316 3.424729 -2.669728 -6.267629 -3.513116 1.696170 -2.808333 -1.798163 -1.188072 -7.361826
计 -4.515531 -1.572926 3.269814 -4.458759 -1.365842 -2.294829 6.327293 -3.394342 1.216396 0.364671 -1.186827 0.691535 2.704867 -0.142159 -7.460683 -1.152355 -5.594596 -3.128889 0.540767 3.145537 -4.720656 4.451195 3.210394 -6.529871 -3.477294 2.664734 1.284762 -3.827899 4.164473 5.780325 -6.361695 -0.107887 -5.913056 -6.408046 4.656776 1.811209 3.838047 -5.912370 5.339859 -2.109185 -7.409856 -5.985435 2.126419 1.920809 2.174132 -0.438533 0.979557 3.402679 -4.352087 3.711174 -1.544270 -3.672018 -5.739913 -9.380023 1.937063 0.029901 1.003260 1.947162 -1.327369 -6.857841 -2.277303 1.587226 -1.021362 -5.583028
管 -3.898134 -2.581984 8.363350 -4.824524 2.054477 0.865754 4.253653 1.110638 -3.051224 3.620184 -2.107797 1.519564 -2.603637 3.803025 -0.502073 4.103023 -2.828502 0.693313 -2.480883 -1.220639 -1.714072 -8.084581 -0.580864 -0.101424 -2.856052 2.478848 -0.345909 6.677464 0.216473 -4.218383 -2.272698 -5.345920 0.902013 1.368366 -3.603024 -5.581387 -4.776372 3.465609 -6.205507 5.206646 4.036647 -2.185144 -1.343381 4.558860 2.554022 2.785046 0.935416 1.839422 -2.090516 -0.263955 6.766693 6.122779 -0.775079 -6.072437 0.074760 2.949041 2.608527 5.565020 1.318090 9.006111 -0.944622 -3.086123 -1.082762 4.808010
利 -2.734034 1.252561 -5.496057 -1.910508 7.157083 4.328842 0.968880 -6.648379 -3.520586 -1.097046 -1.194624 -1.480973 7.965277 -3.034201 -1.008991 -4.147721 0.354786 -5.722336 -6.106979 6.468867 5.289333 0.661330 -5.598188 -3.581800 -3.577361 0.519270 -8.192514 -4.351960 0.208523 -1.527429 -1.317185 4.774436 5.943126 0.910611 -3.323119 -4.762040 5.753691 4.673492 -1.306815 6.995369 -4.151216 -1.008462 -1.943042 -3.426720 -3.903396 0.967124 0.219052 0.602603 -1.355106 1.237456 2.569094 3.399845 0.067099 -1.361737 -2.095574 -1.304633 3.340692 1.667229 -2.665844 0.012993 -3.816630 -2.362205 -0.010046 -2.512973
次 4.594992 -0.519871 -0.765985 2.167913 1.374314 -4.521689 1.455959 7.204502 -3.531931 -0.432590 -3.859190 -0.071976 2.382444 -5.645116 -2.153777 -1.840055 -1.540279 -0.009627 -3.592591 -3.131486 2.993748 6.482906 -1.648195 -2.417541 0.761458 -3.223181 -1.824181 -5.936471 -0.254889 1.182800 0.515389 6.751640 -0.711594 0.965940 1.484089 -2.337976 -3.673654 -5.185285 3.855023 3.289707 4.999331 3.565184 -4.102437 3.908542 6.694798 3.207838 3.641451 -0.190638 1.313413 2.590481 1.486171 -0.744448 -3.686419 -1.358501 0.295852 1.108225 -0.077952 1.227627 4.473866 -1.894654 -1.523474 -4.215839 6.479569 -2.070422
不 1.399958 -1.831066 2.889868 -1.869423 5.283246 -3.344495 -4.442864 2.957420 -3.099237 1.585815 3.294055 -2.138924 1.843127 1.378894 2.894034 3.197544 0.567937 0.619701 1.568640 -1.011036 0.936312 4.642291 2.029279 -1.795219 -1.443484 -1.450120 1.028037 -2.843308 -3.366924 2.014157 4.778114 1.395440 -2.918881 -1.586726 0.038768 -0.979174 3.994300 0.981280 -1.310387 -0.646136 4.548887 -2.738560 -2.801513 2.280867 -2.310905 -1.176507 -1.340026 -2.378761 2.838707 -1.480249 -1.570004 -2.989019 -0.577833 -2.487634 0.646446 2.735334 -3.039578 -3.576394 -3.151418 -1.522786 4.325922 -0.056581 1.384026 0.291801
营 -0.578674 0.790939 0.281944 4.176195 -0.318355 -0.441630 -0.802232 2.015638 3.598605 -4.310755 -0.577928 0.554470 -1.435516 2.436951 -7.288826 -3.607436 -2.273029 -4.146700 -5.783650 2.464118 0.869314 3.944232 11.273160 2.636924 1.995416 -4.701520 6.255651 -3.566970 1.082896 -2.310007 -4.764866 -5.291843 -2.128417 3.553262 3.487337 2.100428 -2.256955 8.631968 1.344976 2.566657 -0.624893 -4.793349 0.003558 2.809712 -2.212027 -1.668659 -1.162083 0.912216 -5.169366 -3.444539 -3.840216 3.331220 0.193611 -0.427950 -0.878927 -5.195715 -1.542032 6.473157 4.378671 -2.338214 -2.879722 7.365976 0.439856 -2.249089
其 -3.764830 0.069343 -1.204376 1.767460 -1.274854 2.855693 -5.209616 2.554618 -0.085938 -3.360320 3.853835 3.649240 -2.132264 -0.686416 0.929046 -1.925103 -3.972095 -3.512327 -1.739536 -6.770265 1.057909 3.483667 5.521852 0.152487 -8.187666 2.195721 0.750033 0.722565 -1.882387 7.233477 -3.165104 2.570961 -2.684477 -3.385507 -5.756214 0.830470 3.119928 7.934000 0.600635 -4.228820 1.200719 5.246022 7.035159 -2.737915 -2.272540 -0.538277 -0.216267 -1.370434 -1.324368 2.477423 4.435412 2.187972 1.166810 0.454387 0.365899 1.321317 -0.712968 -3.960646 3.218188 4.833927 2.103166 -4.268999 -4.285076 4.537387
方 -0.257124 4.204628 4.180550 0.133075 -4.509565 8.331104 0.897876 3.094084 -0.296739 -2.726569 -1.726211 -0.111155 7.534336 1.210694 -4.922209 3.603816 2.112593 -1.035603 2.297607 -1.282538 -2.305157 5.837797 -7.148322 1.667181 3.127832 -2.263082 3.270156 1.552917 -4.029045 6.351539 1.357533 3.966452 -0.830467 6.949918 -1.796764 1.425945 1.479125 0.325297 -0.958443 4.393453 -5.561802 4.119910 1.374553 0.278385 -0.104220 -1.743805 -2.455045 -6.401804 -0.871073 7.786177 2.055465 0.174329 -2.153553 2.601017 4.907837 0.870770 -2.722734 -1.688272 3.843120 -4.681857 -4.194178 -0.483200 -0.970899 0.749223
项 -1.721331 1.608315 2.011212 3.192141 -5.564875 2.355155 -0.442669 4.700989 2.114359 -0.005084 6.304129 -8.552029 0.848655 -1.236873 -4.178906 2.923464 3.917116 2.381657 3.214777 -0.857433 2.422728 9.322401 -2.307917 3.276216 1.290051 0.431733 -1.562520 -0.209978 -8.824313 -1.373461 -8.698790 1.569845 -1.798055 1.229248 -2.994859 -3.925113 -2.267782 0.889858 5.209545 -4.248644 1.827809 2.427427 -2.948238 -5.729502 -0.544086 5.957623 -2.085971 5.207724 -3.596236 5.180728 0.721862 -2.127260 -3.409379 -2.271846 6.643638 -7.865534 1.823035 3.285556 -7.287509 -2.661833 -0.243477 2.415794 5.670039 -0.377473
以 2.359690 2.270061 -0.551640 0.114161 -0.346858 1.094441 -7.095450 -5.277820 -1.211798 1.197531 1.597271 -2.000134 2.146885 -2.512219 -2.027752 -0.385931 4.176042 -1.028329 -2.057860 -1.742795 0.768968 -0.101404 0.360010 0.024007 0.442894 -0.821752 3.267191 -1.670885 -3.962001 2.710597 -3.372768 -1.561310 1.184394 -0.801327 -1.903766 0.648295 1.365199 1.637161 2.710624 0.621830 -0.767453 -0.471592 -2.904898 2.173870 -2.723574 2.077258 1.022817 3.612092 2.931355 1.683193 -1.330229 2.685469 -2.545830 -0.639606 -2.827023 1.308325 -1.120807 -2.481863 1.244608 2.467922 0.872516 -1.489306 -3.610199 -0.484411
法 4.127622 -0.154635 -1.891834 -1.626484 0.860628 -2.809510 1.372770 -6.499908 -0.871813 -1.217064 -3.096062 1.573588 1.080752 -2.284521 4.864875 1.211600 1.754368 0.866454 -3.971959 0.197625 2.363815 3.277443 3.907222 -1.347157 -0.934625 -1.012468 -4.911849 3.778418 -0.873982 3.567863 -2.006744 -4.741896 -1.048363 -0.294176 7.475318 3.899339 -3.344473 0.921556 2.662479 3.247041 1.344911 0.521644 1.701756 -6.254647 -4.130902 -5.802584 -0.640841 1.319119 -0.482151 -3.898606 0.586899 -4.074233 -4.410780 -3.380830 3.020764 -0.725372 2.279233 -2.395293 -3.212909 4.203455 9.064901 0.327395 1.339164 1.190505
用 0.895134 3.443631 3.733254 1.731299 -7.439308 0.707011 -0.289873 2.985172 -0.357175 -3.375692 -0.124671 0.099930 -3.588400 -0.342686 -3.130801 3.204469 2.843410 4.943735 -1.191579 -2.634727 -3.761898 -0.156536 5.415863 0.488844 -0.752005 0.845476 3.437105 4.180673 -0.169017 0.489000 3.617315 -1.841731 0.476866 0.880186 2.495761 -0.305456 6.337786 -0.093629 -4.726030 -5.926645 5.480246 -5.281492 -4.691932 0.669005 0.886246 0.216996 -2.043601 1.217003 -3.180108 4.472806 -2.336444 -4.998391 -1.572500 2.983252 0.987686 -2.663928 7.359333 -1.826824 5.020740 5.531252 -2.053375 3.618924 -1.751387 -5.472686
工 9.005066 -2.436228 1.433626 5.005136 -4.318178 3.275811 2.588547 1.633191 6.496659 3.355510 4.921936 -1.087942 3.361190 3.709594 0.868188 -5.805619 0.191283 3.172395 2.756305 -5.264088 -2.699213 1.946016 3.048036 -0.232039 3.128963 4.897907 -1.320252 1.059447 3.104143 -5.375569 0.078963 -6.203319 -5.294429 -0.236386 -0.615420 1.849749 -4.979443 1.473756 -4.424142 -1.833986 3.144224 -1.632959 -1.022002 3.827611 3.767320 -3.543676 0.609470 5.364866 1.549660 3.936776 -0.592429 1.864311 -1.344531 -2.673227 5.024914 5.401059 2.036905 -3.510891 1.500538 0.438921 -2.662400 -0.912451 -7.112783 2.046894
易 -1.702793 5.128932 8.945267 3.505083 -1.097711 -5.538369 -1.444774 3.828336 -4.119640 8.918630 0.378870 4.249037 5.767725 0.989817 -0.964589 -3.884181 -5.498632 -2.314368 1.279086 -0.071294 6.759774 -3.906436 4.478198 2.464570 4.147598 -4.725031 1.922013 -1.590047 -6.118928 -4.863679 -4.184634 0.045780 -2.758827 3.201351 -5.044709 1.667292 -2.783470 -7.174631 2.462316 -5.415873 -0.930910 -6.122417 7.790203 -2.570433 -2.745375 -1.666600 6.541127 -1.828723 0.722310 -2.502602 -1.189792 -0.906317 -1.699275 -0.775701 -3.453668 1.366916 1.576378 -6.557600 1.946668 3.236561 1.510495 -1.712510 1.505568 -0.476030
通 -7.936303 -0.323689 -3.162266 -7.512039 6.155464 -4.901532 2.002944 6.923546 -0.793933 3.274756 1.706012 0.800809 0.544023 -0.870809 2.833372 6.227115 3.847741 7.665881 3.238069 2.700630 3.815639 -5.356329 -2.494046 -2.497957 6.884637 -4.961291 4.216174 -2.818077 -8.246661 2.656173 -2.570795 1.002444 -0.167848 0.319532 0.475036 1.195064 -1.241844 -9.618223 3.779265 -1.556895 -5.136243 0.110538 -0.101632 -1.432350 -1.594300 -5.660116 1.948678 -2.823717 0.951172 -0.604774 1.046646 0.700345 1.226595 -0.208905 -5.493285 2.156547 0.874368 -2.430268 0.861941 4.737511 0.239562 -7.532414 3.396096 -5.581053
； -0.696762 1.534199 -1.699678 1.117342 -0.416093 -1.115240 2.383228 1.013275 1.875923 -0.605185 -0.773875 -2.805108 0.085885 0.878797 1.337589 0.379032 -1.732604 0.225973 -3.222141 0.291701 -1.103106 -0.555324 -1.587621 -0.882944 1.833515 -1.596521 0.465601 -0.413221 0.370856 -0.296815 0.370698 0.053645 -1.736704 0.652199 2.485861 -0.866227 -1.192058 2.938561 -1.445527 -0.905018 -1.830579 1.320723 2.905913 1.234285 2.035688 1.013364 0.435983 0.886334 0.990862 2.468609 1.211246 -0.796498 0.216384 -1.671057 -0.554198 0.081202 0.301484 0.016329 -0.802241 -0.200320 4.073287 2.913556 -0.867894 0.113793
所 1.286786 3.432609 1.041055 0.840606 4.190331 3.536677 -1.865308 2.745791 1.475390 0.182637 -1.374164 1.131497 0.223694 -4.977128 7.171943 1.733463 -0.905261 0.658716 -1.452563 0.842218 2.843007 4.242994 -3.022473 -1.216946 0.292195 -2.024898 1.803043 -3.991557 -3.562086 -0.135126 -5.144432 3.314887 -2.618402 0.696001 -1.299387 4.246228 1.429654 -0.410150 0.375918 3.787817 0.338823 -2.067342 4.475979 0.097739 0.105898 0.767972 0.367552 -5.346220 -0.156926 -3.999676 0.437343 -0.266269 -0.030781 1.764811 4.713606 2.160764 3.349988 -1.085231 -3.215160 0.656784 2.842241 2.053061 4.991312 0.683880
收 -5.642478 2.440758 -3.301439 0.882815 2.267327 1.827912 0.489013 2.494721 0.238843 5.420696 1.476020 -4.373493 0.153908 -4.715416 -1.663471 -3.375765 -4.244462 1.138715 5.565419 -4.167847 -4.663270 0.400611 0.654298 -0.737573 -2.982832 -4.620594 -10.592551 1.313390 -0.630938 0.516632 -8.418184 0.423460 7.146970 -1.054184 3.049072 -1.504658 5.882304 2.909461 -3.262995 0.445425 -7.044434 -7.005947 1.636691 0.335022 -3.260731 7.551922 2.521537 -3.439764 2.203871 -0.637871 4.020583 -1.164424 1.625243 -7.037989 0.616458 -3.092035 2.860126 -3.351377 5.956922 -3.099589 -0.005643 -2.541542 -2.871830 -2.634877
重 -0.397557 5.741011 0.876579 0.934208 -4.573783 -3.100940 4.351839 -2.805674 -3.128069 0.880373 -1.128543 7.914176 -6.133861 5.078009 3.583165 3.998283 1.017817 3.089606 4.028657 -3.059230 1.783625 -0.231365 2.831476 1.266990 -0.520806 -1.408919 -1.361318 0.707194 -2.925267 -4.732216 3.441701 6.283092 -6.906172 -0.914596 -2.606341 5.109339 7.647826 -3.999407 -1.287447 1.687014 -1.966182 6.222535 1.205024 0.235583 -2.501119 5.657660 1.640010 4.270695 0.791971 -2.367843 -1.208805 -2.585088 3.302776 -1.192032 -4.378302 -1.351412 0.129827 0.208444 -5.268836 -5.032467 -1.911760 -4.310980 -2.195490 4.520817
出 5.581027 5.132662 -0.879245 -0.178915 5.239749 -0.834498 7.306342 -4.258683 2.522079 3.823747 0.960433 2.527661 -2.279552 0.290889 2.845789 1.631588 0.651193 0.949935 2.136027 -0.797677 -3.221632 2.045435 -1.084597 -3.741047 -2.033150 -2.674618 1.702618 -0.792178 -0.337359 -4.668518 -1.857377 -3.258660 -0.620363 2.875027 -2.770472 2.179806 3.042084 -0.027798 0.959805 -4.051290 1.778371 1.219394 -4.465152 0.479406 1.869445 3.657131 -0.548833 0.826028 1.765974 9.383576 -3.491856 0.149058 -0.162676 -6.385666 4.071379 -3.951955 -2.528287 -4.894393 0.110242 2.626984 -4.910694 -2.223470 -7.279745 -3.458688
分 2.246934 -5.937854 4.156403 -6.053993 2.485123 8.534950 1.532869 -0.448411 -3.214873 -1.144172 -1.212340 2.899914 0.806848 4.497846 -3.508881 -1.773861 4.463257 -2.891769 -3.975115 -1.094638 0.730330 -2.029387 2.614057 6.965273 -2.113433 -2.552028 -1.714696 -6.201110 -0.350428 -0.061401 1.667917 1.259847 -2.192312 0.632181 5.299211 -5.580603 0.661404 -0.890685 2.105317 -0.937902 -5.061204 -0.348631 2.853609 -7.195920 -1.886644 3.903072 -2.853632 1.994601 -0.593774 5.293638 1.487995 -5.968662 0.655564 0.578475 -2.239532 3.835270 -0.636904 1.062275 -0.612333 4.017884 -1.235365 0.848951 -3.635735 -1.451319
任 6.610151 1.161682 -3.257359 -5.066324 -1.883393 -0.950600 -0.493622 -3.251819 7.014712 -0.063978 -1.587333 8.996763 2.377807 -7.796745 -0.362943 2.016919 -4.076270 -1.709130 -5.013329 -2.171468 6.682144 -2.682717 -6.719307 2.814051 1.021051 9.353405 3.018608 1.729540 -0.230369 -0.762538 -3.399243 -1.104605 -4.767804 2.894913 2.410471 -3.335788 -0.515070 -4.052416 -7.753093 0.616724 0.307457 -0.727911 2.027062 -3.291937 3.581469 3.304877 1.673036 8.853895 0.310493 -4.634240 1.836762 -0.684018 -1.010909 1.890090 3.680127 3.074031 -5.697579 2.701078 3.324072 3.021742 -9.084105 4.169750 -0.919724 -2.545992
万 -4.111415 5.405976 2.938521 -1.374468 1.897496 -0.731988 -2.236968 0.814468 -2.685935 -0.232993 -3.841964 -4.158855 -1.893073 -5.198560 -6.255686 -0.105892 0.962530 -1.168131 2.621522 6.699130 -2.347835 -4.290762 1.230101 2.330108 -0.066705 -1.520698 -3.888596 -4.214418 -0.145095 -1.009391 4.460567 0.940007 -0.866215 -7.238687 -6.660815 -3.168178 -0.506730 1.000315 -1.477321 -6.845008 2.892227 -2.852367 0.192459 2.475522 -0.987356 -6.491760 3.675107 0.141066 -4.461343 1.587443 2.772539 -1.295647 -0.782931 -5.210332 -1.794755 -2.391538 -0.705657 0.719957 -0.281696 -0.783105 3.241645 5.108150 0.201599 6.675513
成 0.115489 2.011651 -1.055704 1.923453 3.299848 -1.774897 -1.691333 4.117352 -7.136062 5.239844 1.996724 -1.235335 -1.283723 -6.361167 -0.083232 -6.847028 -1.249616 -0.623419 -0.126938 -9.666348 -4.632640 3.458528 2.856737 1.790268 -1.022339 2.793423 1.606629 -0.792779 0.300659 -5.065372 3.994368 -0.123814 -3.396583 1.360622 -5.307218 -3.190603 2.320460 -8.026388 0.048147 8.960740 -1.105981 2.294738 2.922829 0.572485 4.493731 -0.868072 1.637069 0.957689 0.302284 3.390021 0.298716 3.566024 -4.864637 -0.751551 0.546005 2.906212 2.251331 4.425598 -3.791661 -2.440224 -3.572189 -1.930447 2.020989 2.323550
董 2.761283 0.534829 0.976291 2.075655 -4.538492 -2.545373 -2.633513 1.931782 2.304736 3.188634 2.954751 -2.084112 -1.624539 -3.735207 3.419121 4.427273 0.622329 5.171374 -4.866667 1.460527 -1.046818 6.251552 0.133843 5.039356 -0.599947 1.575533 1.559148 -1.362070 -3.363054 6.478787 -11.379241 -0.702848 -4.632989 -5.178786 -5.112279 -3.483964 -5.714941 0.392147 5.697056 -1.001333 0.809493 5.626914 -4.718138 0.433796 3.360250 2.119042 0.123512 -1.852634 -2.390287 -3.111413 -0.822123 -14.548645 0.319359 -5.418820 1.850763 2.269004 2.720410 4.641257 -0.799461 -4.908071 -2.093726 3.471867 2.613653 0.694280
% -3.106719 2.008465 -2.519010 -0.995161 2.172012 1.022871 0.515524 1.753180 -1.217834 -1.757667 -2.916870 1.524739 -0.183109 -4.845084 0.310114 -3.886779 -2.048020 3.076198 -2.189771 -0.607267 0.518011 0.108709 -4.232943 2.070427 1.818275 -2.537232 -1.144764 -3.112018 3.984580 2.747810 1.914951 1.804565 -0.789488 -7.489497 -1.764541 -4.301087 2.425239 5.072454 0.354589 -3.786004 -0.166812 -3.514160 -3.513739 -0.626728 0.048562 -1.091002 2.299226 -0.148065 -3.148748 -1.670805 -5.679611 -1.142286 -0.016183 0.730009 -2.358970 -3.190418 -1.614926 -0.847222 -2.172414 0.267633 -3.146453 -1.609433 3.016528 2.662303
》 3.608316 3.502588 -0.134513 1.654649 -5.813013 -1.731938 -0.388433 -3.946523 1.313505 -1.331649 -5.396075 2.084901 4.975323 2.572366 7.562178 6.163824 0.915829 0.312491 2.928226 -4.291149 1.782418 1.448694 -5.965816 3.111872 -0.419353 -2.591420 2.462639 4.644698 0.624446 -2.302840 -0.177251 2.987822 -3.252841 1.484184 -4.536107 0.920698 -0.188148 -0.498620 1.836168 2.614870 -4.601232 -0.774541 0.363733 0.275574 -1.373735 0.344759 0.422528 -1.004046 -5.834800 0.078092 2.779116 5.183141 -1.787929 1.228331 0.451900 1.428991 3.004059 1.180738 1.730770 -1.584823 5.764792 0.802275 0.644135 -3.690878
《 3.460816 -6.190033 -4.790139 0.832923 -3.130498 -2.000662 3.324516 2.008198 1.808816 2.876845 -6.541681 1.589854 -2.084916 0.290461 -2.649871 1.836993 0.714700 0.671176 -0.581710 -0.559004 2.262545 -4.470723 0.403067 1.424467 -3.145775 -1.196701 0.560377 4.846982 -0.682812 -0.033966 -3.336691 -1.505919 -4.253458 -0.130662 0.459100 -4.238126 2.024607 -2.572083 7.480175 1.649138 1.620183 -2.499142 -3.779686 -0.873335 3.580279 -1.055465 0.334607 -1.041060 -4.921704 -2.032668 -0.630621 2.792258 0.958426 -4.812617 -1.550349 -2.667344 1.164349 -2.289732 0.934257 6.429595 2.298837 0.216075 -1.275711 -2.464486
持 -1.829337 5.035079 -0.531391 -1.543292 0.377558 0.598773 2.110947 -6.590790 -5.020349 3.428114 2.764184 4.288997 -2.365216 -0.997556 -2.457877 -7.281151 0.373207 4.414902 -7.103995 4.217390 0.113240 3.369355 -1.592413 -3.445422 2.511683 -3.927573 -4.775784 -0.269871 2.157605 3.075891 -1.975968 -1.270397 3.480193 -0.697625 -6.199608 -0.627487 -7.956526 -2.031946 -2.089736 0.510838 2.471461 3.456459 1.894278 -1.939637 -1.888828 3.091002 4.460549 -2.358257 -1.020592 -3.063535 -1.992915 3.333287 0.694459 1.031055 1.414144 -3.687532 3.252007 0.375308 -1.444582 5.767868 -5.395616 0.692231 -2.568210 -5.223909
现 -3.071787 -6.567998 2.092332 0.406319 -1.991490 5.264510 1.695367 -1.105618 -7.301083 -4.840840 3.852126 -4.926368 0.515299 2.068155 -0.957287 -2.095502 3.748506 -0.195462 -1.008624 2.611658 -2.750327 2.423949 5.413960 -1.382036 -2.990197 -1.559342 1.348015 -3.386400 -2.259632 2.121470 -0.809091 1.679980 3.287934 -2.388997 -3.304558 0.972139 3.776111 -1.158114 -0.535410 0.161075 -1.694051 -0.245248 4.276237 5.801974 1.645077 -2.267139 -3.633543 -2.002839 0.589480 -4.792424 2.271768 1.312385 3.912536 0.530686 -1.586931 -7.274935 5.709123 -4.603671 -0.430346 -0.957122 7.272857 -2.403306 3.764344 -2.524105
保 0.849056 0.001384 -3.590118 -1.947872 2.412663 -5.582117 -1.902543 2.529042 6.892999 3.869553 -8.351298 -1.336943 7.867103 -0.828669 -5.423729 4.483721 1.235488 6.219596 -2.896249 -2.037009 7.029796 0.026785 2.592248 1.077783 -4.723223 8.470026 2.016754 1.747902 -1.171917 0.388329 -2.853227 2.378744 -7.318599 3.467237 0.343991 0.735578 -0.432965 -2.747716 -6.515962 2.358199 0.683883 -7.822628 3.829433 5.206231 -4.588459 0.499173 -5.610605 -0.856902 2.351594 -5.427672 2.521298 -1.504857 0.796254 1.071206 -0.827849 -1.568391 1.833393 0.913591 2.094570 -3.908584 -0.822274 2.368034 -1.258577 7.568033
票 1.602261 -1.439745 1.039102 3.239462 -0.024168 2.581553 0.455399 2.819481 0.461823 2.913918 -7.119659 -0.738569 4.961793 -0.440297 -4.042302 -2.324050 2.492389 -1.010262 -0.199678 4.798809 -1.209626 -0.561018 -3.892138 0.781482 -3.944839 -9.396716 -4.824758 -4.578849 2.166406 8.662956 4.613493 -0.371619 0.592392 -1.401592 0.761550 2.578347 -4.413860 -2.506686 2.597444 -7.054975 1.374100 1.346311 -1.209168 -2.511979 1.020517 0.681388 1.830948 -0.764425 2.094323 -0.937108 -0.670229 3.058754 -4.782737 0.350751 -1.550818 0.628452 0.797593 -5.164223 1.845163 3.018322 -1.048501 -1.430993 5.408501 -1.971671
生 2.888307 -5.180785 -1.121597 -2.383401 1.085753 0.293602 5.778529 4.946312 -0.085527 -2.203428 1.462709 0.754416 -4.784744 0.165292 -4.028397 -0.090606 4.305880 -0.004834 -1.987513 -1.338725 -0.523749 -1.241955 3.846730 -3.895243 -5.423079 2.298120 4.267081 -2.040734 -3.140064 1.826361 2.039825 2.034045 2.539405 2.455803 0.448287 2.695655 2.827446 0.804402 -2.100283 -1.080290 1.591428 -0.173660 -2.129865 1.271928 8.831107 3.076110 2.091957 6.364236 -1.328373 -7.366089 0.605575 -0.450547 2.019320 1.479277 0.245362 2.119111 -3.881079 -1.063679 -0.693796 -0.569516 -0.555815 -1.228944 3.256957 5.060418
实 4.404490 -0.170627 -3.119018 2.477336 3.152047 0.211091 -0.846413 7.442495 -2.239109 5.849883 -2.865402 5.158373 3.597523 -6.622295 2.413779 -0.101452 3.984330 -1.178692 3.469695 2.252307 0.609370 -0.671647 -0.894721 -5.062597 0.051814 1.479051 -0.653795 -0.603109 -2.422966 -1.545821 -0.166177 -2.348214 -5.382240 5.873645 2.290675 3.295232 -6.230935 1.678377 0.945915 3.814173 1.962419 -0.960008 -3.202421 -4.502625 -8.804899 3.311625 1.738737 5.953711 -2.985800 1.457207 -4.164968 -4.144542 -1.176385 -2.497547 0.632732 6.963755 -3.936464 6.832672 -0.037236 0.040038 -9.046210 2.364050 -5.883440 0.163147
总 2.527720 -0.701972 5.941798 2.377767 1.365323 0.773608 7.263395 -0.248583 -1.677853 -5.114221 0.332308 -4.311366 -0.905319 1.454690 -3.459696 -0.284167 1.567181 -0.575021 -4.278538 2.121656 -3.089576 -3.021913 -1.382773 2.616596 -1.482359 -6.614806 4.498817 -3.414585 -0.010324 -2.698254 -2.804883 -0.400889 -0.405603 2.950808 -2.308635 -3.559117 -6.330733 0.179911 -4.425203 -2.475373 -0.706500 -0.642496 2.655051 4.328757 0.271137 4.698640 7.822958 0.921515 -4.393397 -2.863682 1.454622 2.058653 4.779860 -2.658431 -2.492220 3.438048 0.116712 6.451212 2.771095 -0.577576 -5.522202 0.337769 -2.001645 4.780197
主 -0.806560 1.709091 -2.707919 1.184450 -2.973725 0.714337 4.248653 -1.921977 -3.296821 -4.135987 4.166645 1.508622 -1.732799 0.124336 2.054649 0.715987 3.129417 5.152235 2.167686 -4.655790 -6.054628 2.040512 0.555413 1.367118 1.512674 -4.868760 6.842153 1.863975 -3.077604 -6.694133 2.507189 0.395272 1.886435 -5.683258 1.707658 4.847762 2.728680 -0.249604 -0.367175 -0.846365 2.985252 3.425020 5.646474 -3.391063 -6.984706 -0.912175 2.759367 -3.675313 0.401632 -1.958685 -0.471116 -7.070925 3.677458 -1.150656 -2.008883 4.969018 2.596303 6.113572 0.478435 -6.949136 3.727308 -4.447310 -1.531144 4.334176
下 -0.855367 -4.141121 1.333449 -1.449225 -1.269181 1.695384 6.062059 3.377994 3.113093 -3.055947 0.095021 5.787568 -3.396264 0.725174 3.142501 3.086951 -2.434043 -3.895583 0.874701 4.845180 -1.606708 3.398201 -0.956417 1.807621 -3.360692 -4.868934 -0.610309 -2.009150 4.169270 0.009941 6.576691 -0.252907 1.764309 2.784921 3.576610 1.781250 -1.382641 -3.256498 -1.560175 -0.731159 0.275789 -2.411996 3.603012 2.575420 -2.124871 -4.065647 2.928859 -7.594308 5.646437 1.526461 3.866141 1.869845 -1.519459 -0.643079 -1.078720 2.593543 1.461305 -1.841315 1.652590 0.168149 0.991162 5.314918 0.683467 -1.144344
规 -1.864963 -0.372695 0.686830 -5.346564 -0.348480 -6.362317 -0.717135 2.064607 -3.768229 -0.245192 -3.869042 8.663171 -1.182672 4.230042 -3.651816 -0.041514 -1.416347 -0.820944 -1.582837 -3.470949 1.129251 1.978055 4.214647 -4.074922 -5.187428 2.060819 0.563116 2.268491 -2.372914 0.242687 1.255488 -1.878389 -3.453153 -4.128654 -3.904053 -1.992798 -2.740263 1.948454 4.114540 -3.152214 -5.471436 -1.501851 -4.530021 -6.013495 -1.039222 -1.472641 5.112921 3.069140 -1.043339 -3.172172 1.763517 1.219906 -9.012490 -5.632277 3.987754 -0.563178 4.716311 5.518059 2.700987 -1.539531 8.897081 1.568313 -0.218426 -5.296780
报 7.042882 2.314685 5.384839 -5.499887 -0.244927 -2.930252 -3.758282 -3.688602 0.818491 -3.487177 -2.136842 1.449865 5.459617 -5.372691 2.600803 3.381286 -8.567997 -0.848943 2.791799 1.844676 -1.814474 -1.521196 1.390973 1.428337 -6.028844 -3.908175 -0.719977 3.237548 -0.617094 -3.159225 -5.858183 -1.697316 -2.529027 1.124951 6.376897 -1.182868 -1.225125 -1.223988 3.209720 -1.320614 1.127586 3.489734 1.275418 3.474894 -3.768026 -0.772392 -5.226374 2.404424 2.867804 0.234428 3.865697 0.412706 2.355584 -0.037838 -7.580070 -1.930114 3.021499 -2.058342 -10.931323 -0.334172 1.899830 -2.425854 1.264757 -1.966769
设 5.048494 -0.006200 -2.224694 3.244166 0.766748 4.151099 -1.748272 5.136607 -5.108537 0.758642 2.825450 -3.528764 -3.398892 -0.674584 0.735386 2.058704 5.995950 -3.923485 2.608265 -3.072662 0.973904 -2.866458 0.858750 3.625318 -0.457303 4.494442 -8.094836 4.033320 -2.194373 -5.706724 1.160785 2.247709 -2.096323 2.429686 -3.448647 3.572293 -9.196820 2.997138 -2.759886 3.015249 3.285466 -0.859845 -1.420443 -2.871153 -1.937649 -7.460543 3.775532 2.271613 2.425717 1.604959 -3.377011 -0.661390 -0.727401 2.329073 1.100167 5.343732 -2.785631 8.733319 -2.794640 6.335385 -0.025739 1.233119 0.307722 -0.580333
内 5.587724 -3.547539 2.660921 -4.737201 0.183303 3.878248 1.627741 1.973867 4.832756 1.739724 1.192377 4.335649 4.283812 5.051431 -0.881681 0.930781 4.184374 -1.096617 1.885605 -2.681316 -1.119098 2.144896 1.639546 3.939395 2.849035 -5.012252 -4.275845 -2.705831 1.044495 -3.237849 -0.453323 -2.078855 2.526761 0.858314 2.530889 -2.039708 4.037599 -2.365805 -1.162985 2.360369 -2.234836 -1.263530 7.597945 0.726134 0.670219 1.390554 -3.301686 0.191357 -2.747942 1.580851 -1.913312 -2.304606 0.823754 -0.378490 0.934624 2.072027 1.785698 -0.340073 -2.637949 3.895914 -0.145832 3.680830 0.021844 -2.765982
团 -4.909450 5.368170 -2.321842 3.127803 1.896697 8.900669 3.546161 0.906143 10.708241 3.474091 1.857534 -0.171022 -5.425567 0.819962 2.012647 -5.881353 1.745484 -1.258165 2.185465 -0.523182 5.305182 -7.172874 -6.456787 6.768361 3.100354 0.622544 1.971215 -5.271440 0.826504 6.049630 0.935650 -7.222972 -4.700768 -6.449149 1.430912 -3.496127 -0.486521 -7.115904 -7.214284 6.971078 7.425407 2.819624 4.058428 -2.607685 -0.959336 1.245284 1.848016 -1.182946 0.748076 -3.566898 -2.246470 -2.339856 -4.369625 -2.895880 0.275991 -0.468735 6.352088 5.647711 2.828322 -3.376749 2.083302 0.483127 -2.399245 -1.022202
开 0.403167 -0.102222 -2.266657 2.048265 -1.197460 0.720561 4.193287 0.621252 0.800607 1.442296 -7.106402 7.095859 -3.225409 -1.362619 -2.956053 1.902828 4.229994 -3.190859 -6.024404 -1.839738 -7.369704 -0.257331 0.376661 4.490471 -2.080737 5.042055 -2.326089 -2.330256 -4.276805 -2.991246 1.200686 3.640503 5.643455 4.138933 -4.079719 1.423369 1.766340 -1.205791 0.105712 0.280037 -0.491591 -0.249174 -2.351218 0.845590 8.225701 0.935564 3.817999 -0.788850 -2.526392 -0.294669 2.046495 -1.924252 1.364687 0.179649 3.491954 0.700797 1.416885 -0.782212 -0.381783 -0.954843 1.170074 0.357728 1.079939 -3.660553
信 -0.082283 -1.546780 4.453330 -4.223619 6.336593 -1.651719 1.034022 -3.306860 3.598358 1.660637 -1.132477 -0.638440 0.071828 1.251567 -2.668241 -2.690796 1.495391 -7.723936 -2.912819 5.284398 5.849429 -0.792321 -6.080918 -0.794530 -5.778170 7.038521 -7.603984 3.378237 0.636276 -1.286057 -4.376636 -0.234939 -0.155686 -3.955415 -2.827515 1.559353 -0.531591 5.990568 1.907092 3.256465 -1.181413 -1.440913 1.252855 3.588578 0.099238 -2.821681 -4.063037 -1.413491 0.098942 4.081367 5.935056 5.601405 1.477884 -1.948887 2.122276 6.251450 -0.545862 8.325094 -3.296872 -2.617510 0.851663 -0.707497 -3.349016 1.448334
建 -5.551600 1.874160 0.995877 -4.277349 -1.435175 0.425504 5.549857 -2.404393 2.770576 5.871302 -6.484882 -5.096993 -1.121060 6.236784 -2.302251 -6.055890 -0.649655 -2.499856 0.227359 -7.387554 -2.464695 1.742160 4.175295 6.483790 3.949216 2.646099 2.870458 3.500538 2.408667 0.492610 -2.387979 0.271264 -0.766588 0.388019 2.179895 2.836230 5.800526 -4.578240 -2.244437 -4.188984 -2.335389 1.110849 -4.384630 -2.760602 4.260574 -0.094238 0.875252 -1.271812 1.412914 -1.124922 1.782625 1.958342 0.626225 -3.502226 -0.900994 -1.013052 4.952870 -2.883366 -1.543772 -4.929953 -2.173613 0.208848 0.938500 -0.669015
目 1.276615 -0.302507 -1.430790 -3.836374 3.723083 1.892474 0.117222 -1.750337 -5.873643 -3.859327 -2.359430 4.420352 1.110257 3.628587 -1.420400 -2.541519 -5.030108 -7.736970 1.467878 -3.499296 -0.776286 -7.737474 7.286218 -2.187279 0.390859 -0.850334 -2.547235 1.125987 6.854124 -1.470322 8.547803 3.573077 -0.207208 -1.761486 4.678852 7.828186 0.711834 -3.822968 -5.940218 3.990124 -2.231867 -4.070199 0.666607 5.952115 -3.912733 -4.772365 3.952880 1.624009 5.783977 -0.145330 -1.763487 6.771708 -0.750475 -2.126547 -5.993009 4.253848 -1.796358 -2.636909 8.879699 1.051812 1.018784 0.584835 -1.547737 -1.277111
能 0.922658 2.200592 -0.081416 -1.612129 1.463852 -0.375894 0.259941 0.696536 -3.784434 3.137399 -2.435352 -1.142157 1.111171 0.104269 1.359856 -3.137444 4.566919 0.170532 1.229972 -3.339283 -5.392570 2.003111 3.468364 -1.605242 1.941691 3.326348 4.704640 -1.490133 -2.478628 5.481851 -0.341485 0.614577 3.924668 0.689918 1.188252 2.992131 -1.424210 0.229415 -1.985098 0.954072 3.568859 0.949049 0.078373 0.000067 -0.379044 4.770061 1.363192 2.915137 1.196764 -2.196966 4.470140 2.890191 -7.089835 6.612185 -5.943407 5.077382 -2.719794 -1.912610 -3.457611 1.087230 -8.110671 1.816054 -3.690794 -1.855732
- -1.043720 -3.101794 -2.949304 1.584330 1.922625 -1.279313 2.423661 0.918345 2.008538 -2.345269 1.970735 -0.275935 1.281789 -5.620522 1.236439 -1.304036 -2.008081 -3.859290 -1.625929 2.872996 -0.389457 -2.651938 -2.889020 1.140228 2.585863 -1.787436 -1.784716 3.129448 -0.332916 -3.285946 0.441484 0.396973 -2.801777 -2.831090 1.185617 -0.794227 -0.839552 4.055706 -1.093174 -4.671793 -5.291541 -2.998392 1.064007 3.886214 -0.242198 1.038450 0.315692 0.324245 -2.415495 1.179810 -1.476462 -1.806527 -0.995802 4.016070 0.021425 -2.781541 -1.125061 0.711732 -1.438010 0.945960 1.711961 -0.483380 0.669624 3.129265
部 -7.427009 3.214262 -1.504156 4.586952 -2.498757 -2.586333 0.346919 -2.776744 -1.651978 0.171144 -0.099549 -4.730813 -2.222750 -2.829969 2.636476 4.901929 -6.976404 0.735178 -2.011283 -6.517008 -2.249661 0.959657 -1.056140 -6.077447 0.302435 6.434926 -1.297858 3.661013 -6.030048 -0.895260 -1.457171 -1.896096 -3.873971 -1.877516 0.598685 3.014379 -3.940277 5.672682 -0.166105 3.403514 5.928902 -0.748408 -1.217796 1.657006 0.014910 2.288277 -1.830581 1.242984 3.804254 -3.916546 -3.843862 2.966938 2.478566 -1.531005 2.851068 -0.858835 -1.293124 -2.145574 3.210388 -5.640541 -1.747479 -2.673004 2.150261 -1.298506
地 -3.121185 1.823012 0.310340 -0.949248 2.128458 3.996837 -3.565631 -2.633885 1.844712 2.409295 1.002901 2.150200 -3.915653 3.339146 4.154875 0.405421 1.844761 0.270082 -2.058166 0.033029 -1.836633 -5.032712 4.013402 2.152155 -3.051283 5.508351 -2.275992 -4.289499 -2.581524 -0.269555 -1.802193 -3.650916 -0.028809 0.810417 2.468966 4.935032 0.173436 0.852362 3.513494 -2.551873 -4.024457 0.179365 -0.873556 -3.539918 -2.136302 -0.696856 -0.791823 6.548997 1.796179 -1.989887 4.109344 4.022485 1.758141 0.134480 -1.147091 -1.092646 -1.830616 0.395265 -2.717142 -0.017624 -3.540432 3.302951 7.690125 8.714192
基 0.793393 -4.085858 3.708246 -0.255929 -3.186626 -1.905663 0.233412 1.315963 -7.859056 -0.093294 -2.573564 -6.156655 0.942172 -0.395167 -5.902332 -2.049193 2.943850 3.261981 -5.486904 -0.249795 3.260304 -0.298807 3.018519 -2.023482 5.376219 -1.400791 -2.332844 2.211126 2.400130 -1.486809 1.177216 2.010996 -4.165943 1.068138 4.195637 1.446164 2.579463 -3.356262 3.833488 4.206636 3.670817 -0.469009 -4.115684 8.567990 -0.490829 -0.550672 2.591269 -2.474669 -1.377218 2.475474 0.113723 -3.880095 0.122228 1.216040 5.198592 -5.654072 5.163283 1.075010 -0.499188 -0.889941 0.492599 -3.930191 -1.176587 -0.997563
要 5.211129 -2.741005 -0.394211 -5.934903 1.622605 2.647780 -1.901263 1.069713 3.407572 0.537132 0.486277 0.367848 -1.427429 0.540438 -0.257903 -5.358353 -6.828967 -2.291792 -0.729056 1.450230 5.298671 -0.127373 3.205178 0.299396 2.595781 2.967463 -2.524564 -3.247908 -2.641950 2.517635 -5.423462 0.944661 0.338597 5.032598 2.321768 -9.140083 -4.895887 5.520931 -3.197141 1.964082 5.549184 -5.817939 -2.466403 1.596551 1.099590 -2.631992 -7.237371 -0.535369 0.060843 2.223094 -1.543811 10.565615 -6.777732 -2.062732 3.108507 -4.289591 -3.701332 -2.564258 1.732152 2.399693 -1.402863 3.532220 3.254127 -3.083747
同 0.971222 -4.960802 -2.890382 -3.902463 3.688500 -0.821781 -3.565729 -2.403054 -0.530012 -1.484582 -6.111436 4.878567 -1.519343 -4.666608 -3.173424 -0.896816 -3.511590 8.939412 3.710685 2.205462 -4.371335 4.197614 3.557540 -0.351912 1.811850 1.714487 -0.564252 3.407231 2.688625 2.560023 -2.136406 3.763271 1.464523 3.223771 0.805791 0.227612 -0.524808 -4.091594 4.932524 0.679006 -0.481757 -1.790278 7.677875 -4.499034 1.303201 0.565880 -1.302582 3.785519 -2.565213 6.085666 -1.284271 2.012807 -1.204167 -2.002189 -0.937167 -0.765915 -0.216428 -1.768499 -2.793153 -0.375418 -3.321157 5.039760 2.027464 -3.911559
额 -5.191548 2.584004 -1.980471 -3.984255 -0.723585 2.626904 -2.911135 -2.164111 -8.622698 -0.468465 -0.196140 -5.781089 2.295817 -6.981431 0.397967 -2.343375 -1.093763 2.122842 1.448164 -5.029120 3.737918 0.386142 2.958642 -0.524306 -6.852727 1.130117 -4.468084 -7.148722 0.256269 1.949231 2.033588 3.976514 -3.297664 -3.875023 2.764252 -1.861701 1.746254 1.875638 0.998722 -2.526530 -0.523502 -1.699306 6.090094 6.439757 0.482798 -1.177637 -1.641742 1.932823 -0.800945 5.078603 -2.611829 -4.785669 1.460920 0.165884 4.557923 -8.632176 3.993110 -3.173380 1.615869 -1.532375 4.791104 -0.532146 -1.714240 -2.820616
告 4.498871 -8.516226 -9.844846 2.212958 -7.167429 -2.165010 -0.094775 1.009812 -1.761367 -2.025829 4.408960 1.513420 -0.339418 2.520974 -1.408609 2.837421 0.058593 0.614218 0.120597 -1.250080 7.858774 -3.144431 -5.797894 0.460532 -1.313255 -1.819483 -3.786829 -0.314890 -0.062790 -0.486512 -0.229600 5.555829 -0.563914 -4.548923 -1.199592 2.792992 3.830172 1.449641 6.981378 3.845615 8.043745 -2.079986 3.334257 2.745649 1.555797 5.633685 5.566421 -0.484562 -5.377367 -0.413649 1.103839 0.427983 -3.864280 -1.990507 -1.130962 1.193765 -2.974395 -1.838334 6.634534 -1.858984 1.390191 0.096765 -4.052685 -4.538994
购 8.125666 6.379190 11.766577 1.373363 1.354407 4.997610 -4.960791 -1.455551 -3.594277 -9.502776 -3.753600 5.538305 -3.372817 -1.456091 -2.957372 4.182778 1.500102 2.377067 -0.163198 0.973588 -0.696691 -0.532363 -2.548979 -2.363559 -2.265534 -1.977236 5.352660 -1.797493 0.334881 1.119155 7.677962 -3.865042 -3.205094 4.226486 0.955993 -4.151842 -5.333784 -0.807789 1.687900 -3.694815 6.144082 5.047060 1.275465 2.129260 -2.162817 -6.371574 1.500833 6.346319 1.045439 2.883989 -2.877576 -0.551532 2.903929 2.958062 1.054161 -6.069699 -1.208329 -1.508587 -2.113678 4.794071 3.313330 -3.974885 5.476146 -2.537239
了 0.843630 -1.628496 0.822733 0.479374 1.357465 -1.416534 -1.033419 0.149219 -1.022764 2.028092 0.812370 -1.269944 1.540838 3.528668 1.624104 -0.193796 0.884575 -1.127799 2.263960 -0.179526 -4.470335 -0.447103 -1.334289 0.689049 0.460347 0.386322 -1.214085 0.099110 -2.830054 1.572138 1.106594 1.005487 -1.320187 2.122525 0.769591 -0.071611 0.280796 -2.160053 -1.002348 2.604109 0.211834 2.303225 -2.663548 -1.363251 0.836509 0.620951 -2.244660 1.565758 3.944765 1.246210 0.041363 1.083322 -1.943563 2.691002 0.079081 0.217910 -2.697540 2.043811 -0.923581 -2.457685 5.184594 3.134670 -0.948378 -3.150762
与 2.336125 -0.724242 1.603872 1.468976 1.556915 -0.937559 -1.263856 0.577232 0.437348 3.854324 -0.094364 1.332698 -0.100903 0.623019 -0.596492 -0.162562 1.308747 1.042062 -1.125252 1.783628 0.029504 0.798078 -2.153965 -1.118356 2.905620 2.189054 1.252202 0.572677 -1.005388 -1.330677 0.395343 3.272480 -0.008153 -0.684028 1.545039 1.192034 -0.225303 -0.371125 -0.443075 1.983217 1.657238 1.975558 3.255647 -1.459380 0.629466 2.902771 0.631797 1.342892 0.816841 -0.937243 0.676132 1.428774 2.598168 -0.157142 1.249711 0.373692 -2.261626 1.650565 0.713080 0.625529 1.458148 -1.132586 1.329478 -3.439663
表 2.788044 -0.732065 -2.740891 2.555106 -6.051485 2.306634 1.880699 2.469654 -5.937402 -0.748444 4.469736 4.686124 -3.800996 -2.197003 -4.193892 0.510156 0.374380 0.162099 -2.051168 8.029844 6.529165 0.427061 -4.478297 -4.350761 -3.276205 -4.833654 3.199296 -0.735870 1.969172 3.533194 -2.369617 3.541051 -0.715082 -1.470739 -3.686519 6.819060 2.628091 -0.949510 2.086502 -1.013409 -1.805699 0.694424 1.783611 -5.183695 3.153782 0.786306 -2.134227 -1.883903 -4.140059 1.445531 -4.517891 1.187347 1.460377 -1.494221 4.204422 0.538799 -7.565880 -2.714329 6.985099 -3.139428 7.950912 0.617887 -0.617422 -1.865438
动 -0.781870 -2.731369 -3.133970 0.757236 5.807643 -1.321931 8.182578 6.858893 -0.173968 2.840982 1.582181 -1.821888 -2.572990 -1.048027 -1.549794 -0.946494 3.945611 -0.535974 -2.365726 0.344520 6.199491 3.698622 8.811572 -5.750395 -0.507622 -2.485333 1.829865 -4.968898 -0.464018 -2.229419 -3.966664 0.038025 2.904258 1.150535 3.192621 4.259975 1.690276 2.867097 -0.456934 -4.714812 0.737263 1.327995 0.971522 -2.558977 0.762640 1.735261 -4.603259 -2.074618 0.212758 -0.470132 2.407519 1.934887 2.666314 0.836752 -7.805870 -5.829154 0.410705 2.617645 -4.780239 2.642965 -3.594435 -7.444011 -0.526655 -0.109343
价 -0.396295 -2.404094 3.996055 -0.144552 0.378540 -0.537872 -2.384581 2.113075 -1.198730 0.177131 -1.285274 -0.058797 5.069335 -1.545728 3.563278 -2.300147 0.145625 3.680628 1.433284 -2.383882 0.218861 -4.517176 -5.434188 -0.524301 -7.636034 0.090988 -2.643701 -9.119063 -0.220293 1.508407 5.387846 -2.604871 3.616971 2.316715 2.858829 -2.777378 -0.112576 5.382860 1.799500 -3.015288 5.468067 -4.156564 0.845357 -7.560565 3.683887 3.262600 8.938678 1.453007 -2.888793 3.355088 -1.829611 -3.027503 -4.334971 -2.298959 5.009195 -0.376448 5.627260 -0.490510 4.339929 -2.821910 7.640970 -0.125973 2.683524 4.080121
联 0.814300 -4.479564 0.737238 -0.445297 5.414635 -0.892255 5.132498 -0.650558 2.537621 5.121517 -0.399554 1.920374 -2.671279 -6.263400 0.249587 2.484455 -3.635909 -2.580676 3.766335 2.207644 1.288249 0.726812 4.814853 1.996703 0.170021 4.808251 -1.246233 10.080814 -0.866542 -3.224428 1.350351 2.316880 5.201978 -3.909619 2.664795 -3.054780 -1.822101 -1.275295 -1.571410 -0.276156 -2.233071 3.150345 5.996408 -5.905843 1.257546 0.795195 -1.137973 -4.787924 1.298141 -4.031186 -4.370841 -4.055497 -5.777242 -3.057449 0.714440 -2.890923 -4.973910 -4.867512 2.479692 2.008160 1.604525 -5.887000 3.266894 -3.086761
机 0.594214 0.221341 2.739343 3.194559 -1.017727 1.177984 0.594127 0.328611 -1.587173 3.812764 -1.060347 -0.084822 -2.792890 -4.566054 -0.101044 -6.972934 0.270474 -0.941504 0.300020 -0.894334 -3.849206 1.773356 -2.229355 3.222424 -1.567989 4.800884 4.857968 9.162735 -5.569970 -1.050587 2.090275 -0.050988 -1.441944 -0.689023 0.457632 -0.566461 4.222322 -0.858394 0.756933 3.540229 0.905546 2.537825 1.951178 2.224252 2.289578 -3.301457 -6.868877 -0.350367 -0.171582 1.286329 -3.798951 1.000895 -0.474559 -4.814287 -1.019208 10.167780 2.731200 -4.368359 -8.772766 1.590168 -1.077531 -3.292274 8.938143 3.460582
制 -1.222486 -0.002105 2.068624 0.107483 -0.805037 -2.798248 -1.541533 3.033185 -2.098175 4.731866 3.910248 5.262599 2.212199 4.466649 -1.793559 5.722215 0.095192 0.171682 1.507562 -5.001379 0.972234 3.587765 5.743365 0.830533 -0.505699 4.048514 2.112509 -1.822250 6.369220 0.007239 1.627668 -0.056184 -2.724603 -3.408584 0.417861 3.117627 -4.123392 1.724810 -1.033040 8.805324 -0.634805 -3.005138 1.592295 -2.596422 0.250614 0.056713 0.857470 1.136927 -0.767305 2.335388 0.510741 -7.212525 1.970030 -0.199878 -1.733845 -5.443372 2.655905 0.940701 -2.944725 3.261155 6.582944 -2.821460 -5.922511 2.071799
是 1.830406 -3.234711 0.552152 -0.063406 -0.245938 -2.211695 -0.997690 -1.175455 0.637812 1.179890 0.973315 1.285053 -0.715887 1.036211 0.721187 -1.413388 0.816173 -1.729019 0.768498 0.667985 -1.141987 1.226897 1.403956 -3.882297 4.629052 0.679778 1.265158 0.360286 -2.000701 1.205045 0.421526 0.315719 1.199662 0.360032 0.950206 -2.854773 3.050626 -3.326552 -0.171130 0.686327 2.644799 0.733363 -0.868870 -1.736171 -1.800851 4.044927 -0.793828 -1.630191 1.985805 2.624408 -0.451899 3.139124 0.625966 1.958018 1.701659 0.168148 -2.851218 1.570312 0.046076 -0.756266 -1.536400 3.135993 0.700256 1.256029
进 3.894423 -5.105053 -0.775345 5.235793 -0.149847 0.494709 0.644924 2.563820 -1.788523 -0.251143 -2.096428 1.935834 0.698427 6.589133 0.094766 -4.462318 -1.747676 -2.220686 3.292077 -4.848335 -5.540164 3.271652 -0.956130 -4.635787 -2.808957 4.526706 2.542093 -2.510190 3.252780 -0.734471 -4.252418 1.462516 2.303828 2.190011 0.203644 -2.907284 -1.937398 -3.168334 1.750022 1.842374 -1.395572 -3.669458 -3.483437 -4.055482 -2.488120 0.863324 0.415612 0.558745 3.270874 3.595803 6.089081 0.186539 7.426472 -0.694453 -0.479711 -1.371887 -0.811853 -0.486060 0.146149 0.489698 0.439057 -4.667443 3.219050 -1.340405
第 0.017438 -0.720665 -4.467822 4.512048 -6.588811 -5.277432 1.569501 -2.544980 4.063141 -1.138213 -3.916082 -0.201031 1.318878 6.091996 2.818711 -0.715161 -1.390184 0.355532 -3.869952 2.949145 1.704872 -3.744385 2.536754 0.418353 1.719689 -3.342017 -4.435250 0.566363 -1.416069 -1.224109 3.823832 1.471501 -0.402283 -3.548585 -1.800218 -4.903818 -3.847310 -4.923439 3.258309 -3.255660 0.391847 -0.460830 1.013342 0.907809 -0.437919 2.318015 -2.484129 0.465955 1.194033 4.250110 -2.750607 -1.795915 2.737005 -1.586933 -6.512545 0.986909 -2.368983 0.729575 1.506318 4.945097 -2.232764 6.306433 3.256228 1.445175
度 2.717136 -0.732904 -4.857176 0.471765 -2.342242 0.730373 4.223454 -2.595193 1.040191 -1.356837 4.291073 -2.170176 5.231189 -2.069257 -1.398837 -6.888459 1.747451 -1.397944 3.160085 4.752141 -2.281376 -0.533682 1.652857 -0.368135 -5.572753 -2.845056 -1.513671 2.956440 -6.072248 -0.438825 2.478416 1.418663 -5.691965 -0.313152 0.138630 -4.066507 -1.776633 -0.307269 -1.076024 -0.675602 0.782887 -1.822074 -2.981061 0.411439 2.678283 2.849301 -0.054615 1.641198 -0.739920 -2.786994 -3.575172 1.805937 -2.819877 -1.380463 -5.908139 3.659202 -0.927938 3.572591 0.617709 -0.485881 0.428578 1.534026 0.410634 -2.689382
时 -0.110364 1.195256 1.206244 2.249118 -2.639241 -2.653847 1.321689 -2.729377 0.633690 2.436106 3.607734 1.589277 1.784921 4.569743 4.111811 -1.790678 2.350646 -4.178452 -2.271187 0.327467 5.701208 5.561266 -2.883951 -0.419251 -5.841861 -4.933482 0.135108 -1.506777 -1.462089 3.377361 0.680151 -3.414977 -1.475890 0.989125 -2.423774 -0.045572 7.150385 1.076050 -0.116869 -0.882121 -0.364308 -0.164392 -6.997949 1.237946 -0.080086 -1.255295 1.266552 -2.045850 7.580356 -3.657768 -1.389881 -4.298080 0.338279 3.264948 -0.931255 1.085427 -2.809316 -0.907129 5.385409 -1.710963 3.342905 -5.596895 1.223166 -2.589550
提 -1.676504 0.182513 4.996836 2.184227 3.203635 2.506330 0.161730 4.642573 -10.229665 3.884760 4.873896 3.847357 3.722165 -0.079182 -0.113173 -5.132857 -5.673303 3.005054 -2.080587 -0.325903 8.170205 -2.183476 2.117510 2.986946 -0.148778 0.809699 -0.520109 2.718553 -3.942565 -0.025705 -2.978186 5.960706 -1.352998 2.924963 -3.186676 -0.266546 -3.934035 -6.973771 -2.756963 1.895732 2.680418 -5.285031 2.164621 -1.744179 -0.079019 3.947339 0.779946 -1.147185 -1.785812 0.072364 -2.731187 -0.771022 5.633743 7.130897 -6.931859 5.607466 -0.698339 -4.247218 6.943734 -2.519020 5.317558 2.479443 2.406675 0.679184
新 -1.655030 -1.795381 2.490769 0.915484 3.632164 3.474869 -0.848846 -0.162425 3.533314 -0.453014 1.458012 -0.613431 -1.654514 4.974735 -4.760179 -2.876230 -0.830640 5.275663 4.065993 -0.408430 -0.948004 -6.613460 -0.224895 1.472952 1.565010 2.528067 -0.509713 -2.195807 0.575501 1.690349 -1.708954 2.656954 1.547222 0.486221 -3.908943 0.886126 -2.680415 -1.037234 1.366481 -0.561291 1.937391 0.895573 0.458834 -0.034040 3.499908 -1.354582 0.515832 -6.606417 -0.643133 0.627671 0.811439 0.618873 0.329027 2.238533 0.222955 1.290139 -1.241834 0.676274 -1.643361 -0.135165 -2.067116 -0.778173 3.539619 -0.636019
电 -3.445097 1.190199 -0.927578 2.628329 3.606656 -3.073928 1.205160 -0.537987 5.406672 2.170606 7.533349 0.368619 -4.763064 5.896204 -0.733575 -2.218647 1.026124 -0.889822 3.708781 -3.811452 -0.254822 -1.703357 -3.058335 3.142551 4.604345 -1.156059 4.199035 0.155359 0.277045 1.450484 3.583512 1.572787 3.282298 -1.268588 1.774814 2.141152 -3.233268 2.796354 -0.159820 -4.128878 1.140470 -1.209840 1.933994 -2.094654 7.416220 -1.867813 0.739406 2.231145 -2.943472 -0.491494 4.063922 0.133748 -2.376659 10.066542 -3.892894 5.848814 3.875156 1.274479 0.260106 2.012153 -1.244353 -2.042316 -1.531240 -3.669927
长 0.691211 -1.014589 -1.085407 -4.688007 1.447551 5.240500 -0.998175 -4.344365 1.681136 -2.591709 -1.135223 -2.108451 -1.138966 7.852037 -2.403093 -2.246696 -0.622772 6.153174 2.765136 -4.426991 1.931249 -1.010870 -1.990341 1.979517 0.556266 -1.924014 0.526462 -1.735982 2.240965 -3.784226 -1.534040 3.577841 1.222780 -3.145202 -2.820424 -0.043345 0.177498 0.124839 -1.456353 -5.191189 -2.295634 -0.729924 3.971775 -2.172969 0.886304 2.130929 -0.701475 -0.411568 -4.889254 -4.719312 -1.602621 -0.582844 3.807871 0.057432 -0.512010 1.342156 -7.393153 1.177810 -1.845178 2.122582 -3.684429 1.526899 -0.378090 -1.260112
过 8.133389 2.811132 3.639490 10.291144 -3.642976 2.156916 -2.051785 -6.090579 0.993303 3.052975 -5.985955 3.120615 1.375283 2.518438 -1.297518 -5.945728 -1.173680 -8.760801 -3.174969 -0.271166 -6.075659 7.301710 1.242642 -0.899229 -5.159495 6.940408 -3.318151 4.708888 8.084974 -2.171916 1.708946 -0.104936 -1.049975 2.662954 -4.070214 -3.703341 2.649196 2.210481 2.035966 -0.488809 7.308177 0.750403 1.815217 2.530756 4.524915 5.690146 -2.452522 4.132194 -4.356790 -0.591250 -2.420940 -0.572228 -1.826169 2.681506 0.621197 -3.913218 -1.289229 -2.486619 3.482919 -5.780591 -1.851063 4.393143 -3.737762 0.670300
并 0.589547 -4.364661 2.223179 -0.858595 1.065662 -0.532927 0.846598 -2.224201 -0.743211 3.502438 -0.325718 0.873201 -1.671461 -1.671154 -0.104998 0.307020 -1.544067 -1.119281 3.608340 -0.424212 -2.490543 5.306141 1.794086 -1.473071 -1.379170 -0.952825 -1.139053 -1.089805 0.984715 4.387374 -1.807120 0.512567 -1.864698 3.963217 3.378283 1.314881 0.825624 -2.338653 3.667647 3.647887 -2.492579 -0.958040 2.896695 -1.753282 -0.631138 0.710303 -0.254566 2.140629 -1.471764 -0.319080 -1.658934 1.960262 -2.680134 -2.450803 0.918688 -2.097566 0.071616 0.108935 0.230403 -4.375859 0.227343 1.724648 1.984826 -3.510605
等 1.881158 1.920784 2.295965 -1.333394 -0.243728 -1.241870 -0.876098 2.329264 -0.004312 0.836846 -0.952272 -2.144269 -2.616678 2.704316 -1.885960 -1.452571 0.044483 0.992694 0.581686 0.579245 0.421470 -0.323073 -0.621060 -4.640282 1.584984 1.840511 0.152014 0.977708 -1.321135 -0.655055 -0.010414 0.767564 -0.680490 0.833754 2.215104 0.542548 0.419844 2.018042 -1.737533 1.652659 0.349169 -1.196760 -1.088914 -2.322644 -0.659347 0.899771 -1.942457 1.724818 0.821946 1.213018 1.018135 -0.760282 -0.461639 0.068132 -1.003743 1.011806 0.087399 -0.093269 1.253402 1.124062 -0.759714 0.096131 0.289803 -0.845161
后 0.734408 -3.117438 -1.198356 -1.019303 -0.001875 1.685945 -1.791077 -0.256519 0.871246 2.525811 1.148968 -0.049813 0.289636 2.609157 0.241036 0.597948 -0.169091 -0.732242 -1.163864 -1.184442 -1.024518 3.065678 -0.726559 -3.683836 -1.927036 -2.114421 -4.526689 -5.735427 -2.714709 0.460995 1.602480 1.251531 1.117944 2.997301 -1.471919 0.156425 -1.589737 -3.403114 0.893272 0.000060 0.478903 1.269766 1.644136 1.034306 0.428189 -0.268832 2.837284 3.577462 2.176085 -2.045710 -1.881719 0.607272 2.029579 -0.063580 2.092427 -0.032698 -1.872342 1.534994 -0.872944 -1.234280 -0.001752 0.077526 0.741629 -1.783124
将 2.439692 -2.549405 2.513527 -0.216461 2.558184 0.216310 -0.282210 -0.459718 -0.755928 2.883539 -0.716499 1.676949 0.807351 0.423619 0.065527 0.040661 0.107880 1.841846 -1.166451 -0.792451 -1.683536 2.936310 0.102393 -2.328492 0.753079 0.601265 -1.380886 -1.475126 -1.171488 1.312954 1.111912 0.914695 -1.231919 0.938516 -0.177833 -0.604305 0.596843 -1.220728 -0.506775 1.355032 3.222535 -0.094772 -0.270239 -0.234464 -0.634463 1.105242 1.093149 -1.896316 3.594113 -1.070554 -1.158571 -0.177104 1.739896 -0.646258 0.202396 0.250451 -0.858916 1.583827 0.149516 -0.568099 -0.312457 2.155564 -1.283671 -3.043077
者 -2.356238 0.014546 2.631025 2.900369 -1.341277 0.159144 -1.342000 6.593315 -7.119932 0.389816 -2.025390 1.518899 -0.716282 3.144734 -1.803560 -2.719997 -0.721645 -0.678214 1.921932 -2.328646 1.186228 4.502703 -4.773859 1.438656 -0.161538 -4.269088 -3.525137 2.715493 3.501148 0.507291 -3.835515 -1.669366 -0.628404 -0.851343 2.831732 3.948173 2.529629 -0.711272 -0.309140 -6.404080 2.623038 2.014287 1.739197 -2.041246 -4.485156 3.497669 0.188536 2.030376 6.832668 1.337390 -0.424583 7.246325 -3.707140 -3.797418 3.273667 -0.545919 6.047366 -3.669771 -0.253936 0.605038 -4.772138 1.311882 -2.159954 0.946733
作 -4.426562 -2.312918 0.865987 -4.994249 -5.745519 -4.540298 2.145920 -3.070745 -0.589884 -0.452964 -1.017275 -1.952937 -3.771812 -3.084613 -3.123271 0.973253 -3.662647 -1.508595 0.214276 1.538967 0.058849 -2.399297 5.221576 -0.716587 -2.258010 0.732567 0.108908 1.584550 -2.611119 3.307080 -1.946758 5.298864 1.833535 1.949880 -0.003779 1.560500 3.124023 -1.454351 3.503937 7.354382 -2.801847 -0.214027 2.505103 -5.410185 -1.133532 -3.877202 -3.165542 -0.669263 -0.354513 -1.371093 -2.818947 1.036563 0.516465 3.842349 -3.009009 1.513083 -3.983649 6.045948 -2.452566 -4.017701 0.928425 0.912496 8.264729 -6.561874
海 -1.355159 0.096090 -2.986216 3.257439 2.901092 1.215641 -7.163255 -7.504188 0.413972 2.137020 -3.680687 -1.534122 0.793434 -2.764555 2.232386 1.809201 5.081322 -2.733869 -2.446311 2.020546 1.659615 -8.686523 -0.528605 0.831908 7.398107 2.464540 6.139004 1.554158 2.372560 -2.380762 -4.670527 -5.761212 -2.171908 -3.207433 -1.381021 3.875193 0.600914 0.753618 6.256162 2.026748 -0.699067 -3.814068 -4.761658 3.654516 3.289207 2.563997 4.382325 1.290746 3.244706 -4.356437 -4.506833 4.090000 3.105654 1.345420 1.558087 0.812125 0.545250 -0.679142 1.439027 -3.561525 1.742189 -4.207823 0.961381 0.712768
网 2.105232 1.663361 -2.474925 3.314893 2.028987 2.308161 -8.768043 -4.506193 -0.950385 5.643401 -3.029655 2.157851 2.032203 0.674292 -1.661441 1.457799 7.358991 0.199165 -0.653661 -2.502700 -0.297803 -0.540736 -4.573995 2.044203 0.835524 1.023697 5.123541 -3.014912 -0.598197 -3.009953 -2.011691 2.565327 1.052535 0.357421 3.113946 8.275883 1.973132 1.610716 8.254870 -6.070743 -1.580998 1.002086 -1.411069 -0.313104 1.113244 0.964081 -2.790041 4.417815 4.765335 2.635636 2.323178 1.099638 -0.244485 2.439843 -1.431497 -1.165014 2.480202 3.341911 0.588553 -2.755207 3.518514 -6.941789 2.144484 -0.987917
增 2.480534 1.735573 -1.964797 6.744386 4.218044 -0.881319 1.274392 -1.200863 -5.231744 -3.195746 -2.154901 0.816472 0.591939 -5.710062 -0.865230 -3.997586 0.103132 5.582274 -1.284153 1.709585 -0.099455 3.800193 0.403510 -4.196611 -3.384077 1.426045 -4.799428 -3.744157 1.826025 1.470976 -0.658757 -4.113251 -1.314157 2.613933 0.846361 -3.511151 2.207950 4.042944 -4.394994 0.928281 0.477891 0.746915 -3.422733 5.790406 2.866945 -2.606999 9.331336 -0.479175 6.546783 1.450048 -3.840375 -5.204325 1.290461 -2.367038 -4.952729 -0.613171 4.728208 1.370437 -1.075380 -5.282734 3.334556 1.030589 -6.297353 -1.112037
或 3.277104 0.918610 1.412821 0.298320 1.767300 -0.482606 -0.694289 0.295077 -0.944539 2.181339 1.153332 1.840814 -2.422343 0.188502 1.279548 5.223817 -0.088630 1.339054 -3.615268 1.081182 -0.095986 0.606406 -2.741374 -6.703997 -0.268186 -0.500692 -1.020693 -0.604561 -1.146453 3.045269 0.084762 3.811086 1.113906 2.037886 0.362276 -1.151311 -0.209063 1.893428 -1.341578 3.540408 -2.107561 -2.784233 5.051702 1.265661 -1.027916 2.841571 -2.609500 1.319921 1.623534 -2.046084 0.692492 0.036367 -2.330341 2.356806 3.033835 0.816082 0.156894 -0.014560 -2.540293 -0.382922 4.406221 0.353699 1.886007 -1.816246
“ -3.175716 -0.673714 -0.560375 -0.764965 -3.356755 -2.518973 -3.938861 0.498572 1.545689 -0.410582 0.539626 -0.502082 -1.299548 0.385962 0.792998 -2.344148 0.771296 -0.936577 4.316806 -0.674960 0.332398 -1.698181 -0.257541 2.489510 1.002127 0.537201 1.838177 -0.639522 0.311218 1.732435 -0.393368 1.353130 3.011314 1.069309 1.996095 1.152374 -1.608279 -2.384344 3.848616 1.710350 -0.120892 2.809429 -1.957227 1.618035 -1.268788 1.367291 -1.479235 -0.163235 4.781353 3.332040 2.114061 -0.346763 -1.606366 2.014286 0.144738 0.055912 1.588624 -0.120211 -0.888221 -1.057134 1.983271 4.702221 -0.732077 0.228552
