3243 64
， 0.347873 -0.957036 0.691806 0.323003 3.513068 -0.671783 -0.327504 -1.262517 -0.112160 0.389515 0.340062 -1.392170 0.336759 0.691360 -1.240182 1.218516 -0.611967 0.428978 -0.427362 -1.357953 -4.796945 0.167555 0.855019 -0.593716 0.188264 0.493290 0.902460 -0.592699 -2.384331 -0.992956 1.406934 0.252382 0.511145 2.511405 -1.451263 0.336895 0.062569 0.030463 -1.440907 -1.927956 1.201802 2.082376 2.617553 -2.942552 1.567035 1.681349 0.464353 0.418391 1.092183 1.512550 -2.245344 -0.916986 0.957952 -0.464679 0.447514 -1.893561 -0.479659 -0.222814 -2.042382 0.269233 2.156074 2.790404 -2.073261 -0.856966
0 -2.799505 -0.322579 -3.041150 2.548581 -1.070659 0.241344 -0.175763 -1.385522 0.881850 -2.582071 1.396788 -2.592639 1.178524 -5.026402 0.702548 -1.379176 1.782082 -0.071610 -0.327621 0.924296 -2.037041 -1.671200 -3.243527 1.913703 1.888068 -4.774447 -5.039255 -0.152638 2.995791 0.502092 0.082530 1.557954 -1.392729 -3.082610 -0.880943 -1.227197 -0.037163 -1.261215 -2.826641 -4.325555 -2.034341 -1.656144 1.673110 2.499700 1.541687 -2.409917 0.524398 -0.017900 -4.381846 1.784266 -0.983374 -0.469224 -0.655248 0.027564 -0.352437 -3.387306 -4.273139 2.802528 0.660528 1.625037 1.560710 0.080702 -1.161012 1.452140
的 2.796782 0.153599 -0.441248 1.667537 3.469299 -2.146587 -0.616913 -0.222518 -1.902287 0.879435 -1.383740 -0.265793 -0.106855 -0.373262 -1.031729 0.659544 0.027210 0.871333 -1.087400 -1.358508 -2.129229 1.019806 1.517712 -1.335667 0.255656 0.761936 0.525091 -0.461173 -2.762452 0.597349 -0.153279 0.067325 -0.015335 2.118646 0.111833 0.737867 0.440699 0.956194 -1.108737 0.582665 0.244742 -0.868181 1.745515 -1.350102 -0.378024 2.093471 -1.040732 0.596064 0.933670 1.205308 -0.093196 0.330550 0.205899 -0.624601 0.775658 -1.002669 -0.316781 -0.447340 -1.774026 -0.185672 2.733340 -0.470059 -1.339147 -1.320039
1 -1.794849 -0.624272 -3.495769 2.093947 -1.619704 0.594747 0.073627 -1.339094 1.607594 -2.101506 1.145405 -1.209986 1.506701 -5.184962 0.830818 -0.377239 -0.205375 -0.111702 0.162251 0.157819 -1.578318 -2.093911 -2.408566 0.967740 2.023313 -5.319123 -5.151830 -0.091025 2.388676 -1.467616 -0.401128 0.844560 -1.561789 -2.642322 -0.812979 -1.163538 0.684260 -0.946026 -2.506222 -4.113494 -1.846825 -2.233733 1.704560 2.894992 1.392405 -2.463137 0.554869 0.237008 -4.155297 1.548206 -0.991961 -0.585987 -0.649481 0.040899 -0.380004 -2.680782 -3.501428 2.040667 0.384383 1.489686 1.105310 -0.219346 -0.536878 1.355287
公 0.349118 1.881633 -0.547829 0.098769 5.044078 0.437824 -2.113409 1.870496 3.215060 -1.922761 1.113550 1.741153 0.282414 -4.880915 2.521619 0.858218 0.241659 -0.702890 -2.409279 -2.463227 -0.119062 0.548019 1.585007 3.997606 1.131518 -1.466502 -2.491049 0.261231 -1.731127 3.325814 -2.008251 -0.208106 -4.436884 0.720732 -0.195087 0.650249 -2.285151 -4.081020 -0.374356 1.080726 -1.294235 1.524572 -0.013569 2.305375 0.211083 3.114258 1.755884 -1.706506 1.060449 -1.300387 1.439418 1.932160 2.434541 -1.349154 -4.271456 1.392970 3.818408 2.569884 -0.572621 3.535568 -0.606986 -2.754630 -1.209292 -3.008461
2 -2.021096 -0.457663 -3.475010 1.946693 -2.365587 0.288403 0.805652 -1.895039 2.012187 -2.269658 1.400703 -0.720130 1.657394 -4.703884 1.250539 -1.346500 -0.304946 0.054967 0.602768 -0.517059 -0.948606 -1.171062 -2.443159 1.471841 1.736532 -5.724770 -5.381539 0.019303 2.250080 -1.380141 -0.375144 1.017599 -1.690392 -2.562980 -0.909835 -0.929371 0.744084 -1.217614 -2.041574 -4.038778 -1.999218 -2.050079 1.143036 2.861252 1.932053 -2.543993 0.248464 0.562359 -4.243881 1.282560 -1.016096 -0.363560 -0.584375 0.131341 -0.403143 -2.553738 -3.060213 2.352067 0.484872 1.064223 0.760624 0.080508 -0.487584 1.189012
、 1.871558 -0.275435 -1.730983 1.322566 1.046688 -2.024660 1.006254 0.602753 -0.443040 -0.269623 -1.786196 -3.223250 -0.449780 2.460079 0.255411 -1.506050 -0.137370 1.221637 -1.252380 0.296592 0.829408 -2.673641 0.606288 -0.883041 1.242241 0.791252 2.697757 2.557900 0.878111 -2.207696 -0.682474 1.423529 0.745023 -0.597058 1.895625 0.455879 -2.406838 1.376831 -0.343233 0.062203 -3.845149 0.254964 2.000853 -0.245687 3.049241 1.422613 -0.691421 0.571410 -0.502299 2.321719 0.504628 -0.349246 0.269718 -2.407785 -0.195258 -0.079145 0.116221 -0.282263 -0.733184 -0.453571 0.522526 0.412945 0.629435 -0.403837
司 -2.043942 1.573448 -1.184002 3.440013 -1.507110 -0.379500 1.135235 0.288175 -1.139173 3.464022 -2.009864 1.990297 -2.049465 -0.784273 -0.278674 2.560067 3.181238 -1.793383 -3.580094 -0.595153 -2.071954 -0.327512 -1.797394 6.389408 -0.365192 0.910495 0.104074 -2.020589 -0.382707 2.279041 2.675882 2.882278 -4.274951 -0.751071 -2.281801 -1.506168 -0.370356 -1.327545 -0.731764 1.495763 -0.148844 -0.441710 2.905924 0.408369 0.550814 1.360865 4.483037 -2.616149 -2.345686 -4.148617 2.132551 0.811636 0.534234 0.676194 -0.872051 1.641388 1.344495 1.734327 -0.580516 1.817389 0.691669 0.071434 -0.143976 -4.517128
。 0.581893 0.528786 -2.618958 1.459189 1.045898 -2.203975 0.334828 0.096834 0.002772 -1.566618 -3.216810 -0.400745 1.457076 0.911659 0.338612 0.896136 0.158792 0.147177 -2.740388 0.104104 -2.043944 -0.021722 0.828739 -0.748578 1.104333 -1.532951 1.166180 -0.485307 -1.072950 -2.632711 -0.697495 1.160806 2.837239 0.455169 -0.246837 -0.112732 -1.056488 0.100679 -0.332529 -1.676608 -0.435258 1.871677 2.745973 -1.215356 1.890088 2.363737 0.132020 1.233392 1.514788 2.653039 0.641685 -0.646239 -0.732778 -1.911107 -0.277333 0.164074 -0.825886 0.951735 -1.739242 -1.001589 2.579750 2.036513 -0.993538 0.963408
股 0.187210 3.113607 -1.248262 6.367446 1.433318 1.735766 -2.796949 4.576506 0.247561 0.323695 -6.430060 1.909834 1.696688 -5.800048 0.215894 -0.865629 2.315715 -1.405105 -6.401619 0.401199 -2.087644 0.758132 -0.491568 1.892204 -2.315694 -0.525570 1.463211 -4.752848 2.112246 3.838344 3.041405 1.882742 -4.776860 -4.110701 -0.384102 0.995746 0.755159 -4.061416 1.943868 1.716342 -3.837251 0.507617 3.168789 -3.809380 0.280757 -0.961038 1.044393 -1.570428 1.690112 0.941611 -2.555867 -1.937047 5.040267 0.349308 -0.032202 -3.470612 2.719872 -0.481227 -0.670577 4.249021 -0.743507 -0.374532 -2.851588 -1.425764
资 -0.226344 -2.856928 1.927714 -1.057925 5.417851 2.006981 2.060391 1.771684 -1.010775 -0.244384 -3.602038 -2.535165 -1.336120 1.721828 -1.937707 -0.910785 0.424367 2.750715 0.068502 -2.932210 1.113157 -0.864743 2.618949 0.797040 -2.698705 0.132883 -0.918171 -2.810927 -1.237512 5.149886 -1.670099 2.705186 1.066698 -0.614943 4.312479 1.857274 1.211606 0.575885 0.821479 2.555229 2.550702 -0.791827 3.635788 5.310232 -0.241043 2.736683 4.136979 4.473617 -1.693879 -6.266292 -0.205220 2.274863 -3.545236 3.786745 -1.768105 -4.462059 -0.482758 -0.365385 -0.890271 1.469491 2.870045 1.836124 2.862147 -0.424452
０ -0.009393 2.328060 0.844364 4.963896 1.753059 1.101885 -2.826781 -3.961684 3.961539 1.033720 2.159698 -4.741242 1.847114 0.933183 -2.276399 4.828765 0.629398 -1.148877 2.489821 -0.372454 1.034172 0.275155 2.398770 0.667976 -2.383641 -0.962693 0.174785 0.113856 0.026190 -1.513849 -0.643077 -0.591878 1.583939 2.319213 -0.909075 0.805623 -1.448973 -4.291210 0.419673 -0.548536 -0.305128 1.789265 -0.326170 -2.087200 2.222840 -1.387761 1.424836 -0.234559 -4.373893 -2.163088 1.054347 -0.826892 1.077184 -2.169231 1.006122 2.469674 3.229442 -0.464499 1.974707 2.368729 0.762933 3.488013 -0.464951 -1.622999
3 -2.248635 -0.220835 -2.468133 2.019061 -0.946876 1.305596 1.252482 -1.271855 0.745182 -1.906429 0.724793 -2.168900 1.089013 -4.568143 0.827841 -1.271836 -0.304848 0.768647 -0.188580 0.209047 -0.704878 -1.730011 -1.788780 0.597377 2.451805 -4.262828 -4.319766 -0.248478 2.629023 0.133762 -0.661976 0.432751 -1.823276 -2.696977 0.129902 -0.833031 0.980989 0.036638 -2.733635 -3.856464 -1.976376 -2.000961 1.747730 2.375413 1.071252 -2.432247 1.115819 0.525586 -3.741878 1.979794 -1.536813 -0.989487 -1.441260 -0.033996 -0.464075 -3.099747 -4.232966 0.957833 0.027461 0.620210 0.516141 -0.124801 -0.313337 2.286960
有 0.761687 -1.500059 -0.661017 3.578356 0.765741 -4.849955 2.021175 0.789331 2.792445 -1.366555 -1.397440 1.089458 -3.241120 -2.493140 -1.719818 5.970074 1.617516 -0.453647 -3.701305 -1.671706 1.069460 2.179242 0.559651 0.070564 2.087358 5.439289 2.936322 -0.760758 0.198744 2.476986 4.461232 -3.762686 -4.318025 -6.041234 3.518433 -2.668862 -0.513906 -2.404794 -1.470261 2.864363 -1.838095 0.855803 3.110774 -0.760178 2.164298 1.420441 1.852927 -3.662241 2.995930 -3.016547 -1.482655 2.744704 -2.806863 -0.942053 -1.524847 -2.864416 -3.470338 0.017493 -0.889888 2.053272 0.139224 -0.034598 -3.090077 -7.476733
. -4.618414 0.024779 -0.502146 1.486572 0.868166 -0.204688 2.631799 -0.982074 -2.093341 -3.863167 -0.679801 -3.277454 1.107065 -1.436978 0.463733 -3.684903 0.284264 2.720133 -1.658393 2.009898 -3.077575 -1.322884 -2.538771 2.755668 1.084913 -3.830944 -1.987262 -0.428736 1.793109 2.712199 -0.722101 0.291814 -1.080007 -2.951856 1.058432 -1.725540 1.054588 3.626245 -4.355132 -4.942443 -2.349471 -0.879691 3.612256 -0.086713 1.304681 0.785200 3.822619 0.094748 -1.468898 3.890440 -0.538993 -1.241189 -1.248417 -2.734738 -0.670057 -3.769761 -4.576902 0.347472 -1.191918 0.881474 1.324578 2.902085 -0.672911 3.243264
, -4.199305 -0.855201 1.042082 0.338169 1.244239 2.244008 4.622155 0.763861 -2.660630 -2.094480 -1.054797 -4.295341 -0.127890 -2.856789 1.665539 -3.590416 1.073612 1.909269 -0.589266 2.425488 -0.240329 -1.564436 -2.660936 1.478574 0.918080 -1.776062 -3.458277 1.417462 -0.621333 2.733296 1.323052 0.293338 -2.483084 -4.888952 1.519739 0.021680 0.577663 2.065670 -4.703573 -4.693475 -1.118182 1.197338 4.301177 -0.557298 1.837421 0.546817 2.985123 1.223223 -1.508883 3.155708 -2.939654 -3.032126 -2.450494 -3.503835 -0.485737 -5.433488 -4.418222 -0.816290 -0.556231 2.519461 0.796925 1.941838 1.225153 0.545595
行 -2.147709 3.723882 3.010801 -1.147030 -1.587104 1.372550 4.928576 0.454380 -0.146101 2.663923 -1.549953 2.339916 0.515927 -4.098761 -1.274529 -1.274228 3.283112 4.707824 -6.505899 0.439524 2.541389 -0.945308 5.171649 3.814622 0.771961 -0.200155 -1.358129 2.076779 -2.426983 -3.668567 2.118880 -2.196743 0.687344 3.313953 -2.966537 5.811046 -1.365173 -2.205329 1.154796 1.143810 1.964894 2.293273 0.036856 -3.490205 0.056349 -1.265244 -4.285034 -3.031554 3.807208 -2.953507 -3.400930 0.620860 -1.353524 -1.542024 -1.827138 1.811075 -3.143354 -3.331898 -0.709087 -0.730703 3.532959 -3.976897 1.090699 -3.981951
5 -2.552019 -0.833390 -2.222497 2.017636 0.037048 1.098260 1.014879 -1.062394 0.219981 -2.296786 0.410022 -2.513953 0.377694 -4.509295 0.500641 -1.835842 0.155660 0.882199 -0.951095 0.637592 -0.171882 -1.726122 -2.498744 0.794441 2.357805 -3.833606 -4.176432 -0.365234 2.472429 1.112164 -0.158496 0.080526 -1.871012 -3.187671 0.099695 -1.097229 0.824345 0.654069 -3.362276 -4.258848 -1.634049 -1.862850 2.084090 2.087663 1.213622 -2.327972 1.238765 0.533524 -3.285228 2.065308 -1.451169 -1.243602 -1.199914 0.424382 0.012914 -3.087596 -4.190317 1.096580 0.217999 0.118353 0.355654 -0.049783 -0.528609 2.842343
4 -1.938583 -0.477768 -2.626900 1.940238 -0.635858 0.785767 1.367052 -1.824970 0.566178 -2.479705 0.626049 -1.967161 0.634789 -4.604544 1.250263 -1.124686 -0.021989 0.874028 -0.609291 0.293275 -0.599402 -1.300400 -2.516342 1.214931 2.266021 -4.270314 -5.116714 -0.203927 2.059574 -0.287202 -0.379377 0.421911 -2.028144 -2.889012 -0.072518 -1.048174 1.154713 -0.289730 -3.202579 -3.954245 -1.820135 -1.832586 1.578566 2.372839 1.635644 -2.427079 0.741781 0.829889 -3.409204 2.397115 -1.168705 -1.242468 -1.003504 -0.057815 -0.566822 -2.937907 -3.579756 1.214019 0.536504 0.505965 0.663946 0.151624 -0.381523 1.764343
１ 0.296579 1.134137 0.673791 4.782875 1.181816 1.770779 -1.818804 -2.942387 4.721948 0.734975 1.937948 -3.729588 1.574713 -0.205674 -2.632209 5.096699 -0.906670 -1.704614 2.185912 -0.679115 1.273870 -0.962463 3.445271 -0.529941 -1.896816 -1.351149 -0.404213 -0.398514 0.306925 -2.926448 -0.806066 -1.312549 0.211595 2.487315 -0.599657 1.086690 -0.497208 -3.769746 0.461577 0.174182 -1.122699 1.468360 -0.024814 -0.729181 1.727927 -1.190600 1.738646 0.508903 -4.025333 -2.074012 0.362655 -0.207783 0.974927 -1.317470 1.431723 3.028026 2.861212 -1.533122 0.852369 1.776479 0.206093 2.391952 0.030303 -1.522352
发 1.671718 -0.829482 -0.333637 3.099361 2.536349 -4.557774 -3.181711 0.372490 -2.637173 -0.421937 -2.586168 2.214801 2.382141 0.919643 1.088397 -0.665842 0.255777 -1.151834 5.191718 -6.207635 -0.116531 -1.907610 1.064308 2.944301 1.475188 0.555649 -1.200589 -4.928183 3.849470 3.131647 -1.111111 -0.378218 4.628804 2.743736 1.334368 -3.674819 -2.358486 -0.396736 2.245076 2.428148 -0.991388 1.156149 -1.867069 -0.242011 -4.938822 3.618178 -2.589661 -5.196785 -0.234891 4.124003 4.710159 -2.188419 3.586850 -4.405434 -0.318209 -1.879706 -1.082270 3.014103 2.238914 5.078192 -2.120231 -1.942121 2.271822 -2.961790
6 -2.962470 -0.723416 -2.103225 1.824120 -0.006513 1.308054 1.081575 -0.963917 0.607385 -1.918775 0.362255 -2.465182 0.460452 -4.737333 0.779843 -1.684541 -0.074840 0.177814 -0.452819 1.042370 -0.323322 -1.769984 -2.257470 0.783354 2.657313 -3.846386 -4.105661 -0.279039 2.764238 0.667185 -0.706630 -0.190773 -1.606789 -2.919453 0.377302 -0.667996 1.869652 0.958967 -3.582914 -3.911685 -1.775695 -1.625567 2.124990 2.003413 1.547801 -2.327934 1.275954 1.001689 -3.456661 2.531089 -1.596680 -1.142014 -1.743141 0.613878 -0.356649 -3.318891 -4.181412 0.836844 -0.144574 0.422091 0.232787 0.418514 -0.490156 2.285994
年 -7.807277 -1.047750 -1.512297 1.511052 -5.154507 1.377355 -3.539528 -1.068620 0.004124 0.404606 4.704398 1.364490 7.316479 0.089442 -2.140902 2.029642 -1.152749 -3.340189 3.363438 -1.595650 -1.996116 -1.322400 -0.606968 4.677423 -0.836252 -5.437798 -4.134828 0.882395 0.932883 -6.522624 2.027177 -0.496682 0.193334 -3.036005 -3.901848 -2.057796 -0.046738 -2.174267 -0.709557 -3.788637 -0.517056 1.271124 3.247577 -0.863271 6.334099 3.876908 2.862660 1.244627 -1.954749 3.677647 0.278634 -0.415632 5.644401 -1.756098 0.703015 -2.309685 -2.418975 2.829273 -1.049704 5.338389 -0.887132 4.056045 -0.526654 -2.152713
本 1.523651 1.219034 2.221718 4.136540 -1.648666 1.393727 -0.432165 -3.243906 3.419056 -0.242173 -2.587982 2.379583 -1.189276 2.881612 3.866744 3.322860 -2.674640 -0.056357 -0.834733 -4.709843 6.018530 0.738144 1.171450 4.039689 -2.697218 -2.567837 -4.013608 -3.367648 0.058797 0.936827 1.317337 0.747995 3.107444 -0.788240 -0.157782 1.945122 1.383716 -2.085663 -1.711997 -2.744377 -0.547794 1.429278 4.087758 1.081980 -4.866709 2.388662 -2.445233 -3.067137 1.805892 2.063691 -1.436272 2.239102 1.695410 -2.240789 -1.610570 -0.103599 -1.341564 -0.361918 1.120048 -0.044568 2.502204 -1.785012 -1.763954 -0.478453
9 -2.555990 -0.935529 -1.991878 1.151226 -0.600851 1.146904 1.640836 -1.423169 0.461711 -2.608073 1.175845 -2.486050 0.383753 -4.545311 0.789512 -1.524791 -0.206296 0.305707 -0.073684 0.555684 -0.634938 -2.250587 -2.743899 0.621269 2.793460 -3.994388 -4.829719 -0.785647 2.800952 -0.133999 -0.976338 -0.340383 -2.220725 -2.842553 -0.332023 -1.011438 1.999493 0.659736 -3.514828 -3.912043 -1.293507 -1.264137 2.080279 1.783771 1.456636 -2.787030 0.724996 1.284655 -3.566265 1.870290 -1.433634 -1.477364 -1.324132 -0.411363 0.166183 -2.974165 -4.382845 0.641575 0.483238 0.481994 0.541741 1.044537 -0.352051 1.993129
8 -2.545676 -0.462718 -1.991563 1.762077 0.570209 1.414276 1.666113 -0.654965 0.298881 -2.416076 0.289927 -2.763952 0.373964 -3.999169 0.645966 -1.767605 0.210998 0.573128 -0.545919 1.555323 -0.095535 -2.558892 -2.811881 0.989379 2.959884 -3.755575 -3.898482 -0.174662 2.272213 0.969047 -0.828699 -0.219147 -2.041163 -3.017450 0.284820 -0.427161 1.314935 0.897109 -3.698108 -4.056761 -1.498626 -1.292846 2.525005 1.972668 1.788284 -2.764078 1.084967 0.904514 -3.299515 2.953907 -1.986858 -1.580126 -2.037089 -0.097444 -0.258768 -3.264000 -3.827524 0.395070 0.497960 -0.155284 0.212723 0.566933 -0.199669 2.602274
业 -0.717640 2.051054 1.827189 -3.654658 2.385503 2.418722 1.371681 0.009475 4.259272 -1.878069 3.091848 1.045329 0.586984 2.183020 -1.561211 -2.859532 -0.618851 -5.487219 0.059458 -2.364215 -1.172665 0.007702 -1.983872 -6.443175 -0.455355 4.893428 5.619462 -2.087814 -3.287153 1.406743 -3.285466 0.459777 2.136052 -2.709687 2.956871 0.154664 1.888679 4.442437 -0.754107 4.159881 0.569044 -4.419281 -1.475264 2.171242 0.258746 0.782620 3.576604 -1.367599 -2.095772 -4.332993 5.701856 -1.615763 4.273091 -0.125943 2.012608 -4.308510 -0.546685 4.432647 -0.660952 2.444736 2.518385 -1.583324 2.723736 -2.085601
２ 0.060668 1.897365 0.017807 3.476977 0.287710 1.377876 -1.639903 -3.303118 4.566707 -0.045092 1.673955 -3.173397 2.071644 0.455775 -2.201350 4.694198 -0.182076 -0.810748 2.517753 -1.412794 1.253027 -0.278872 3.216113 -0.149622 -1.933903 -1.575109 -0.974992 -0.067160 0.346806 -2.881093 -1.468740 -1.168062 1.057838 2.365159 -0.454933 1.372595 -0.111773 -3.648234 0.502753 -0.219409 -0.616011 1.264567 -0.290281 -1.116047 2.540310 -1.768365 1.530822 0.654678 -4.249595 -2.133864 0.859805 -0.465328 1.537146 -1.378582 0.905055 2.707229 3.667746 -1.364671 1.190350 2.287364 0.046752 2.629272 0.114860 -1.833705
7 -2.593911 -0.952059 -1.704001 1.718178 0.377030 1.442131 1.776680 -1.161375 -0.140192 -2.528996 0.051952 -2.819403 0.317180 -4.144773 0.881396 -1.628327 -0.145420 0.947315 -0.487851 0.926250 -0.080763 -1.824494 -2.373842 0.944299 2.322727 -3.702090 -4.360466 -0.564571 2.750841 0.816566 -0.627750 -0.023898 -2.132838 -2.958361 0.308075 -0.930569 1.614722 0.832261 -3.731527 -4.181777 -1.588910 -1.279449 2.161573 2.004218 1.455768 -2.656851 0.947388 0.830689 -3.363040 2.415354 -2.003181 -1.699632 -1.623787 -0.033758 -0.132145 -3.470883 -4.096817 0.300836 0.179435 0.547101 0.144682 0.378667 -0.374627 2.095162
人 2.413857 0.562472 1.158091 1.263244 -2.509628 -1.162587 2.410260 0.832032 1.033769 2.896779 -4.420563 -1.600860 -1.077385 -0.542543 -1.251661 -3.912740 1.057354 -0.782382 -3.740875 -3.447171 -0.997613 2.772105 -3.235599 0.213602 -2.642397 -1.904769 1.799142 -0.895789 -4.048265 1.944152 -0.624904 -1.031384 0.858785 -4.551523 1.347098 -2.503521 -0.162386 -1.132133 -0.296608 -0.794957 1.480530 2.565856 2.754472 -0.996959 1.021748 -1.700686 -1.637996 0.785939 0.226699 -3.342302 1.428232 1.833372 1.816593 1.016925 6.675143 4.941267 0.369911 1.758775 2.922113 -0.269925 2.327125 0.372066 3.674937 4.890183
： 2.671858 -0.290343 -2.461060 1.461675 2.602636 -2.164443 -2.099725 -1.893819 1.262009 0.504332 0.965366 -1.948803 -0.009426 -1.112607 -0.211352 0.962756 1.399631 -0.508971 -5.600870 4.367887 -1.875797 -4.075382 -0.404964 0.296862 2.108282 -4.670876 2.890848 2.166173 1.040951 -2.424392 -0.880603 0.338161 1.753275 0.355947 3.459381 2.176636 -0.426877 1.452070 0.175400 -3.238791 -1.405076 2.967980 2.971408 0.573149 1.186707 0.432402 0.584528 -0.683618 0.296963 2.536348 -1.913475 0.025642 -0.218495 -1.915874 2.033764 -2.208867 0.431853 0.151453 -0.195937 1.635353 3.557998 1.999121 -1.757294 1.912308
） -3.248629 2.286458 -2.120094 4.092367 -5.386804 -1.500969 -0.596062 0.998042 -0.146681 -3.296447 -4.154318 -0.353530 4.329922 -2.767859 0.569934 1.294821 1.697830 -0.416514 -1.803828 1.624053 2.018837 -2.179654 0.092788 1.268163 1.030210 -2.561012 1.063879 -2.818711 0.341865 0.358859 -1.303370 0.692412 3.806966 -0.658679 3.623285 1.219535 -2.206650 -0.443716 1.436798 1.433490 -2.456032 1.776834 2.118526 1.403907 -1.197276 1.263601 5.127103 0.460709 0.474769 2.872959 2.701908 0.805193 -3.705019 -1.237819 -0.837656 2.882916 0.335497 -1.281126 3.121905 0.871625 1.231727 1.594361 -0.315256 0.901033
产 1.322628 5.431478 0.147951 0.510681 3.896883 3.224347 0.146780 5.070263 -6.352361 2.138638 0.409298 -0.048298 -3.483998 -3.070179 4.145385 0.078083 1.853770 -0.218653 4.623366 -3.534623 1.861082 -3.683676 2.847406 3.945526 -0.366352 3.462340 -0.503445 -2.868181 4.915673 -2.029179 1.063789 -1.745506 -2.548025 -0.330542 0.197006 1.314574 4.256674 1.577010 -5.358547 1.670179 -2.951650 -2.436534 -0.209250 -2.901225 -3.578999 0.302470 -0.468387 -4.050013 -2.680421 6.907082 -1.030934 -1.081607 -0.779553 -3.621213 2.310266 3.479608 3.488995 -0.947165 -4.673454 -1.597452 0.935328 0.863654 -1.578547 -3.507019
金 3.505025 4.765261 1.865078 3.145521 1.924235 4.257662 5.423410 2.238368 0.832616 2.091070 -0.695725 -3.099665 -3.993353 -4.888038 0.891635 0.363737 2.388814 1.033993 3.439925 -1.367732 3.395157 -1.978699 -0.076213 -0.638109 -6.664686 1.504383 0.916303 0.877618 -3.296193 -0.061704 -1.530142 -0.050437 -0.261994 -2.253968 1.333207 2.774908 2.602541 0.338518 -4.263906 -5.077677 -4.176567 -2.443772 -0.479065 0.746576 -6.020244 1.037285 -0.296404 -0.402528 4.392843 1.716334 -2.062923 1.181199 -4.127205 0.980734 0.252342 1.789292 -4.061436 3.277915 0.945063 2.277686 -4.671602 2.730277 -1.304427 -3.004642
（ 0.102318 2.431538 -1.026726 3.089030 3.852292 0.233748 0.597101 1.690693 2.351077 -0.122041 0.271593 -0.546261 -2.571756 1.880859 -0.552374 -1.176358 -2.778502 3.279433 -3.493929 5.810926 0.795069 -0.034115 0.793284 -2.178307 -0.869336 -2.779556 -0.022293 2.060365 3.879347 -4.322146 -0.243150 4.288710 2.175279 0.865796 5.302341 -3.997865 -4.497211 -2.517767 1.401465 -2.710771 -3.611756 -0.753402 5.394692 -0.250046 1.779651 0.966347 1.480235 0.154718 -0.816430 3.273967 1.701523 1.034414 3.117967 -3.083537 -0.830437 0.284733 -1.631864 -0.437338 -4.729240 0.677587 5.520575 1.172564 2.080197 -2.805006
限 -0.821325 0.403946 -2.111422 0.535273 3.772521 0.041626 0.788068 -4.993472 5.371625 0.394334 -4.662685 0.708807 -5.231832 -1.016487 0.360536 -5.297478 5.223605 2.480363 -6.818728 1.438831 -1.114569 -3.582546 -2.749940 2.192966 3.411773 -0.915237 -0.406560 -1.878410 2.317085 3.056533 0.812271 7.093217 -2.396635 0.706178 -3.451825 8.603406 -1.731836 2.659668 -2.591722 -3.951046 -3.057111 0.793504 0.518228 6.050241 -5.070436 5.557006 1.556985 -3.724095 -5.555629 -1.307194 1.864344 1.548615 3.187313 -2.793102 -0.304605 1.552166 9.239443 1.219410 -0.932373 3.647057 0.545429 3.827575 0.849549 -4.453614
中 1.639156 -2.764154 2.366891 -5.218770 1.973043 -0.843422 1.295786 -2.943260 3.605472 1.422797 -0.968384 0.709780 -1.138437 1.231437 0.562967 0.459576 4.414717 1.193247 3.720716 2.500711 0.880715 -4.944404 -3.486949 -0.005004 3.396377 -1.661226 1.832971 -1.937511 3.774039 -1.652000 0.888013 -3.772518 0.199679 -1.296823 4.414178 -2.509647 1.500050 -6.036412 0.965141 1.873562 0.480703 -2.391020 -0.433561 1.741731 3.651590 -2.504376 -2.378609 -0.422166 4.952327 -0.471065 -3.967742 1.460947 -2.610082 1.335678 0.554061 1.200338 3.004547 1.976035 -0.476511 -1.576585 2.262608 2.554685 1.399844 -4.413023
． -4.418541 1.893253 2.201252 3.512226 2.947525 1.434493 0.320953 -2.384681 0.467875 -2.678446 -0.777831 -4.603843 0.835104 2.561801 -1.789441 -0.080179 -0.465587 1.910736 1.380494 2.612220 -1.211284 -0.788272 1.068178 2.781169 -1.822181 -1.688914 1.881607 1.246918 0.070420 1.578744 -0.783459 -2.119515 1.363628 -0.881963 1.156109 1.249193 1.255132 1.079322 -3.606982 -3.073734 -1.937380 2.376351 3.183811 -4.185160 2.286982 2.329642 6.304813 1.201305 -0.544488 1.835114 0.021822 -1.987208 -0.454612 -4.397182 0.320104 0.084799 1.272697 -3.252107 -1.470028 2.952145 0.490734 6.677982 0.522297 0.619303
市 0.374152 -5.663229 0.681690 5.817154 1.967581 4.145444 -5.517902 -5.600936 -0.985922 -4.212642 0.189764 4.724861 -0.138149 4.309324 2.458611 -4.083508 2.964919 1.728461 -0.700169 0.893425 0.631964 -5.691685 2.104184 -1.262244 3.103806 7.141108 -0.512897 1.266350 -0.579846 1.575181 -0.883411 -1.349477 -2.372025 -0.158633 -3.471659 0.925094 1.245526 -1.268366 3.611824 0.591342 -0.855877 -0.070293 -1.151024 0.227247 -0.938538 4.935582 3.018303 -2.621296 1.148100 -1.795863 -3.709189 4.344181 3.872053 -0.341492 1.311614 2.140868 0.253216 -5.828259 -3.909301 0.133856 3.084170 -4.933716 2.454988 0.059409
为 1.952084 -1.114849 1.819624 0.039074 0.506856 -1.432816 -1.171380 -0.572730 1.078457 0.000720 0.715703 1.143416 0.364651 1.956933 -1.167621 1.901254 -0.969388 0.275714 -1.706592 0.583035 0.380018 2.890788 -1.909477 -0.498634 3.453482 -0.873643 -0.582669 -3.016698 0.243024 0.285918 1.237996 1.207186 1.910114 2.070156 3.341807 0.673531 -1.478586 -0.332931 -4.701400 -2.168110 -0.308864 0.152951 0.560359 -0.072633 1.946792 0.683756 1.952155 -0.386080 -0.098153 1.678330 -1.803364 -1.163933 0.279370 -1.571804 4.434528 -6.114035 -0.272266 -0.010481 0.137556 1.014966 1.362136 -0.074710 -2.626518 -0.459748
会 2.782169 4.674737 -1.823113 -0.294843 -1.956885 -1.303569 0.886958 -3.209801 1.458180 -2.135232 -2.760637 -1.800792 1.088113 1.822390 5.466942 0.893233 -0.041666 3.380559 -1.284933 -0.486853 -0.529279 -0.461172 -3.193573 1.941699 -2.953262 0.262067 3.583371 -4.063944 -2.518541 -3.190213 -6.470138 1.275124 -0.905531 1.593458 -6.052688 -0.877936 -3.675668 -0.552541 -4.662221 -3.148854 2.492967 4.571106 1.776908 -0.508562 2.395163 3.995723 -8.481432 1.380731 -0.968762 3.060501 -1.396300 2.641693 3.490574 2.511958 3.482014 -0.114075 2.739524 -3.780483 1.576167 2.961585 0.248940 -5.115191 2.137533 -1.535047
国 -6.138080 1.059253 0.067474 -0.836620 0.181368 -4.930180 0.542526 -0.597075 1.136868 3.061543 -5.206501 2.382854 1.509813 -1.313387 0.929684 -0.448379 0.237522 -1.429310 3.083476 1.297781 -1.015064 -3.638052 0.622336 -3.193716 0.981989 6.139993 0.094721 4.015816 -0.812481 0.829101 -3.775255 1.487200 -5.661786 1.309096 0.354775 3.187356 -3.235862 5.397703 3.898707 -3.192680 5.189252 1.225325 -1.295842 0.153686 -2.811759 1.786573 2.745968 -1.604986 -6.002284 -4.708266 0.658117 -0.691237 4.771716 2.186462 2.815343 4.255670 -5.009599 1.636007 5.044058 -0.109324 -2.422438 0.389607 -2.644251 1.109189
上 0.234462 3.944269 -0.896631 -4.341554 -1.146420 -3.070915 -0.222582 3.291611 4.759641 2.873734 -0.644024 -1.153286 -1.176040 -2.748651 3.994261 2.119041 -1.566274 0.313237 0.193582 -1.107585 -1.291682 4.370151 -2.045358 3.256573 -2.394588 -5.414802 -0.201276 -2.926385 -1.432665 -4.204726 4.111929 4.946713 -2.074910 6.469820 4.345653 -1.020966 0.524883 -1.032703 3.830385 -1.749273 -1.482681 0.359573 2.706439 -2.731510 -0.171857 -4.050772 -0.574307 -7.760676 2.693445 -4.401068 6.129000 -2.927132 -2.770220 2.084553 -0.201280 -4.793906 2.970145 3.576616 0.218413 1.108600 -4.138999 -0.044425 -5.262568 0.320956
券 1.277888 -5.570344 -4.935168 -1.408848 1.604784 -2.293344 0.023846 -1.011183 2.355707 1.738961 -2.831376 2.036223 4.213077 -0.831506 -5.930480 2.419497 2.781676 8.912770 -3.515867 -1.261958 7.610406 -4.413553 -2.653288 4.121594 -5.916795 4.646827 -3.326566 0.742093 0.909770 3.624765 -1.548099 -2.808776 -5.157834 1.636369 1.289784 0.201802 -4.290766 -5.339139 0.372135 -4.725566 1.628110 -0.271459 4.657220 4.162583 -1.500539 0.186342 1.413414 -6.499718 5.114385 2.330154 5.601301 -1.043038 -1.027151 3.975399 5.202248 0.916661 0.708541 -3.628008 -0.806068 -1.012991 1.056339 2.091315 3.753566 -0.026474
投 0.487688 3.924537 2.581232 5.861683 1.922409 2.402476 0.649236 2.063236 -3.617030 0.382376 -2.240130 2.504278 -3.245610 -3.417714 2.295006 5.573344 0.078150 -0.326336 0.999009 -0.370430 6.219676 -1.301454 -2.395556 0.246937 -0.785233 5.804995 -1.404656 1.187437 2.959909 2.672010 -2.849779 2.068667 -2.232523 0.634374 2.045938 2.113372 2.125724 -0.747316 0.569419 0.195514 -1.311393 -0.294653 -0.036959 0.306736 -4.893435 -3.735274 -0.491758 -4.548079 3.157516 0.208047 -2.844566 0.281656 1.825698 -3.076914 1.895554 -1.567366 -0.009435 3.194361 -5.955915 -0.365617 -0.571777 -1.970073 -3.986933 -0.793410
事 2.749464 4.112653 -1.409783 -6.457673 0.072868 -2.214586 2.558224 -4.491698 -3.770474 -6.229984 -5.492469 0.017991 -0.053242 4.167430 4.023087 -0.814628 -1.899150 -5.806924 -2.464116 -1.935558 -4.306722 -1.222108 1.081277 -2.332613 -5.869390 -1.339485 0.578859 1.488642 4.833355 -3.891811 -0.441832 0.898136 -1.956893 -0.124883 -4.196060 1.606150 -4.411938 -3.584462 -6.752565 3.084482 -0.078129 1.974023 1.957150 0.740996 3.028286 -1.849017 2.243309 -1.370826 5.013560 -3.041930 -2.632260 1.040185 -0.880499 -2.570042 -5.064905 7.117492 0.544487 -0.930198 6.757713 8.666645 2.247477 -3.914790 -2.556638 -0.225345
务 0.120033 -2.002884 -0.379330 -0.856015 0.654716 -1.576731 -0.027262 -0.800422 -3.914701 4.873631 3.489116 4.816200 -3.868794 -1.285079 -1.489719 3.023600 3.609233 7.908218 2.726712 0.058885 2.902382 1.137229 3.268174 7.976695 1.509190 -0.128926 -2.715482 0.592493 1.613865 -3.076444 -0.196884 -5.016841 -0.113421 0.359062 1.075200 -0.144510 -1.333359 1.656888 -5.095839 1.231509 -2.230895 -0.459374 3.137950 1.970873 -0.927268 2.671616 -7.627275 0.979998 0.150947 2.888428 5.530094 4.327535 -3.760365 1.140244 2.017188 6.990272 -1.046095 -5.216424 2.837696 -3.055780 0.376766 0.600537 1.067609 -3.246704
３ -0.248187 1.346076 1.217684 4.127672 1.218815 2.506894 -1.422358 -2.685784 3.058571 0.879050 0.502048 -4.177991 0.472006 0.424082 -1.932601 4.271293 -0.993129 -0.934295 2.115787 0.086733 2.475793 -0.962711 3.163276 -1.294904 -0.718569 -0.875407 0.216410 -0.769954 0.587199 -0.575921 -0.819331 -1.903575 0.380595 2.405603 0.320803 1.331085 -0.095521 -2.349025 0.719344 -0.170321 0.029737 1.695046 0.545728 -1.124097 1.675615 -1.390083 3.253598 0.638674 -2.973931 -1.371904 -0.285878 -1.149726 -0.319770 -1.279889 1.153269 2.713317 1.818469 -2.797607 0.327173 1.051859 -0.731536 1.854195 0.651002 -0.456822
期 -5.312912 2.697561 -0.482516 1.874093 0.474654 -3.982502 1.907719 3.398875 -5.557632 0.330186 0.217660 -1.153965 0.887516 -6.386179 0.119524 2.283266 -1.463980 -2.169173 -1.489247 -4.765447 2.343070 2.724066 3.750721 1.800184 -4.746734 -5.085040 -5.705419 4.935084 -1.120793 1.531782 0.956079 -4.326020 4.065451 2.792801 0.302642 -3.027869 -1.477599 -0.167849 2.915220 -0.901483 3.742513 0.627382 0.101405 -0.381365 3.821702 4.376471 5.567744 -0.013779 1.661607 -2.470954 0.229671 -2.556129 -0.704990 2.842691 6.027605 5.458854 -2.355022 3.066503 -4.567854 1.385888 1.097059 0.285183 3.506022 -6.112245
日 -4.113050 -1.784692 -2.561595 -1.038559 -2.592404 1.217187 -2.919952 -1.007275 6.003700 1.150372 0.451530 0.285437 6.585064 -2.581231 0.294185 2.556608 -3.664196 -5.877520 0.126534 -0.059128 2.257247 -1.158862 -5.233308 2.501924 -2.092817 -5.280328 -6.212421 -2.374084 -1.994514 -5.257572 1.414195 0.159979 -0.056389 1.215202 -2.522086 0.313164 1.559725 -1.162016 0.122189 0.210015 -3.326517 4.218158 4.472260 1.328525 1.066345 -1.471341 2.446347 2.664593 1.903660 1.466008 -1.110570 3.388192 0.520133 -0.896064 4.472960 0.046693 -3.325469 1.272542 -2.007514 2.665960 -0.768359 0.309444 2.862460 -2.732989
和 3.556810 -1.565156 -0.464390 0.673350 4.232665 -2.800662 1.011993 -1.199219 -0.668171 0.966498 -0.689509 -2.391096 -0.943659 1.148426 -1.169972 -0.880032 0.721302 2.173883 -1.104121 -0.418938 -1.751790 -1.189816 0.846793 -2.968608 2.530089 2.169674 2.580613 0.756544 -1.505685 -1.046880 -0.963212 -0.224611 0.110269 1.142545 1.611582 1.541589 -1.088647 1.542273 -1.332491 0.399728 -1.706158 -2.458369 2.326549 -0.262699 1.773212 0.267030 -1.632447 -0.463058 -0.542861 0.993769 0.020421 0.307483 0.043580 -0.917299 1.388737 -2.036386 0.326591 0.559929 -2.246742 -0.424450 1.935411 0.448153 -0.649561 -1.791304
理 2.534790 3.981097 -4.498142 -0.866579 -2.291375 0.269084 -4.606021 -1.304335 -1.980625 1.645560 2.956724 -2.210135 -2.851020 3.343163 1.129590 -3.559520 -0.360395 1.554131 -4.093237 -3.809792 2.520049 2.127017 1.160278 3.238999 1.136338 2.897097 2.206639 -1.144195 0.400712 6.432281 -6.095765 -2.844078 -4.719978 -3.289284 5.970006 6.583007 -3.453582 -1.426101 0.721116 3.983153 -3.048878 -3.509201 5.206383 1.489097 -3.511351 -1.211365 -5.568979 0.025984 -3.206808 -4.184153 -5.078126 -2.026992 -0.911821 1.043991 1.791300 3.193266 -2.309386 0.214814 2.106282 -6.894998 1.996154 4.317577 0.619666 -8.167719
经 -0.426445 -2.537612 -1.721380 -5.458122 0.813881 3.912434 0.944797 -2.952659 -3.062861 2.113364 3.055059 2.421419 3.369025 -2.087244 1.349072 6.787321 -2.487513 5.191339 1.362641 -5.571384 -3.100669 -6.606909 -1.425988 -3.940444 2.073917 3.493695 -0.940048 -2.105615 -1.939397 -0.567044 2.817188 1.610032 0.697403 -3.881640 3.047504 -1.198330 1.244372 -3.800329 -3.351591 3.623280 -2.944067 4.122961 -1.939167 1.075498 0.644354 2.686629 0.321096 -0.953974 -6.876786 -4.882025 8.802441 -1.053425 -1.088401 -3.944848 0.462876 -0.114967 -0.472433 -2.015447 -2.643229 2.656663 1.310586 -5.728233 -0.044935 0.441382
关 3.203214 4.502246 -0.945747 0.120152 4.880982 -1.076735 1.493663 -0.353515 0.922135 4.038856 -2.457108 7.660034 1.187685 1.857657 4.352514 -1.007529 7.180193 1.698971 -1.661431 0.919550 0.936125 1.891907 -0.036925 -0.505062 0.257444 -4.462241 -4.173271 1.999849 3.128920 1.564068 -1.872569 2.956415 -6.613017 4.874260 -4.505764 6.550287 3.331395 1.368457 1.594545 0.192612 4.879095 -0.079320 3.770714 -0.868123 2.309119 -1.041092 -4.276522 5.732672 -2.658647 -0.591323 3.162634 0.167726 4.950524 0.120527 1.224367 3.478897 9.813625 3.647335 4.948742 1.663154 2.980277 -2.498450 7.923121 4.160779
一 0.685344 2.848814 -2.355276 -0.107618 -1.575853 0.696023 -2.994868 -2.054121 2.595147 2.185782 -1.699797 2.974966 2.268073 1.853143 -1.915255 2.793024 -1.276352 -1.726938 -2.329103 -0.895772 -1.095279 3.961173 4.491882 -2.928863 0.024009 -2.271641 -1.619444 -2.754756 -2.299678 -3.576118 -1.138388 1.603264 1.323219 0.334522 -2.995425 0.288640 -0.943792 -0.824198 0.746781 0.600008 0.912589 -0.648475 -5.123817 2.532959 -5.698843 -1.202562 -4.347654 0.241434 1.410296 0.318391 -0.934482 -1.294307 -1.567564 0.949707 3.582042 4.209334 0.914067 1.836681 -1.581441 -2.142717 5.085145 -2.610809 -0.334239 1.820553
在 3.286124 -1.272185 0.364454 -1.013187 2.290274 -2.370577 -2.341356 -2.450486 -1.049351 3.241213 2.249060 0.960230 0.980074 -0.665669 -0.873181 1.293651 0.111718 -0.089325 -2.224261 -1.301576 -0.287836 1.210182 -0.367481 -2.807718 3.247265 2.068530 0.327502 1.997550 -2.646794 -1.896883 2.763182 1.290047 -1.064888 2.491376 -0.102002 -1.658952 0.961922 -0.695575 0.539137 -2.099522 1.355186 0.183998 -0.101263 -1.712902 -2.393029 0.150573 1.156244 0.117462 1.578191 0.240752 -1.892525 -1.095754 -0.538840 0.604964 0.660444 0.991983 -2.994219 -0.801509 -1.498167 1.327384 1.078239 -1.308267 -0.871092 -1.874896
证 1.006242 -0.061390 4.946108 -3.358838 -1.861183 -0.557732 -1.937980 -1.142683 -3.327131 1.209439 -6.393753 -0.414013 -8.720374 -1.934514 8.052449 -2.207007 0.401705 -4.805640 0.937262 0.824133 -2.566486 -1.034286 -3.790469 -3.710056 1.307493 -3.282583 -0.365362 5.441232 0.950701 -0.556359 -1.033554 -3.557644 5.706738 -4.824242 0.857915 4.421735 1.831527 -4.214861 8.204700 2.653224 0.968021 3.792490 3.913362 0.266510 4.247737 1.965971 4.034497 -2.744643 -8.499284 0.429360 -2.097451 6.131005 -0.936986 2.912887 2.923001 1.010604 -0.292580 1.206360 2.457713 5.827718 -0.932858 -3.903289 -5.386898 -5.816852
大 2.575492 -3.036896 -2.857192 0.831155 0.450442 1.148709 4.786113 1.822061 0.136446 -2.590422 -0.993350 5.390844 -0.127515 3.481300 -0.559501 3.239525 2.118961 -1.537669 3.890877 1.811687 -0.117684 -0.500015 2.102087 -2.689574 2.515180 1.286121 1.183765 -3.911084 -3.396354 2.473525 -4.287683 4.688852 -0.843724 0.777558 -4.654561 -3.282832 -1.739580 0.665386 0.868788 -0.270304 2.161214 -5.053129 -0.950265 -0.256049 5.826311 -0.423451 1.694171 -6.197011 1.641622 0.475623 -4.366540 -2.516180 -1.571785 0.453847 2.279873 1.965517 1.923851 -1.716004 -0.350529 0.325186 -1.755040 1.717846 -1.947859 -0.272294
及 6.549647 -2.535912 -0.367609 -3.422914 7.823221 -0.945890 1.734344 0.208760 -0.119454 1.258273 -1.011807 -1.280619 -2.407788 -0.525010 -0.680633 0.395676 -0.640827 4.270076 -1.145394 0.505224 -2.081140 0.363961 -0.653505 -3.630589 1.591193 -0.981326 1.604032 1.403177 -2.790093 -2.957428 2.434970 3.832200 -0.973593 2.669994 4.374799 1.000416 -3.500386 0.651819 -0.620449 -0.678503 -2.616641 -2.173010 5.402014 -2.222488 -0.050197 -0.185872 -2.929797 -0.843006 0.944215 2.017598 -0.619945 -2.848953 1.535690 -2.886149 -2.007618 -2.309247 5.037202 0.307158 -0.546698 -0.117523 2.143567 2.734868 1.179988 -4.397598
５ -0.584257 1.361011 1.634799 3.731868 2.731347 2.694926 -1.641470 -2.968552 2.862648 0.973134 0.541991 -5.067793 0.179710 0.765107 -2.075978 3.729604 -0.249165 -0.345639 2.120725 0.498332 2.153992 -0.421525 3.024586 -0.812424 -1.295047 -0.485262 0.840478 -0.991848 0.060333 1.007356 -0.676035 -1.624742 0.083399 2.128418 0.522750 1.039997 0.036244 -2.267616 -0.400987 -0.022703 -0.023029 2.068137 0.086576 -1.722005 1.650208 -1.330408 3.391733 0.244805 -2.808435 -1.277786 -0.414666 -1.894423 0.069958 -1.264952 1.309278 3.229486 2.667044 -3.061803 0.552891 0.960043 -0.246247 2.133206 0.022216 0.282770
元 -4.911904 1.459702 -1.735367 5.639738 -1.111938 6.863294 -1.285992 0.286434 1.764721 -0.531879 0.729511 -2.370837 4.694992 -0.246184 3.675811 0.091734 0.895696 -0.345089 1.972007 -1.364111 -0.615151 4.869726 -0.739074 3.262271 -2.529073 -4.879290 0.661086 -1.916306 2.272092 3.802293 -2.043776 1.186036 -0.467263 -1.761690 10.806919 -4.485474 3.348378 -2.361804 -0.465692 -4.042071 -3.680863 -0.679640 -0.788382 0.418491 3.525488 -0.022569 6.375471 0.869155 -2.956841 2.789470 -8.961926 -1.935036 2.310156 3.876075 0.949415 -2.162852 -0.648546 2.351520 5.991340 0.835127 -2.144349 2.064534 5.296720 2.620581
东 -2.409857 -0.677618 3.704685 1.025385 1.611646 -1.819723 -0.203606 -1.861016 1.275496 4.014291 -3.208711 1.300526 -2.583700 2.656492 -2.989781 -0.364774 -2.565519 0.972473 1.901843 7.504276 -0.757193 -0.046486 -1.389291 -0.900185 2.005906 -5.506723 -6.262209 -3.435076 -2.783204 1.545891 2.131971 2.327755 -3.870651 -5.220420 -2.924221 -4.808593 -2.705897 -4.763855 0.489148 0.899279 -1.104377 5.005636 -2.484228 4.227617 -2.842129 1.878042 0.698866 -2.693771 3.830780 -6.544670 0.823287 -2.167616 -0.572977 -1.272078 -4.884178 -0.692186 1.806643 -7.140439 3.743743 1.511463 -3.082565 -4.842071 -3.495556 -0.726172
份 -0.959991 -1.646288 3.140619 2.456198 2.551648 -1.814313 2.891655 0.061653 6.531569 4.265815 -1.476515 -2.016316 -3.985363 -1.098185 -1.932256 0.000558 4.387092 -2.783389 -1.452995 3.764119 3.895867 0.463377 -6.172719 3.289179 2.453094 -3.512519 -4.584516 -4.525497 -2.121095 6.943416 1.754723 1.037512 -0.973191 0.781076 -0.809762 -4.038567 -4.561473 -0.909179 -4.285091 -1.177925 -0.541654 1.681858 -2.953246 6.684693 -2.387228 3.515522 4.132781 -5.328894 0.108844 -3.238658 1.783582 -0.384351 1.613921 0.207064 -3.357968 1.965709 -0.128261 -3.481746 0.917184 4.728927 -0.885298 -6.202434 -1.823357 -6.836186
合 1.820016 3.095721 1.351011 5.684093 0.769946 -0.204841 7.250450 0.743665 -0.002960 4.394860 0.288173 -1.921614 5.144915 4.740564 7.022439 3.841923 2.702604 2.753334 -0.169814 -0.466812 2.929566 -2.139359 -0.844049 -1.108688 1.827493 -1.016307 2.495679 -0.505826 0.693938 -3.244879 1.832150 -4.361276 -3.137789 0.417525 0.759738 1.875291 3.135319 7.309809 -6.901362 3.973246 8.136271 3.464876 0.546486 3.829284 2.088910 4.132729 2.663529 1.267185 0.540377 4.213981 4.613753 3.701118 3.635339 4.604629 3.724153 -7.776127 1.622646 -0.594274 0.078292 6.063673 4.720371 -4.315249 0.025717 1.544897
月 -5.641970 -4.170166 -2.673520 0.450454 -8.711297 -2.525382 -0.472669 1.449902 6.617482 -7.605329 0.442950 -1.280723 3.624831 -2.020197 -0.737449 -4.725646 1.501999 -0.258917 3.603589 -2.368540 -7.350755 -5.961365 2.227483 5.073112 2.866188 -8.252061 -2.394680 3.860743 2.186473 -1.953146 2.499784 2.455756 -1.058508 2.776150 -3.826770 1.073292 2.778885 -4.819181 2.908333 -7.855590 1.693470 4.212019 4.458652 -1.619829 2.050660 1.992369 3.141156 2.452893 -5.280597 -3.157788 -3.053936 -7.052452 -3.207615 -2.420452 -0.272144 0.425325 0.632205 0.034189 0.074041 4.492165 1.782817 4.830580 2.043213 -3.269618
４ -0.279941 2.102232 1.649985 3.637363 1.995282 2.530583 -0.301412 -2.482969 2.790454 0.764241 0.317883 -5.134521 0.153397 1.258384 -1.292045 3.693801 -0.610783 -0.422695 2.059330 0.412849 2.695425 -0.335658 3.157953 -1.115254 -1.048743 -0.329377 0.564684 -1.156642 -0.041153 0.228411 -1.068192 -2.048188 0.581828 1.748278 0.840137 0.934432 0.280835 -1.751634 -0.066456 0.366056 0.261527 1.614110 0.371742 -1.878015 1.783071 -1.681265 3.225749 0.756782 -3.017190 -1.258795 -0.531411 -1.620027 -0.308877 -1.333469 1.084165 2.482924 1.991411 -3.443176 0.397279 0.958214 -1.038938 2.374060 0.242130 0.109315
９ -0.641748 0.810948 0.851036 2.920613 1.779560 2.606729 -0.880526 -3.056110 3.721435 0.067979 1.631785 -4.332019 0.867940 0.646145 -1.900715 4.297611 -0.645160 -0.707116 3.045189 -0.014038 1.906951 -0.735591 2.418300 -0.965064 -0.981338 -1.019337 0.316182 -0.718579 0.380979 -2.027686 -1.882016 -2.265690 -0.139162 2.145460 -0.192397 0.948716 0.495890 -2.726794 -0.837088 0.063877 0.229462 1.484491 0.704637 -2.109094 2.259193 -1.185969 2.337284 0.919406 -3.706604 -1.955393 -0.581041 -1.577672 0.503566 -1.000378 1.355515 2.951719 2.512028 -2.283265 0.760987 1.382072 -0.437977 3.497050 -0.333206 -0.282183
定 2.665875 -1.710936 0.920261 2.167633 -7.485672 0.210735 5.669441 -1.757063 0.387552 0.197625 -1.111675 -1.874419 -0.267223 -1.149879 3.556632 -0.208444 1.111814 1.223582 3.097672 1.396584 2.634908 3.179583 -1.427930 -1.387193 1.358094 -0.600865 0.953231 3.152723 -1.093947 3.377767 0.709598 0.685637 2.438095 8.367131 3.915864 4.815738 -2.276379 -5.506516 -0.767176 5.804490 2.870878 -4.437027 5.383275 0.639099 1.225142 2.623696 -0.752905 -5.922317 4.821974 1.008778 -0.192391 4.085520 4.805258 -2.944360 -2.944494 0.414772 -6.189436 -4.061149 -1.127010 2.178913 -2.634647 3.680721 4.195740 3.019196
６ -0.451745 1.441105 1.922065 2.949088 1.896861 3.133392 -1.220420 -2.480309 3.000372 1.049738 1.127789 -5.193134 0.473383 0.701194 -2.068309 4.136512 -0.571778 -1.075487 1.989543 1.044981 2.199677 -0.768829 2.908325 -1.145177 -0.907692 -0.502085 0.705516 -0.798908 -0.293591 -0.411587 -1.138976 -2.299708 0.103033 2.252333 0.713249 1.211653 0.635674 -1.872265 -0.552681 -0.064580 0.174761 2.052810 0.680688 -2.196057 1.729162 -1.232064 2.841873 0.764908 -2.995867 -1.239345 -0.846295 -1.990050 -0.685112 -1.104972 1.899441 2.643034 2.191305 -3.535775 0.443373 0.800616 -0.927360 2.562548 -0.180740 0.373148
８ -0.490915 1.125935 1.475306 3.692823 2.276593 2.650226 -1.012675 -2.769371 2.835439 0.471829 1.301977 -4.782679 0.486409 1.145661 -2.300030 3.826402 -0.579930 -0.910255 2.735921 0.646908 2.563148 -1.186786 2.737422 -1.081968 -1.059017 -0.645964 0.566546 -0.618118 -0.363851 -0.663639 -1.155495 -2.166453 0.042892 1.590281 -0.195810 1.348879 0.647469 -1.738612 -0.125929 -0.536235 0.160798 1.772303 0.544493 -2.065341 2.168298 -1.555841 2.819306 0.240311 -3.613698 -0.924239 -0.904064 -1.776938 -0.325969 -0.577493 1.319365 2.158372 2.780046 -2.853534 0.831890 0.367813 -1.000437 3.737299 0.026008 0.097956
债 -2.517898 3.443532 4.081343 -2.340234 -0.919530 0.239214 -1.596418 -0.926171 -1.494780 -0.932354 -10.730125 -5.871511 -1.812449 -3.549155 6.941068 -4.286180 -3.111860 -3.128090 -5.881192 -5.685220 3.500743 6.351128 2.010393 -1.706729 -0.151142 -4.650714 4.433045 0.338688 -2.316715 -0.485051 -0.258246 -0.530134 8.028930 -2.688393 3.620884 3.863577 7.829517 -3.235271 4.088523 3.096586 6.854367 -4.202298 0.165899 0.069085 -1.732304 0.507149 3.129660 0.958605 -2.736362 -1.634451 -3.582394 -0.892852 1.344450 -7.332876 -0.769428 0.745250 0.224891 5.262790 -1.426422 9.904429 3.932118 -1.086183 -2.407568 -3.868636
交 6.780150 -2.817640 -2.247033 -2.570589 -1.451146 2.441483 -4.898471 2.027889 1.804708 -2.412428 -3.763373 -2.075613 1.307267 4.821248 1.991138 7.228482 7.917906 -3.766632 -4.860419 5.737176 -4.348394 1.571419 7.279408 -2.712388 -7.743755 0.629359 -9.632998 2.742776 3.349827 -0.027575 0.147121 -4.786870 -1.689414 2.473745 0.802808 -2.416480 7.038086 -0.191044 4.008474 -2.925105 5.284350 2.366435 7.403478 1.295744 -1.425990 4.393582 -3.253546 -0.239308 1.650435 -1.961383 1.217059 2.402116 -0.513178 -6.621983 -1.156501 -4.538962 -2.940542 -1.678239 -1.448374 0.846648 -5.497138 -9.143206 2.749914 -2.146698
议 2.659711 2.277874 2.383565 -1.137683 -4.732611 5.017501 -0.188391 -4.653439 -5.569645 0.990238 -6.143918 7.135980 1.791880 0.993628 1.134183 7.099870 -3.858492 0.514760 -1.304093 4.075206 1.040129 -1.141913 -0.437193 0.381581 -1.366023 -2.566673 -3.331554 1.012226 -0.457547 2.314427 -3.220479 -0.134811 -6.062751 1.821883 -3.437594 -1.070635 0.515400 -8.258163 5.512785 5.194972 0.045175 2.593745 3.765575 -0.209032 3.964660 -1.400000 0.625756 -2.405726 3.036466 5.903795 2.783977 -6.533238 3.155586 -8.075341 -7.772667 0.029215 -3.401782 3.139709 7.830454 -0.379023 0.798886 2.065766 1.171342 -1.098047
于 0.258387 -2.708911 0.600394 2.341064 3.219274 1.661603 -1.887631 -2.298401 1.518000 0.620924 0.562475 -6.876983 0.555417 2.363765 5.017130 1.967513 -3.623965 -0.805682 0.548846 -1.736770 -5.403013 3.735323 -2.262685 2.483958 -0.758464 2.645760 1.910491 -0.962969 -5.220711 -3.168663 0.002245 1.674929 -4.441412 2.638326 0.039363 -4.959744 -1.170565 -1.546120 -1.124240 0.087943 -5.142264 3.041373 3.791992 -0.280231 -2.206111 3.591254 0.735548 -2.830268 2.784406 1.003833 -0.807865 2.207060 -4.020389 1.685237 -4.482354 0.802425 -9.835026 -0.959882 -1.408498 0.270373 2.578060 0.630123 -4.840603 -4.174778
７ -0.814836 1.419184 1.421953 3.406271 2.368654 3.255314 -0.650462 -2.893793 2.760261 0.525186 0.848280 -5.176270 0.311608 0.651488 -2.014839 3.941481 -0.740479 -0.532870 2.379533 0.457786 2.516504 -0.365474 3.216377 -1.160329 -0.675640 -0.298844 0.799013 -0.861234 0.305070 -0.433002 -1.155930 -2.141586 0.081493 2.193525 0.527942 1.394538 0.635797 -1.878339 -1.041197 0.426985 0.566662 2.061814 0.561449 -2.221961 1.851331 -1.253860 3.240048 0.832862 -3.082294 -0.879226 -0.839414 -2.206691 -0.502211 -1.467602 1.378654 2.406683 2.132480 -3.158770 0.678689 0.997893 -0.764881 2.550112 0.214379 0.018429
权 0.729307 1.012577 1.083006 4.379941 3.729611 -1.037577 5.529164 0.794121 2.028986 2.982641 -0.841847 1.697090 1.577326 1.062028 -2.737294 2.248321 -5.014155 5.260074 -1.425347 -0.263238 2.162505 -0.079564 -5.093762 0.942818 -1.112553 -4.399080 -8.468820 -2.489196 0.633230 7.749475 -3.735199 0.951372 -2.890265 2.414995 0.490054 -1.393215 -2.142624 -0.437366 -3.239513 -0.508253 -1.953362 1.155768 -0.579310 2.455443 -1.621641 3.589744 1.770771 -4.575019 5.423724 -1.558244 3.469157 1.006880 0.205104 1.180787 -2.518584 1.560478 0.050525 -7.123554 2.557798 0.121424 2.290909 4.595490 1.228079 2.174206
对 3.643679 1.734125 1.147630 1.057430 2.531474 -3.554919 0.212120 -3.882414 -3.030904 2.840268 -1.488191 2.843074 0.802827 0.170240 -2.868726 1.442299 3.202501 1.173751 -0.520046 0.116710 -0.708458 3.385356 -1.496997 -0.147890 2.651947 -1.235377 -2.562385 1.022015 -0.799543 -1.434884 0.716227 3.372663 1.600604 0.905664 2.777888 1.029400 4.221420 0.235854 -1.159983 0.252442 2.534548 -0.149960 -0.625770 -3.548928 -1.114985 -1.166074 -0.804142 1.875872 1.116767 -0.586539 -1.689580 -0.971268 3.844321 -1.425527 -2.168000 -1.487513 3.216279 -2.523678 1.800237 3.131872 0.691026 -2.815318 1.039358 -0.798666
集 -4.889787 -5.452370 4.587135 -0.852668 0.417237 -2.977763 1.859208 1.758545 -3.375447 -7.840432 0.949218 3.028100 4.228851 -3.831438 -4.509175 7.276645 3.319659 -1.873307 -4.998224 -1.614083 3.762165 8.771252 3.641336 4.008060 1.264907 4.284700 3.597812 -1.357823 1.373696 0.788556 -2.407497 9.697589 -1.634858 2.581232 -1.155449 4.062388 -3.191296 4.950845 0.140210 -1.765690 -10.247241 5.480901 -1.428462 7.740540 -3.227822 -8.108275 5.424805 -1.421681 -4.109634 0.791369 -0.439407 4.362392 6.156271 -1.492305 2.434527 1.575398 0.583888 -2.842841 -0.543746 -1.954250 -3.121046 -4.060088 -5.466902 -4.475209
计 -2.901864 -3.033812 4.268197 -2.735834 -1.118560 -0.383062 4.146003 -2.554414 -1.588067 0.456548 -1.248547 3.101757 2.210310 2.234045 -7.224380 -1.232401 -6.019608 -1.607838 -0.470822 1.407799 -1.829421 4.399356 4.954184 -1.738011 -2.765683 -0.865177 -8.468776 -4.644638 2.631450 4.096254 -10.334785 -0.273640 -4.442358 -4.453666 0.956753 0.233442 2.778010 -7.971367 3.772141 -2.887005 -4.051843 -6.920953 2.666759 -4.723587 0.860339 -0.212707 2.022090 1.823335 -1.720899 0.674434 -2.361524 -1.159525 -5.063473 -9.019867 -0.695230 2.560539 -0.168913 6.157523 2.006720 -6.812206 -0.693745 4.738158 -1.945855 -8.208898
管 0.133353 1.843037 8.630628 -3.762972 3.831134 -3.915481 10.755240 -1.655333 -1.506813 3.127357 -0.759858 0.089083 -3.871532 3.135290 -1.242358 3.348277 -0.515614 3.823052 0.909024 -3.567256 1.818787 -6.046553 -2.237167 -2.748829 -1.957298 3.431945 0.564385 5.921491 -0.455904 -4.056762 -1.759945 -2.314893 1.132890 2.452226 -2.301465 -5.727309 -2.231767 3.721539 -1.518304 2.075128 1.647468 -1.973563 -1.145731 4.514511 1.509809 1.735668 -0.715317 1.543478 -2.957904 -2.201272 3.787337 9.419071 -0.117025 -5.356428 -2.001710 0.137122 2.952375 5.154671 -1.237596 9.291006 -0.810106 -5.287626 -1.456047 3.760890
利 -4.062877 -0.315220 -3.746140 0.853454 4.715640 4.601856 1.162135 -7.609342 -3.330869 -1.330409 1.661858 -4.166808 6.302512 -3.023016 5.617137 -4.335098 0.580282 -3.089720 -3.791339 3.833561 6.065788 2.896602 -3.324647 -2.223599 -4.189296 -0.037139 -10.392808 -2.805581 -1.974776 -0.654264 -3.376308 2.243951 6.829020 2.131382 -1.922262 -2.089433 6.881932 5.516849 -2.724651 5.695328 -1.523028 -0.821016 -2.936129 -4.142338 -1.292387 -0.903351 -0.048439 0.249491 0.420637 1.952793 -0.843473 4.222006 3.215339 -1.502248 0.088061 1.309593 5.551668 -0.607484 -2.881238 2.506161 -3.552489 2.827526 0.198971 -3.560355
次 4.749285 0.590566 -4.275059 0.388139 3.488586 -1.416827 0.786306 6.201177 -4.537418 -1.995400 -3.503121 -0.032711 4.881425 -5.168440 -2.475096 -2.990078 1.191329 -1.071734 -2.883410 -0.959481 1.154356 4.148090 -2.969580 0.894469 -3.203043 -1.653005 -1.601868 -2.261809 -5.859066 -0.804946 0.710604 5.565003 2.294510 3.111537 0.836538 -4.059380 -3.768513 -7.259490 3.681087 1.286299 4.346898 3.391416 -0.548665 -1.817071 7.346301 -0.582743 7.437752 0.930450 0.015237 -0.057228 -1.086867 -4.415079 -0.904694 -4.625753 2.532735 0.762017 0.016364 1.047904 -0.913450 1.915494 -1.309422 -3.379999 7.492051 -1.610671
不 -0.178869 -1.057594 4.132729 -0.776307 3.957553 -4.267112 -1.906606 2.002989 -2.274356 1.633858 2.563949 0.989282 2.391525 0.459542 2.420766 3.686245 1.426890 -1.549685 0.318793 -2.099971 1.226579 3.330089 -0.731027 -3.188883 -0.008254 -1.706130 0.362133 -1.363764 -5.149208 0.546184 7.214895 -2.941222 -2.346902 -2.704489 -2.594523 0.630942 1.858524 -1.159239 0.630894 0.767392 3.927361 -3.042805 -2.140385 0.050072 -0.504268 1.898460 2.018590 2.359332 4.329247 -1.726373 0.014161 -5.116259 0.470172 -1.753722 -1.308713 2.847357 -2.783205 0.232386 -2.632554 -1.456822 5.894847 0.984444 -0.956587 2.804685
营 0.127900 2.410370 1.693043 2.681659 0.654174 0.269032 0.433456 5.574062 0.919661 -2.444692 1.631263 4.755281 -1.162803 4.772091 -4.167967 -8.850643 5.331824 -5.742017 -1.241658 0.434530 5.254852 3.694270 5.990992 7.409796 4.664166 -3.441909 1.223012 -0.332414 1.614931 -5.000900 -5.275350 -8.531278 -1.341739 2.460074 -1.432368 1.881101 0.456562 3.057182 -1.070869 -2.961091 0.424855 -7.963978 4.102002 -3.387888 -3.941056 -2.399493 -0.593186 -0.686725 -3.664788 -1.574118 -1.918200 5.008308 2.461603 0.986304 -3.553522 1.682276 -2.615850 3.907557 3.081267 -0.817956 -1.314873 9.205475 0.984281 -3.352435
其 -7.167451 1.347473 0.350388 6.070328 -2.754887 1.564020 1.187580 3.651073 -0.956747 -2.420850 -0.762766 2.141047 -1.573427 -1.715411 -2.123160 -0.436021 -3.771002 -2.987061 -3.033824 -5.015026 0.742755 6.367043 0.961125 -0.818315 -7.560711 5.816562 -0.543904 1.792867 -0.515605 5.941195 -1.326300 0.585135 -3.196721 -2.786226 -5.404155 0.397824 -1.454899 4.589891 -2.430538 0.063541 1.700567 5.732847 5.587499 -2.812787 -5.421929 2.847439 0.017039 -2.263333 -6.229825 -0.234586 4.370046 -1.263382 0.813331 0.716403 1.950205 3.978579 -2.511875 -4.669500 3.974212 3.445593 2.438111 -3.645316 -4.292622 6.764750
方 1.772596 -1.100080 6.628383 -0.630956 -3.113875 11.387807 1.899820 3.384001 -0.676957 0.043984 -4.870368 -2.903633 5.127661 1.110787 -0.437824 1.639638 0.149438 -1.346628 -6.059510 1.629305 -1.694757 0.551506 -2.463795 0.990798 0.156690 -0.853581 4.055712 1.713526 -3.934247 7.546955 0.037742 -2.309133 -1.324214 4.914651 2.414971 2.208518 4.374012 -1.809859 1.861176 3.228376 0.730268 3.855286 1.263327 -0.082526 2.541503 -0.615781 -2.820831 -1.999290 4.300505 11.138224 3.679760 0.074698 2.841721 -0.071799 1.472611 2.006642 -0.780589 4.201398 4.700297 -5.204265 -4.365805 0.634396 0.076493 2.313234
项 0.644154 0.293123 2.930476 1.699372 -4.387648 6.274963 1.483329 6.155005 2.449782 2.752708 5.456879 -4.082199 -2.945757 -0.677832 -0.938183 3.910045 3.497799 2.469350 -0.143626 0.535337 2.704314 7.570590 -2.665735 4.533667 5.420410 0.141936 1.220571 0.154133 -9.841333 2.096686 -6.785854 2.985332 1.939701 -0.596046 0.841951 -1.987593 0.816332 0.640242 6.080062 -3.871859 2.628021 0.395314 -0.452047 -3.922942 -2.173163 8.030191 -3.689606 7.625936 -6.281603 5.425760 5.579447 -2.045308 -2.248840 -3.581195 4.109619 -3.989561 1.296972 -0.099801 -7.092236 -6.027283 0.393245 3.672109 3.831669 -0.340331
以 -0.511845 0.895504 0.050245 5.125896 -3.527076 -0.651197 -2.837395 -2.143736 -3.118614 -0.603999 1.638211 1.439950 2.095800 -2.209589 -1.878135 2.164938 4.940300 -1.699512 -2.643238 -1.338611 -1.074276 -0.579354 0.456097 -1.084743 -0.069984 0.692611 0.545988 -1.054364 -3.248286 4.123528 -2.445861 -3.312379 3.666335 -1.401784 -4.375031 1.482138 2.207186 1.481047 2.570518 0.997090 0.910723 -1.041372 -2.129516 1.570571 -2.430227 3.441427 2.671119 3.085325 2.298106 1.798958 -2.207736 3.813329 -0.867237 0.676877 -2.030067 1.287925 0.118240 -3.210962 2.767412 1.782588 1.113767 0.106870 -2.475904 0.033163
法 0.334894 0.889094 -4.433553 -1.964455 1.762677 -5.658469 1.679469 -3.224552 2.113925 -2.861740 -0.085898 3.741995 -0.782509 -1.759279 8.034899 0.730973 2.191613 1.533384 1.437087 2.775633 0.214188 2.468137 2.494614 -1.354394 1.545609 -0.094049 -3.870196 2.205193 1.274989 5.856280 -5.684122 -6.353452 -0.570778 0.814382 4.666351 3.314632 -5.021785 -2.125870 1.346187 7.720722 -1.225192 1.402041 -0.245896 -3.714921 -6.814381 0.008135 -1.236829 -0.993157 -4.283854 -3.146383 -2.190478 -4.247570 -4.982463 -1.246305 0.067899 0.295801 0.466617 -3.072244 -2.078598 3.529648 6.784787 -0.347307 3.259333 0.335824
用 2.620130 4.290917 7.360635 2.032460 -4.848491 -1.092660 4.117868 3.756751 -0.807622 -4.145117 -1.411086 2.948283 0.206152 2.061810 -4.250123 1.950316 5.515366 7.092267 -1.507602 -4.530962 0.122897 -0.092517 6.268274 0.606218 1.622127 3.870595 1.507657 4.868467 3.900066 1.225558 4.643495 -0.056038 1.240425 -2.590304 3.437414 0.683928 4.121759 -1.284668 -0.691833 -7.103181 3.324543 -3.341744 -3.661169 -2.022447 2.065667 -1.620471 -2.035400 -1.584546 -4.230469 1.864298 0.290687 -6.029447 -2.323874 3.676379 -1.140927 -2.387078 5.253415 -1.445446 3.084027 -0.757784 3.600368 1.047565 0.251745 -3.435724
工 4.924745 0.130185 1.436276 -0.069971 -5.100625 -2.149466 0.504622 1.580102 5.377241 0.698164 3.964324 3.360475 2.367171 1.493713 0.186161 -3.170646 -2.164656 3.674049 2.850327 -5.000800 -1.683114 1.232521 1.757787 1.026702 5.836759 3.267901 0.780915 -1.685316 1.939819 -0.792809 2.298090 -4.631004 -6.338760 2.743365 2.916915 -1.250354 -7.423978 2.685982 -3.296241 1.215796 2.090832 -1.328077 -1.292153 7.215955 5.991255 0.466369 -1.764526 2.406558 1.930927 3.081831 1.547123 1.386216 -7.309206 -5.607383 7.963243 2.755957 5.718042 -4.188848 3.541783 0.351881 -1.431746 1.241417 -5.989419 2.499881
易 -2.944080 3.937493 5.850147 1.667902 0.575336 -3.188123 -0.596656 1.331651 -4.413841 7.607778 -0.644081 1.301658 -0.195777 -1.195457 1.054846 -6.583142 -3.570817 -2.208909 6.575142 -4.151854 9.510865 -1.739146 0.690911 1.758647 7.728633 -4.940691 6.043050 -4.194403 -3.690536 -2.162633 -3.345061 3.499020 -4.596918 4.932667 -3.554484 3.626857 -0.476483 -5.500105 1.410457 -3.487953 -3.770119 -2.072334 6.234177 -3.742624 -4.908004 0.859548 5.807595 -2.616718 3.182920 2.980840 -0.116264 -1.756911 -6.802402 4.511414 -0.355288 -1.871202 3.761652 -3.947326 4.001512 4.260668 2.207349 -6.269420 1.654475 1.175892
通 -7.828085 -2.584996 -4.652155 -3.232645 6.121719 -2.850439 1.739777 0.740861 -0.913150 1.309892 2.022898 -0.237202 -3.519120 0.917966 0.589360 7.200634 2.997016 4.652929 4.019883 -0.497501 3.234604 -3.683189 -5.455142 -4.134053 0.542686 -4.108310 6.403846 -4.828047 -1.702908 -0.493923 -2.299320 4.005954 -0.992244 -1.545511 -4.942017 6.350693 4.063008 -6.679653 5.997051 -0.944766 -9.060722 2.196141 -5.083593 -3.765150 -0.343041 0.525101 1.937873 -3.147670 3.163829 4.384459 1.854497 -2.630050 -1.380321 4.911129 -4.543773 0.414809 -3.244300 2.311965 3.219967 1.067956 -0.230844 -8.653392 7.019343 -3.652554
； -0.448267 1.897239 -1.715197 1.378365 0.986160 -1.049344 1.493454 0.503478 1.853834 -1.182121 -1.854999 -2.033665 0.252154 0.631589 0.134997 0.453003 0.074897 1.078255 -3.118324 -0.085098 -2.571150 -1.083995 0.323814 -0.525395 -0.130397 -1.471837 0.876505 -0.177658 0.328230 -2.016681 -1.576840 -1.235536 0.605614 0.385740 1.248078 0.848622 -1.944498 1.989923 -0.517540 -0.901548 -1.973324 0.371660 4.583590 0.167078 2.320147 0.806764 0.872769 1.294035 0.046780 2.396311 0.852917 -0.833506 -1.027003 -2.330841 -1.083828 0.792403 -0.086702 0.061293 -1.702638 -0.574531 4.167055 1.961972 -1.040494 0.528818
所 0.448886 -0.818997 1.016188 -0.439239 4.388992 3.490254 -4.143451 2.583548 1.832701 -0.825301 -1.868936 -0.094970 -1.073556 -6.353334 7.730788 1.187680 -1.273734 -0.422694 -3.690881 2.697964 3.213387 0.790914 -3.472571 -2.683975 0.899135 0.361114 2.718263 -3.981079 -5.454505 2.963875 -3.932677 1.236087 -4.001955 0.563151 0.459548 2.621891 1.757833 -0.285744 0.936563 1.980952 0.902980 -2.815432 3.239172 -0.768125 -1.358767 0.285471 0.500654 -1.960596 1.502319 -2.461353 1.665686 -2.770115 2.973839 -0.066365 2.199294 2.613976 3.149538 -0.597006 -2.663905 2.636442 3.443169 0.052457 3.063968 1.542559
收 -3.515115 2.256450 -2.347624 3.053437 2.494316 6.456966 3.470981 4.253086 -1.860885 7.422394 1.256217 -0.686192 2.722517 -4.939365 0.574668 -2.134619 -3.122116 3.888826 5.290774 -5.562298 -1.748830 -0.114861 0.336530 -5.568847 0.299231 -0.848922 -10.599326 2.916682 -2.154067 2.180079 -6.267221 -1.982721 8.883385 -2.170459 3.446943 -4.402863 5.649689 -3.552833 -6.826283 0.150574 -4.061560 -4.062766 3.574676 -4.739935 -1.241519 1.202729 4.785465 -2.155972 3.866944 -2.929576 3.932915 1.570259 2.760093 -3.791997 -1.954201 -0.754457 3.258503 -3.650369 2.125304 -4.665517 2.213832 -0.000053 -5.440340 -0.302817
重 -1.564378 5.510868 -4.372823 0.947915 0.304174 -4.395770 -0.328512 -3.761065 -2.754959 -0.067796 -0.866912 1.421414 -1.685488 2.504411 1.773335 -1.365240 -5.752914 0.105743 0.885488 -0.176128 0.414597 1.260683 4.208594 -1.621910 -1.359072 -1.030430 -0.345272 -1.034941 -2.537884 -3.438406 3.127541 2.001785 -11.375133 0.682923 5.553593 3.089644 6.328205 -4.614375 1.342364 0.814972 1.768239 8.549140 1.210379 3.388809 -5.164339 2.325502 -2.519743 4.146864 2.263944 -0.769951 0.450485 -0.341497 6.990815 -1.961604 -0.188777 -2.713046 -0.237761 0.254114 -3.994437 -5.573439 -5.510563 -5.494548 -1.402622 0.746415
出 5.212900 3.461726 -0.565693 1.352304 -0.442164 -0.227713 7.334794 -1.398006 2.169769 3.167572 5.152259 6.683748 -1.615356 -2.064624 2.702742 0.936737 0.726985 0.338749 -0.929615 -2.130015 -1.063015 3.400245 -1.443449 -5.514826 -2.737818 2.969424 -1.231792 -1.071670 2.577420 -1.422419 0.443427 -4.243919 0.168428 0.036503 0.326335 5.026536 3.223879 -1.762423 1.894879 -5.359370 1.810968 2.112825 -2.254811 0.820273 3.291128 0.684131 -1.279612 -1.395149 2.090644 5.829833 -3.883530 -1.826089 0.251599 -6.943255 6.453431 -4.039444 -2.951411 -6.416363 0.621106 -0.002313 -4.685080 0.105528 -4.758563 -3.222101
分 3.954733 -5.268591 1.133795 -0.225071 0.851767 2.996743 2.488907 -7.268106 1.995192 -3.416804 1.444333 1.001642 1.926505 5.068585 -5.112304 -4.646107 3.257451 -0.518759 -2.012377 -2.644919 4.088513 -2.071093 -0.039886 -0.193110 -2.765693 0.820632 -3.322078 -5.568020 -1.392987 2.631854 4.688715 -0.949367 1.421116 -1.982521 2.434398 -3.316054 -1.615565 -1.092514 3.872871 2.762106 -1.225371 1.313785 3.694540 -8.791494 -3.779353 -1.352804 -0.324335 4.209716 1.631216 5.657184 3.532139 -1.910728 -1.914738 0.875873 -3.114981 -3.826175 1.338972 4.449967 -1.190402 4.154843 -0.951481 -2.877310 -6.898402 0.117076
任 5.922107 2.926091 -1.544775 -2.490565 -2.711129 -0.181111 0.942812 -7.545793 6.545698 2.490079 -0.159980 8.842614 -0.502393 -6.677706 -3.132612 0.627877 -1.047551 -1.909319 -6.323315 0.343598 4.087609 -4.727861 -7.289710 2.701321 -0.659296 7.791844 3.209531 1.276014 1.143206 0.371621 -4.977468 0.568746 -1.861192 4.316651 3.858936 -1.060554 -2.910532 -1.503663 -10.078540 -2.996950 -5.412041 1.788285 0.521453 -3.453532 2.464891 3.226860 3.682664 8.843493 1.926467 -5.758576 1.533655 -2.523695 -0.781848 3.166352 1.158692 2.287422 -2.257444 2.697861 1.444315 5.893999 -7.698876 2.336967 2.876949 -2.657343
万 -5.689423 4.804545 5.575619 -0.406325 -1.473505 1.081869 0.975699 -2.641313 0.404403 -3.933146 0.606716 -5.312316 -0.877381 -3.263733 -3.437676 -1.023341 5.129589 3.131501 3.919684 7.017761 3.530801 -3.040740 1.300188 0.980803 -0.115962 -1.399802 -5.216785 -4.631115 0.534930 -1.606537 4.493240 0.549125 1.682430 -3.783041 -5.160555 -0.410134 -1.695621 -1.697236 -4.492591 -4.189265 2.742548 3.327859 1.711516 0.744381 -2.044304 -5.603595 5.993389 -0.709574 -3.414938 -0.081319 2.025494 -2.283415 -2.608656 -8.555331 -2.143521 -4.832393 -3.375925 0.018565 -1.690971 0.169697 3.153941 1.620034 -0.389190 3.561488
成 1.290557 2.232143 -0.921653 0.372467 3.250395 2.233362 1.411307 0.223519 -5.499632 7.527702 2.473148 -4.195128 -0.876576 -5.978815 -5.483910 -5.879076 -0.353145 0.318904 -2.193660 -7.661898 -6.473395 1.545984 0.942841 1.026374 -1.673383 6.533199 1.552840 -2.180378 0.755561 -4.908422 1.752234 -0.206548 -5.810860 0.709393 -4.631469 -3.163704 0.366052 -7.640309 3.326867 4.625499 0.447386 -0.053489 -1.768700 2.093664 1.252686 -0.988383 4.735886 0.710688 0.184891 2.068261 -0.991644 0.489233 -3.276877 -0.042714 1.481860 1.556752 2.177203 1.168247 -6.986107 0.287203 -4.907855 1.881103 6.132559 4.951559
董 -0.268115 -2.369052 3.220515 2.853522 -6.349099 -1.468408 -0.154495 3.421448 1.301685 3.421561 3.783127 0.581236 -3.593087 -0.964187 3.661984 3.888456 3.063978 2.269562 -7.101343 1.022304 3.776288 4.640715 -1.110088 6.626964 5.931799 -2.499231 -2.213922 -1.870252 -7.141393 0.005102 -9.604942 -2.521355 -4.198046 -6.560726 -3.049575 -5.125495 -5.263770 -3.966589 6.461761 0.708349 -1.803428 5.418066 -2.257896 0.246985 2.657167 7.853724 2.221129 0.864801 -1.071436 -3.926999 -0.842212 -11.194872 5.384189 -2.206862 -3.643268 1.402586 2.823977 3.616317 1.176743 -3.427599 -2.324692 5.942843 1.731986 0.370691
% -5.519925 2.575361 -3.013863 -1.720660 -0.924449 3.767077 0.162399 0.588983 -1.455642 -3.075693 -0.953143 0.494837 1.212525 -3.969298 1.786747 -4.677832 0.819228 3.639050 -0.870851 1.883082 2.473267 1.074687 -4.266384 2.993444 1.272697 -5.146082 -2.877427 -0.651841 2.952616 3.876029 5.177990 2.225446 -1.754456 -7.181830 0.465227 -3.918097 2.041259 2.425771 -1.842707 -2.185997 -0.112170 -0.594017 -1.262663 -2.107921 1.900230 -1.936138 3.460028 0.654772 -2.156260 -0.737538 -3.309500 -0.636761 0.508226 -1.282989 -2.552870 -1.715706 -3.505794 -0.764326 -3.311487 1.488244 -1.455985 -1.580621 1.580675 -0.230813
》 6.779845 3.109710 -0.828605 0.142888 -5.506381 -0.407434 0.121443 -2.268976 1.897979 2.098188 -7.534119 -1.184445 3.800645 -0.114355 9.763553 2.112734 0.442202 0.449137 -0.046023 0.480593 1.915469 -1.045188 -5.159838 0.606600 -2.656160 -1.505893 3.668729 2.479105 -1.709795 -2.034031 -3.618293 -1.939522 -6.422418 1.755226 -0.720017 0.608601 0.845589 -3.877515 0.741561 0.334490 -2.945269 -0.312537 1.189790 2.628599 -3.599179 -1.285594 -0.231961 1.469520 -1.618058 3.134902 3.405102 5.111053 2.361795 3.662215 0.858853 2.215144 2.805634 1.178752 1.045769 -2.908932 3.815911 -0.464015 1.818584 -1.819467
《 0.535758 -4.509509 -4.411074 0.114756 -6.426006 -4.687806 3.791304 -3.476480 2.766706 -0.403110 -3.105497 2.392112 -0.338466 0.068803 -0.739958 1.859859 2.042330 2.220944 4.014483 -0.590659 2.507361 0.588092 -2.140857 0.052290 0.347090 2.368892 -0.419702 4.954128 -0.753523 -1.761590 -2.632907 2.010955 -3.447178 -0.152382 -1.772065 -3.154389 1.281004 -2.659173 5.578024 1.687950 0.743150 -0.573071 0.722536 -2.988079 3.218131 -1.654291 1.301844 -1.791141 -5.047934 -1.302127 -1.100153 4.272867 0.257858 -4.579013 -0.642848 -5.642966 0.611731 -0.733402 3.040684 5.572634 2.322560 -0.946227 1.821330 -4.332127
持 0.328216 4.848127 0.175874 -1.609275 3.826715 1.653217 3.325536 -1.849900 -3.874596 4.919402 2.861043 4.620604 -7.451453 -0.199095 0.491528 -6.742416 1.653536 5.808206 -5.794126 3.218983 -0.822862 0.935441 1.176757 -0.145147 1.534377 -6.766128 -3.075037 -2.376729 2.430573 7.168876 -1.688080 3.236163 5.183473 3.924631 -4.284644 -0.086844 -0.365298 -1.418730 -0.096419 -0.596851 0.682400 3.301962 -0.654353 1.959211 -0.115615 1.378302 1.078577 -4.212588 -1.312598 -0.659555 0.134092 3.812955 2.983100 4.045342 1.259656 -1.063792 4.122936 -2.169797 -0.702961 8.517936 -4.224696 3.566959 -1.663060 -4.427915
现 -5.380362 -9.429036 5.932014 -0.874731 -1.260764 4.548359 0.046233 1.083122 -6.952547 -7.666784 2.839509 -4.702555 -1.027460 2.990282 2.209058 -3.287180 0.557987 -0.943182 1.758807 -1.911576 -0.387267 4.317466 5.850203 -2.712309 -3.434688 -3.819335 -0.732908 -3.571291 -0.745474 0.625162 0.935384 -0.152063 1.649112 -1.936189 -2.146613 0.917546 1.748557 -1.693696 1.200317 1.727983 -1.708875 -0.438693 1.871326 4.242125 -0.338035 0.635274 -4.432669 -4.029923 0.209708 -3.726599 2.425426 0.596766 4.539554 1.135894 -0.793690 -3.772684 4.151855 -4.791402 -0.237713 -0.380706 7.733258 0.404127 2.565328 -2.283488
保 -2.692936 0.204536 -2.879267 -3.666725 -0.275440 -5.998284 -1.345382 2.725698 4.813238 0.112266 -5.238370 -1.105374 9.413016 -2.493199 -5.891905 3.697270 4.562908 4.740671 -0.318236 0.733734 9.342999 -2.364630 0.234334 2.995882 -4.811244 7.853194 3.272678 1.412352 -1.584589 1.440113 -2.550452 -0.584545 -5.235687 4.256813 0.813335 -2.117362 -3.970537 -2.775116 -9.805257 -0.948909 -0.623312 -6.132588 2.008026 -0.053575 -5.302423 2.436473 -4.049258 1.593135 4.030437 -4.243299 -1.653269 -1.549640 2.446474 -3.588422 -3.201760 -3.375662 2.797113 -0.090433 0.247647 -1.031907 -0.031073 1.581752 2.805347 4.239772
票 3.104377 -1.283836 0.826183 1.169976 -0.275698 1.043172 -1.111886 0.418684 2.711110 1.893990 -5.676364 -4.948499 3.256198 2.077546 -1.861530 -0.505188 1.042486 0.586363 1.796188 2.021696 0.912285 0.553805 -2.138324 2.288789 -0.653200 -10.003030 -5.639217 -3.909881 0.644375 10.048810 3.014891 2.398391 1.767027 0.523042 -0.401012 1.398710 -3.604818 0.094483 3.532845 -3.878736 5.310763 2.784779 -2.179634 -0.947378 2.101408 1.333238 2.992493 -3.544734 4.667729 0.821966 -0.585537 1.952047 -6.972421 -1.442209 -1.804574 -1.904390 -1.597191 -2.127056 4.209047 4.763473 2.682782 -1.217037 5.059364 -3.854979
生 2.640579 -7.383505 0.023769 0.630414 -2.764310 -1.377460 4.686079 1.393883 1.591501 -1.669401 0.390701 -1.268581 -3.598289 1.526971 -5.662502 -1.957882 -0.580107 -1.620031 -3.683050 -4.302390 2.730451 3.883361 2.272697 -6.646038 -0.369631 -0.115616 -0.586601 -1.757005 -4.934056 -2.417690 5.351851 -0.751007 -2.160949 -1.083647 2.966243 2.331798 1.193986 1.827184 -1.790462 0.239154 0.804675 1.586820 -0.372716 0.332350 5.445334 0.001724 1.265368 3.200817 -1.620729 -10.089544 -1.619694 1.695022 2.219537 3.237193 -1.254293 -0.188391 -4.856938 0.161968 2.065878 -1.522807 -1.865556 -0.791056 2.887602 1.147367
实 7.586461 -0.061023 -3.990380 2.244361 2.030379 -1.110995 -0.511627 0.379616 -0.839865 7.614794 -0.050520 2.751992 5.717486 -8.111158 0.773872 2.836850 3.347879 2.939036 1.970337 1.128963 1.457197 -2.300625 0.373472 -2.163657 4.332945 0.101036 -1.219278 -1.472304 -3.817581 0.118673 2.763615 -0.927424 -3.824845 3.480672 -1.054863 3.101558 -3.991891 4.075661 0.339365 4.053217 3.566514 -2.364781 -2.328513 -2.249016 -5.261070 3.693726 1.626030 5.938159 -1.790432 1.910807 -2.012203 -2.404207 -3.230306 -1.708412 1.799910 1.939514 -3.254394 6.569393 6.972822 1.236176 -12.250105 4.397703 -3.429190 -0.945485
总 2.131335 0.465930 3.303922 4.124197 0.962082 0.689488 9.734477 -0.344272 -1.255062 -5.677231 1.489400 -6.917791 -3.100748 3.045815 -4.472979 -4.812953 3.794336 1.195277 -1.681159 -1.600982 2.298628 -2.680990 -4.811202 1.128415 -0.881621 -6.088640 3.546518 -4.237968 2.265306 -4.807675 -1.883915 -2.895351 -0.343199 4.415775 0.028237 -2.035180 -4.342596 -1.449905 -3.830711 -5.677005 1.503511 -0.752249 1.453866 1.943432 -3.192300 2.571344 4.923903 -2.117493 -1.626668 -2.396565 -0.074891 3.066024 2.769567 -2.979613 -0.603743 1.768933 1.332364 4.221317 -0.114581 1.867255 -6.114936 -2.421276 -2.484095 -0.984375
主 -2.126191 1.398154 -5.284848 0.848471 -0.538040 1.472329 -1.132700 -3.429362 -2.972687 -3.896061 4.496062 -2.359960 -1.367282 0.588160 1.767896 -0.859560 -1.779595 6.065718 -1.214429 -3.007035 -5.370875 -0.707304 3.660903 -0.772528 1.961353 -3.275143 6.045589 -0.077789 -0.655016 -5.179664 2.145777 -5.164294 -1.347157 -7.257004 5.848499 2.230400 1.230113 -1.674534 -0.259229 3.432548 5.019457 3.268058 4.765614 1.904322 -9.196332 0.713145 0.433026 -4.929240 -1.474542 0.424359 0.628716 -5.677954 1.966587 -0.499625 1.465746 3.898301 3.350733 4.226728 1.505477 -7.330130 -1.240988 -5.959714 0.153853 1.082956
下 -0.569645 -2.340836 -0.096393 -2.298710 -0.555481 1.115579 3.642353 2.711201 3.116975 -3.514775 -2.061591 3.812891 -2.315072 -2.610325 0.912689 2.456553 -5.345330 -4.120022 1.476034 4.117716 -3.548798 2.088281 -0.634973 0.308021 -6.430624 -4.173580 0.426190 0.042021 3.972851 -2.618617 6.025026 0.058638 0.512583 4.978148 5.119891 2.331954 -2.846479 -2.591226 -2.157527 2.932779 1.224715 -1.656704 2.106270 -1.127420 -1.066742 -5.066791 1.957305 -6.107583 7.936394 -0.009740 6.203339 -0.514394 -2.126705 0.983603 1.217610 0.965799 1.351648 2.491943 0.287651 1.620694 1.513943 1.864841 0.128088 -1.043629
规 3.175366 3.806422 -1.806813 -5.580847 1.422998 -4.443423 2.977265 -2.844170 -5.803638 1.475032 -4.918233 4.385829 -0.625810 6.096243 -1.480327 -0.561625 -2.323412 -1.069417 -0.284757 -0.430555 0.785272 4.057053 6.367715 -0.929426 -3.283534 -1.158789 -3.862920 2.921319 -4.530330 0.958146 -3.826345 -4.015180 -7.554618 -3.754957 -4.767025 -6.501187 -0.418805 0.500932 3.176333 -1.092175 -3.135778 -0.020975 -3.557836 -6.388053 -8.279285 -1.423657 4.756400 -0.319207 -3.506332 -0.455574 3.609635 1.995581 -7.228539 -0.656123 3.704854 -1.183777 2.367645 4.695586 0.271905 0.480615 4.943637 1.075551 3.714828 -4.207937
报 5.269392 -2.838207 4.623464 -4.691661 0.816092 -1.535949 -2.802644 -1.991963 0.754546 -5.789886 -2.032354 5.858276 5.873705 -9.403968 1.770549 5.386367 -4.885008 0.881363 4.700562 -1.851564 -0.956983 -0.474069 3.028069 4.374056 -3.956260 -5.962769 -1.555754 2.929039 -1.319939 -2.663666 -9.244941 -1.712744 0.546901 3.051334 5.801109 3.425623 -1.190504 -1.082704 5.470195 -2.197499 -1.554895 0.513392 -2.067933 1.776356 -2.842361 2.587876 -1.451782 1.261115 -1.200777 1.300196 -1.368360 0.544863 3.185169 0.512197 -7.781466 1.484602 1.069959 -3.110154 -6.288621 3.732636 1.260902 -0.305795 -3.023653 1.810911
设 6.317459 1.741123 -2.799320 -0.996967 0.382830 3.836673 -1.162484 3.036902 -0.728513 2.361250 4.551481 -5.722959 -0.473683 -1.732288 3.400142 2.835846 4.023457 0.979460 2.380875 -2.675346 1.469323 -4.299778 2.609810 3.458087 3.331169 4.743042 -2.578692 3.011600 -3.963512 -2.290004 2.445165 2.592079 -4.607631 0.173816 -1.055986 4.204453 -8.888507 7.471828 -0.890578 2.603272 5.850883 1.617446 -4.448556 4.519740 -3.239917 -6.083365 2.478226 2.006706 -0.734865 3.392183 2.683414 -2.829197 -2.865371 1.916372 0.695055 3.303003 -1.672747 4.627867 -4.308671 8.228251 -1.562292 -0.261086 -1.851929 0.868344
内 5.599038 -3.587480 1.078339 -1.938294 -2.309057 2.688071 -0.313421 -2.185497 5.386654 1.769649 1.288028 5.382168 0.870930 2.974678 -1.737954 -0.039731 2.765074 0.447978 1.524364 -3.590332 1.823066 -0.640607 -2.431745 -0.378390 0.951015 -2.362779 -0.875603 -3.450998 -0.581498 -0.583779 3.123245 -2.812845 1.877429 0.465785 1.299019 0.981005 4.263076 -6.363776 -1.809906 3.923185 -2.592400 1.353920 7.236708 -0.327584 -0.142178 -3.045597 -4.611978 0.818452 1.733968 3.553880 0.866747 -0.442364 -2.053928 1.994643 -0.471325 2.339781 2.539439 2.304348 -6.673363 2.521539 2.589756 1.131009 -5.723422 0.410406
团 -3.188494 5.515096 -6.494042 3.680546 3.918318 8.329397 2.290864 -0.315469 9.190989 6.928361 0.428083 2.050092 -11.664271 1.605048 5.029454 -5.620762 3.156745 -2.344228 0.474473 2.537807 -1.842456 -9.995349 -2.760706 2.609269 0.081174 2.303530 1.969442 -2.246186 1.608327 3.051892 4.659622 -4.857530 -3.778633 -5.433212 0.600665 -6.676078 -2.323042 -5.501642 -2.633046 4.612457 8.181171 -0.365577 -0.042498 0.683011 2.221274 8.784865 0.449955 3.053352 4.227800 -3.026976 4.430633 -2.948536 -2.279079 2.037010 -2.913240 0.717030 6.386810 4.719155 1.731496 -0.436952 4.902886 1.880464 -1.669595 -4.505125
开 4.378821 -1.493267 2.272609 2.698151 -5.118059 1.117585 4.103891 -2.334003 1.020091 3.390363 -5.957916 0.764725 -0.423805 -0.319151 -3.799085 -2.413268 2.436181 -3.924301 -5.889414 -4.227943 -3.569479 1.254125 -0.249805 1.605765 1.050739 5.748271 -5.875223 -1.983889 -3.974304 -3.960896 0.741149 2.525651 1.172566 -1.015156 -0.995583 3.687755 0.535900 0.198846 -1.124409 -2.411900 -2.987088 2.945387 -1.054800 1.651116 2.025077 -5.782483 1.558586 -6.074775 -0.193955 -2.489946 3.495896 -0.714208 3.613498 1.933223 0.573122 -2.340244 -0.638971 -0.861749 -3.746730 -0.415474 1.123845 -3.408324 2.914887 -3.949929
信 -1.782746 0.760369 3.049372 -3.752544 5.361239 -6.132957 -1.118815 -7.171061 3.764804 2.645160 -0.823373 -5.197205 -0.344995 -2.834528 -1.738448 -1.409546 -0.657362 -4.886396 -2.002536 3.512249 7.026340 1.926644 -5.012865 -0.029416 -4.517682 6.091383 -7.602922 3.422186 -2.700087 -3.479280 -6.906285 -2.187320 0.318564 -2.606213 -1.007424 -0.247606 -0.310104 8.076856 1.534724 2.645530 2.358238 2.073876 2.824007 4.081952 -1.802838 -1.898888 -2.912344 -1.027793 2.214088 1.438933 1.758360 6.510766 -1.370788 -3.756033 -0.276991 2.483888 2.856576 5.163596 -1.437317 -0.506725 -2.858023 3.187797 -5.530178 0.515578
建 -5.207849 -0.299013 -1.480901 -3.753782 -3.154906 -1.044694 3.489488 -2.400805 3.480930 3.012117 -2.563773 -4.565859 -3.171295 6.843315 -2.091197 -6.855718 0.673014 -2.410143 2.145302 -6.791474 -4.823229 0.698302 3.705042 4.494444 2.371169 4.880425 0.935180 1.279944 1.203614 3.834828 -5.079234 0.370990 -0.226475 -0.968092 2.389438 1.588105 5.239605 -5.775929 -2.770474 -3.248494 -2.467472 0.515497 -3.503675 -0.443752 2.442914 -1.127813 0.423086 1.420480 3.863028 -0.913107 0.046328 5.560923 0.322993 -4.746382 0.220674 -1.937186 6.193195 -0.290831 -1.092931 -5.935186 0.609141 -3.030787 1.487027 -0.811907
目 0.400384 3.476182 -2.650078 -3.072354 5.049558 -1.018730 0.114282 -3.002540 -6.005943 -5.254277 -1.854095 2.386794 4.698431 3.341523 -2.484906 -3.248776 -3.602407 -6.180428 4.487329 -5.447497 -2.576641 -7.299158 6.778382 -2.106542 -5.858834 0.879106 -3.667514 1.243731 7.471875 -2.295389 6.411246 2.272824 -2.132651 3.257390 -0.154148 7.698207 -0.109429 -3.389515 -6.171562 4.298893 -0.414853 -2.384742 -0.622625 4.133356 -1.755830 -6.791287 6.213344 -0.225208 6.875694 -1.289081 -1.911419 4.921216 -3.550072 0.726665 -3.534587 3.055487 -2.141465 -0.316523 7.018161 3.864771 3.804061 0.267783 -2.460076 -0.169505
能 2.131444 -4.848872 -1.434477 0.729112 2.311808 -1.349365 2.628538 -0.144724 -3.340410 4.085527 -3.803024 -0.292125 1.981179 0.494286 -1.457409 -1.013965 2.989236 1.508341 -2.774527 -2.974277 -4.508050 2.472706 5.286992 -1.203142 0.610592 3.180430 4.685549 -3.935217 -4.595821 5.445594 -1.008008 -1.472162 4.328403 1.802927 0.834209 2.468694 0.806069 0.187391 -1.838680 0.032678 3.011987 -0.765594 -3.746624 3.501900 2.070651 3.701903 1.491272 1.960548 0.346287 -1.428586 -1.095683 1.486142 -4.446574 6.516754 -7.725762 2.072330 -0.494706 -2.028925 -1.161711 0.732034 -8.099645 0.584649 -4.055190 0.054107
- -2.135529 -3.359954 -1.224296 1.572954 0.948307 0.815132 1.178547 0.746196 1.200017 -1.999968 2.366441 -0.679237 2.038201 -4.531525 0.217101 -1.599024 -2.029374 -3.178154 -1.227176 3.970715 0.362788 -2.804448 -2.993562 0.102807 1.658370 -5.387007 -2.256554 3.910352 0.756042 -2.818624 -0.338109 0.955064 -1.749873 -4.271294 0.399363 0.064224 -0.737992 3.366142 -2.987579 -4.873145 -5.076065 -3.175186 3.180979 4.040343 0.321105 -0.235926 1.233267 0.330683 -2.003401 1.802139 0.515549 -0.918883 -3.329992 1.140583 0.903778 -2.744854 -1.101657 1.548603 -1.839531 0.464159 0.834569 1.174160 -0.221607 0.895946
部 -6.580522 5.310485 -0.132554 -2.179057 3.458255 -0.391704 2.023863 0.667846 -5.185315 3.982015 -2.247450 0.061208 -1.321517 -0.699106 2.106309 3.846477 -4.020339 -1.416143 -1.603862 -4.575151 -4.966017 -1.025159 0.164825 4.264537 2.637460 2.829064 0.220700 3.614455 -5.022377 -1.583371 -2.961174 -0.374924 -4.781126 1.687895 2.547061 1.146140 -2.520702 5.018710 1.209092 -1.069700 0.743906 -6.378274 -0.401742 1.561308 1.297988 5.061396 -2.880867 1.023772 -1.476241 -4.996010 -3.013000 -2.194116 4.790062 0.038075 1.469677 3.715316 -1.343576 -7.995263 1.577145 -1.631084 -1.657804 -0.275176 4.209995 -2.944965
地 -2.124352 -1.686782 1.498484 1.755398 1.522551 0.216250 -2.414186 1.170413 3.939720 0.447605 2.791087 1.582760 -3.938532 5.192581 1.929959 1.505864 0.527516 1.102943 0.233096 -0.733567 -1.131622 -4.056226 2.851164 -0.883233 -0.688500 5.310665 -6.838081 -4.732093 -4.204731 -0.221094 1.190105 -2.057548 0.895626 -3.000146 2.843457 4.320788 0.165655 4.611478 2.374799 -0.509729 -2.530346 1.280178 1.768170 1.673704 -3.816133 -0.968909 -2.567336 5.378349 0.275238 -3.575691 1.137524 8.428006 1.399567 2.228635 -2.861536 -2.610081 -3.561231 -0.146568 1.367118 -1.589831 -2.798500 2.810043 5.437322 7.122686
基 -4.014471 -4.283057 1.898782 -2.886241 2.080701 -4.332991 -1.545855 3.814373 -6.148868 -3.718306 -3.407605 -1.864996 3.268189 0.873961 -3.601358 -0.905607 5.314992 3.626042 -3.806152 -1.594816 3.283450 0.295593 3.225138 3.938735 4.411662 -0.560177 -4.068256 3.659011 2.323536 0.474468 -0.518996 2.801815 -0.425587 4.454425 2.574749 2.073506 2.445158 -1.831397 6.089351 4.535190 2.824039 -2.340889 -0.881603 3.194841 3.204936 0.999255 3.917829 -0.164689 -2.974425 0.179865 -2.509532 -2.307147 -0.036022 -3.259257 5.154096 -6.178452 5.554410 2.612393 -0.462065 -3.002155 4.468148 -0.619333 -2.167089 0.960522
要 4.927334 -0.430062 0.734013 -6.147512 1.993533 0.747354 2.183039 0.631871 2.563836 0.539976 0.165348 9.997598 -3.977733 -1.126616 -0.676952 0.621194 0.887943 -4.677791 2.085968 -1.636893 3.669689 2.047817 0.420613 6.823259 -0.997838 1.216458 0.357302 -1.682446 -6.584435 2.567724 -3.046707 3.834176 5.674573 5.089380 -4.614816 -4.933237 1.447123 4.664231 -3.677834 0.677606 2.007844 -9.182309 -0.713560 -1.734027 7.201672 -1.342351 -2.418946 3.122629 -1.715179 2.338175 -0.013823 4.417836 -2.508065 -0.160919 -1.419623 0.838616 -3.276248 -3.188511 1.420216 5.420986 4.578969 5.452083 0.874996 4.284256
同 3.644434 -6.490008 -1.253428 -3.150061 2.492739 3.806533 -5.624061 -5.521078 0.791901 2.426354 -5.942799 4.718889 -4.040174 -4.161200 -3.381666 -1.054925 -3.898864 7.973860 0.712472 0.381788 -0.884101 7.335477 2.310024 -0.111727 2.018413 2.006159 -2.306712 2.208036 3.658201 2.926081 -1.466326 4.811318 0.211373 1.934725 -0.447662 1.712292 -0.161181 -5.740609 2.848523 -1.139503 -1.126787 -1.806573 1.497279 -6.831274 -1.793981 -2.581214 -0.590471 1.852937 -1.555937 3.762426 -3.034624 0.940561 -1.465859 -3.013130 -3.320813 2.646878 -1.919598 -0.094987 1.577179 -0.356097 -2.778498 2.362518 0.883623 0.511997
额 -6.362258 0.951568 1.542328 -1.972838 1.122040 6.010119 -3.711543 -0.587659 -5.042798 1.313441 -2.386532 -2.090987 1.912751 -6.234082 -0.679885 1.767657 0.570009 1.435378 -0.127441 -5.010672 3.191758 0.760162 6.861855 3.460779 -8.234797 -3.029542 -7.873477 -6.014793 -0.093261 2.913500 2.412200 -0.443571 -1.295038 -4.692137 2.153575 0.898907 2.463930 -0.204547 1.775470 0.897176 -2.169317 -4.472981 4.074430 0.545137 2.910812 2.160908 2.158559 2.886843 -3.755145 2.034831 -1.564239 -5.918161 2.899807 -0.228083 4.024700 -4.997438 1.689433 -4.252035 0.942881 -2.575550 7.116666 3.973541 -3.879589 2.081171
告 2.995393 -1.460447 -9.197753 2.190770 -9.257588 -5.099925 -0.925550 -4.230083 -3.038860 4.164540 1.860928 2.220939 1.811759 3.088958 -1.783949 2.363694 -3.023352 -0.202635 -1.122812 0.476675 3.063208 -0.046351 -7.957228 1.015649 -5.786039 0.455613 1.006014 1.799395 1.112985 -5.241475 2.284681 9.271106 0.999772 -0.277127 -2.966148 2.154607 1.833442 -0.315405 2.959299 4.026109 5.640472 -2.570853 6.581103 1.714897 0.440641 2.681627 8.698581 -2.841245 -4.684391 -1.999261 3.191290 -3.065921 -1.880232 1.363896 2.076209 -0.792903 0.218305 -5.104179 2.345726 -1.617285 1.818551 1.378646 -0.457316 -5.109906
购 7.684307 5.722479 10.062200 -1.049424 0.797312 5.018865 -3.572666 -1.640294 -3.867377 -9.647455 -5.635008 4.743576 -4.507608 -2.301265 -3.459095 6.550367 4.493179 -0.692204 -0.304754 -1.497002 2.088353 5.173000 0.306637 1.222723 0.748457 -4.698822 2.105359 -3.524444 4.189348 -0.437202 5.048640 -4.163555 -3.942645 3.987343 3.584322 4.218965 -7.250954 2.731746 6.553653 -0.371820 1.279576 3.476871 0.719479 3.821324 -3.241388 -0.866847 0.058882 1.851178 -2.526163 3.593721 -5.326029 -1.452860 1.259593 5.048616 1.015096 -6.585814 -3.291036 -1.371495 -2.017386 6.290550 -0.502821 -3.673346 3.611469 -0.709666
了 3.677525 -1.335323 0.153256 -0.411984 2.131189 -1.136052 -0.826830 -0.576331 -0.563872 1.289656 -0.190171 -0.650832 1.443830 1.197231 0.710983 1.305035 0.585154 -0.133753 0.618475 0.003207 -6.611216 -0.528616 -0.216273 0.948878 -0.343740 1.568233 0.301223 0.766510 -4.163723 -0.798186 0.171789 -0.469571 0.666791 1.828498 -2.606541 1.230917 -1.284939 -0.579574 -1.153365 1.124951 1.584193 1.728651 -1.537187 -0.793207 1.188279 -0.392138 -2.569561 3.491665 3.581449 2.288466 -0.271394 -1.159963 -0.787103 1.975634 0.556524 -1.279052 -1.475763 2.310498 -2.629113 -2.721014 4.071723 1.277079 -1.072167 -2.072035
与 3.610734 -0.997621 1.182070 1.173700 4.087988 -0.490184 -2.169628 -1.506627 0.072273 4.131157 0.223205 1.118379 -0.476340 0.558009 -1.504886 0.102585 1.205601 1.440392 -2.624111 0.933990 -1.571064 1.772418 -1.839269 -0.471948 2.049336 1.985281 3.485368 0.161136 -1.092221 -1.465783 -0.208986 2.828270 0.083079 1.157931 0.723767 0.511502 -0.371170 0.564598 -0.242757 0.810515 0.053315 1.375393 2.732595 0.122838 -0.039902 1.428519 0.330424 1.171523 1.173619 -0.701449 -0.272428 0.154996 1.585218 -1.051553 -0.062323 -0.079735 -0.203389 0.266653 -0.031904 0.658660 1.046414 -2.877496 1.376984 -3.604474
表 2.134888 1.243505 -1.337203 1.516874 -6.348467 2.671479 -0.538748 -4.301227 -8.276875 5.208452 4.549648 -1.656779 -0.890478 -1.213754 -3.570749 0.574306 -4.034023 -1.076097 -6.788990 7.481777 6.234510 2.087125 -2.411388 -5.351182 -0.738033 -5.091600 1.659305 0.919873 1.527215 2.213504 -1.078427 3.773464 -4.786644 -1.854310 -0.748958 3.079264 -2.241916 -0.604829 1.119718 1.312621 3.074057 3.811133 3.731824 -4.495655 1.546349 -2.566335 0.244082 -3.634377 0.379688 -2.467985 0.560518 0.908984 3.025514 0.188276 3.923426 0.017226 -6.685194 -0.936740 7.372334 -4.782538 7.159376 2.479235 0.862964 -4.570818
动 -1.095063 -7.827716 -6.929815 3.079490 5.396699 -1.416180 0.863659 7.086669 -2.709469 4.182951 6.265513 -2.083905 -0.610754 0.002444 -0.920198 -2.092770 0.982288 -1.163120 1.724997 -4.653177 6.563487 7.864064 6.701284 -4.622898 -0.627271 -4.786983 0.601593 -1.257842 -2.697833 1.642033 -2.703331 -0.286304 -0.390406 -1.554083 5.656955 3.317926 3.558291 3.356944 3.487588 -6.028555 -1.458312 1.552261 -3.234909 -0.968391 1.114168 -1.749005 -3.462658 -5.985348 0.070452 0.084004 1.979569 1.239798 3.573642 1.123762 -4.299618 -0.144402 -2.218326 0.892585 -3.076869 3.998666 -0.717100 1.351937 -0.417582 -0.140919
价 3.123703 4.169173 3.737437 0.088590 -0.836099 -1.768926 -1.378458 -1.100975 1.776591 2.180222 -3.034582 -2.288907 -0.612300 -1.181950 2.581100 -3.347009 -2.647303 4.210617 0.724767 -2.499346 1.225666 -1.494032 -2.749319 -2.362582 -6.159459 -0.896804 -6.559278 -6.542234 1.060761 1.314740 5.071946 -3.304868 1.571181 -0.949440 0.004397 -1.290909 -2.938252 7.399862 1.136432 1.023661 4.639322 -0.358844 3.452552 -10.620831 1.178829 6.759136 6.607258 0.897571 -1.904958 -0.472265 -0.195701 -1.723987 -5.250631 2.963139 5.499686 -6.644757 3.475913 0.822888 -0.406544 -4.064657 5.916026 -3.451560 7.190745 3.608377
联 1.182868 -5.095419 -0.912383 -2.542877 4.288529 2.472127 1.083110 -2.208004 3.724446 4.710961 4.484391 -0.371042 -0.682917 -2.547436 3.193157 0.908296 -6.310182 -5.726534 2.453210 0.979106 -0.445659 2.773905 3.598278 2.723027 1.062750 3.809501 2.781710 5.381381 -0.257414 -0.201850 -1.621831 4.246808 0.445531 -3.415355 3.242263 -6.417692 -0.509344 -1.368663 -1.929189 2.803067 -4.826119 2.006726 2.538459 -2.951264 -1.935781 -2.960364 -2.792732 -6.300597 -0.384672 -2.468719 -5.040918 -4.350498 -8.530799 -4.458242 -2.319052 -1.284200 -4.773523 -4.850674 0.007616 2.020156 1.043058 -7.911379 1.121186 -3.609079
机 0.187851 -2.718754 6.487197 1.823728 -1.134623 -1.015489 1.870490 -4.187272 -1.644320 1.597117 0.337063 -0.960378 -3.058867 -4.302357 -3.300708 -8.380197 0.377135 -0.533233 2.513939 -0.019496 -4.116747 0.042841 -1.944499 0.522335 -0.598600 6.693623 4.636850 5.159449 -2.891026 0.864654 0.545424 0.802299 -4.761824 -4.132788 1.375712 0.029028 0.750216 -0.433638 6.262432 3.390693 -1.142754 0.992182 -1.242644 7.796870 0.662338 -0.752063 -2.221426 -0.767389 0.931374 2.179666 -3.512787 -3.078280 -2.634218 -5.346270 -3.211679 8.181407 1.999809 -3.886559 -5.384276 1.049018 -0.648304 -0.786514 9.614166 3.037487
制 -0.165101 2.038604 -0.644103 1.095854 -2.051620 -3.117282 0.211714 3.015254 -2.598235 9.011065 2.724320 3.928151 3.313629 3.368600 -2.109878 3.931022 -1.286931 -1.285078 -0.130621 -1.893870 -0.262541 3.337269 6.218103 -1.777774 -0.341854 0.343442 2.199682 0.026968 5.837449 -0.680829 0.105052 -1.843294 -6.855463 -4.350056 1.166260 0.660373 -2.857400 -0.391997 -0.450685 7.988879 -2.726021 -2.062926 -0.429331 -3.619567 -2.436787 0.786930 -2.206126 1.321874 -0.905632 2.743498 2.023783 -1.269124 4.758356 3.319452 -2.159638 -4.823242 5.744404 3.324752 -4.211206 4.305053 2.893877 -1.510371 -5.732353 0.501841
是 0.577659 -1.548447 0.263319 -0.943763 2.517306 -2.412274 0.681842 -2.772808 0.374539 1.092191 0.782716 2.492852 -0.833073 1.924876 -0.801402 -0.929677 0.561457 -2.726912 -1.915737 1.470746 -3.238373 2.045949 -1.021249 -3.145659 2.195925 2.819198 2.934821 0.102727 -2.239966 -1.558605 1.697441 3.434827 2.648900 3.208857 -0.143560 -1.072070 1.677971 -1.768269 -1.355149 -2.340274 2.270507 0.255875 0.894600 -2.268260 0.088054 2.427582 -1.238991 -0.929711 2.153813 1.467992 -3.034665 1.145803 0.484105 2.667380 0.705033 -0.087565 -1.706470 0.996172 -1.074954 -1.855576 -0.866218 2.900565 1.063497 1.932426
进 7.460950 -3.742007 0.604888 4.517123 -0.186731 -3.198505 -2.086131 0.208777 -4.357634 0.905281 -0.282139 0.603449 0.909481 4.777007 0.178850 -3.693617 -2.867659 -2.180387 6.216255 -7.551362 -5.106796 5.708767 -2.818480 -4.378820 -1.561922 3.873362 -1.110235 -1.655675 1.088659 2.660540 -2.371855 2.946644 1.925737 1.562859 2.456366 -2.894312 -2.295965 0.903010 1.720834 0.720575 -1.075243 -4.608463 -1.864406 0.149985 -0.351535 -0.041062 -0.652668 0.495111 2.706321 3.194844 6.223250 1.164145 6.686267 0.237531 3.371853 -3.024686 -0.097723 3.573670 2.245466 0.496370 -1.554905 -0.678395 1.863306 0.018288
第 -1.375173 1.569334 -2.922593 5.088222 -4.630895 -7.046432 -0.187481 -3.151461 4.444217 -4.313643 -3.271482 -0.551184 -2.444465 5.885144 1.670987 -3.360731 -1.311312 0.406252 1.532976 1.810652 2.865969 -2.506926 1.506453 2.992288 1.919325 -4.663165 -3.629130 1.320347 -2.303146 -5.741659 1.565620 4.610717 2.924052 1.444092 -0.289727 -0.728034 -3.189098 -4.331157 2.193318 -1.646076 -2.285542 0.232873 4.543825 -1.088049 1.525245 3.394662 -2.959694 0.070587 2.982564 7.006374 -5.176997 -0.394989 2.598120 -0.319680 -2.169687 -0.575669 -1.391725 0.555313 3.306207 3.719320 0.028184 4.917511 1.171764 0.006991
度 0.995094 0.512256 -2.944571 1.242618 -3.442959 0.094654 1.849751 -5.439264 1.696739 -5.183801 4.142081 -3.871292 3.963527 -2.835578 -0.922980 -4.926884 1.489675 1.564628 5.376373 0.226513 -3.212302 1.811935 1.404987 1.338918 -3.301322 -5.023717 -1.469965 2.660881 -7.378309 -0.841123 0.629368 3.277492 -2.168225 2.575282 -3.267545 0.634448 -2.445048 0.793479 -2.147033 0.388051 0.501965 -1.458552 -1.605168 0.348616 2.906645 5.768473 -0.971676 1.300374 -1.393198 -1.836869 -3.319032 -0.334392 -5.379992 -1.415186 -0.320015 2.068585 0.053066 2.814699 1.375543 0.892561 0.843217 2.196974 -1.068170 -5.393660
时 -3.429778 5.543083 1.264303 3.400812 -5.633896 -6.243298 0.076121 0.567573 -2.358837 1.284981 3.654584 -0.290012 3.511778 3.143062 3.155277 1.696432 1.655700 -5.276796 0.574193 0.471833 0.164134 3.648888 -2.240013 -0.283662 -6.254251 -3.581688 -0.127502 1.619998 -3.298464 3.721544 -0.944365 -5.092932 1.034082 1.337466 -3.509529 -0.937698 3.145151 1.423097 0.035429 0.171979 2.069965 2.291073 -2.130538 2.481649 2.240777 -0.741275 0.489013 0.120590 8.494835 -3.653330 -0.023005 -4.914693 0.208991 4.045767 4.229804 -0.688421 -1.278909 1.612426 -0.154576 -1.102416 2.385659 -2.953478 1.317674 -4.434822
提 -2.529515 1.933532 4.065158 1.938510 2.888897 -2.263539 -3.337143 -1.566851 -10.202188 0.672919 3.179526 -3.378938 -0.233672 -3.786118 -0.055585 -4.194795 -4.410485 2.211558 2.951484 -3.085608 9.841079 -0.763918 -0.385755 -0.475025 2.205269 0.698549 4.917578 0.648479 -7.779432 0.540192 3.421459 8.395671 -2.988023 4.843778 -4.690955 0.320724 -5.572999 -5.960515 -3.662488 3.318202 0.941917 -1.308064 4.960172 -1.696440 3.644030 -1.565908 1.085964 1.982404 1.299489 2.013355 0.688944 0.758542 2.058979 7.651024 -2.475366 -0.113650 2.698716 1.894437 8.979985 0.840378 3.032052 -2.615531 -0.482253 0.478475
新 0.383740 -3.314704 -0.779214 -1.400583 1.812487 3.318146 -2.228862 2.956301 3.893381 -0.017896 -0.358518 0.158338 -3.082435 4.156856 -3.492744 -1.436045 -2.921623 2.690041 2.504919 -0.555937 1.294348 -4.609533 -0.027384 -0.467109 0.521347 3.181720 1.103645 -2.812545 0.409101 2.347153 0.274839 4.445343 2.025252 -0.944234 -4.716458 -1.067005 -1.560051 1.891653 0.269567 1.790851 3.317984 -0.604991 1.443208 2.347023 4.472679 -1.756885 0.355938 -5.369272 1.237874 1.328081 0.752043 2.631705 2.984113 0.224775 0.365187 -1.816712 -1.155261 2.263265 -1.140948 -1.080640 -2.623898 -2.982352 -0.076119 0.726753
电 -1.199243 -3.276609 -5.602733 2.646922 3.769513 -1.741064 -1.065907 5.656192 3.376324 -0.340300 0.843476 1.072604 -3.088350 1.926704 -4.437019 -2.618448 0.902392 -0.864875 1.119485 1.762920 -4.164913 -2.906867 -0.832652 -1.534128 2.041316 -1.440947 4.208076 2.517107 0.608741 3.894357 3.207762 0.200038 3.389746 -3.243614 0.087140 2.682359 -4.079636 3.516137 -1.867650 -0.901408 0.365226 1.426344 2.810661 -0.212930 7.449891 -5.470119 0.574183 2.838238 -3.703019 -0.441625 3.254202 0.887855 -3.063543 6.478164 -0.479603 5.624195 7.514748 3.431067 0.129015 -3.321537 -3.836536 -7.453353 -1.273306 -3.073392
长 2.647719 -2.757014 -2.934856 -4.241730 -2.508385 5.776107 -5.118612 -3.710361 1.879128 -0.651288 -0.926254 -2.102685 -2.145730 7.565744 -1.503265 -1.809120 -1.692005 4.931438 -0.184161 -3.317330 3.733095 -0.874886 -2.920820 0.906876 1.045806 -0.401061 2.177846 -3.781908 1.743080 0.267792 0.906570 2.720979 0.773964 -3.836395 -0.698964 -0.073231 1.210911 0.963290 -4.686547 -4.001458 -0.369760 -1.939654 2.494300 0.757994 -1.155533 -2.501429 0.636235 -0.478583 -2.162234 -1.625698 1.778376 -0.478811 5.427617 -1.898137 1.478451 2.965560 -4.697076 -0.017099 -1.456103 2.509645 -4.525014 -0.870109 -4.679085 -2.625188
过 8.250299 3.250284 4.392769 4.200310 -5.900185 1.747595 -4.194082 -1.723874 -1.405213 1.905933 -4.675278 1.953990 7.400084 -0.606040 1.142793 -7.802820 -0.369841 -5.100568 -1.939531 1.280021 -4.729381 6.527525 1.966882 1.602101 0.923093 6.612471 -5.792978 4.135189 2.535488 0.347984 0.162150 -1.053874 -1.500872 6.537965 1.121640 -8.554373 -4.378075 1.030819 -2.014160 -4.864370 8.922841 0.672057 6.031410 5.249850 1.594645 -3.550354 -3.587949 1.149030 -4.171659 -2.828063 -5.133837 0.805154 0.054507 -3.297364 0.954002 -2.792959 2.331922 -5.182143 0.479988 -1.965983 -2.696784 4.531100 -5.215832 -4.163247
并 2.775039 -3.996328 1.579215 -1.012910 0.882903 0.132893 0.692498 -0.236386 0.431956 2.770836 -1.229226 2.779935 -1.392095 -1.923480 0.195234 0.216601 -2.152869 -0.339761 2.638443 -0.510763 -4.430887 4.032811 -0.206007 0.225911 -3.089591 0.893446 -1.425132 -2.116600 -0.308953 4.236898 -2.791586 -0.137307 -0.383110 3.458990 -1.888716 1.142305 1.234869 -3.911843 1.671400 1.690113 -0.607529 -2.579128 2.753981 -3.906126 -2.455386 -2.340405 0.599074 2.981192 -0.531145 -1.834437 -2.388906 -0.110540 -1.846335 -2.956428 -1.420787 1.508218 -0.725447 0.989065 -0.478457 -5.644882 1.089902 2.018285 1.120277 -2.830884
等 2.956656 2.349812 0.394696 -1.437363 1.346942 -2.365374 -0.056938 0.818999 -0.869707 0.874670 -0.527131 -0.846280 -1.318055 1.787672 -2.739423 0.390200 0.677049 2.216666 0.218980 0.105461 -0.685232 1.108210 1.332135 -3.520887 1.364265 1.791668 0.880563 1.602763 -1.310115 0.121228 -0.601556 1.373732 0.193209 0.701161 2.509201 0.244043 0.675986 3.094327 -0.311912 1.167192 0.219289 -1.589831 -0.236900 -0.419573 1.306056 -0.327640 -0.777525 2.021214 0.773686 0.990626 -0.122541 -1.757757 -0.389997 -0.481873 -1.648915 0.017262 0.169733 -0.802762 0.397841 0.264774 -0.520052 -0.242371 -0.052466 0.264167
后 0.783579 -0.834901 -0.769776 -0.543175 -0.558030 0.226891 -1.664761 1.096150 1.500405 1.938949 -0.262141 0.748460 -0.731042 2.336183 -0.337364 1.228185 -1.099195 -0.027611 -1.317379 -2.684889 -2.204412 2.213221 -1.073870 -1.496182 -0.921427 -2.969507 -3.936007 -5.322773 -3.585332 -0.299985 2.683923 1.545590 2.878123 4.168450 -3.299747 2.068069 -1.417296 -1.379600 0.585581 0.311439 1.044005 0.550288 1.709661 0.155274 -0.771247 -0.765588 0.833154 3.610970 2.141332 -2.145162 -1.174118 0.205253 1.384876 0.286374 3.156217 0.761365 -0.949769 1.016590 -2.061809 0.202870 -0.215967 -0.240295 0.058588 -1.929691
将 1.674492 -1.140141 1.081750 -1.063769 3.275760 -1.429628 -0.873491 -0.870363 -0.188156 0.893504 -0.270963 2.797120 0.278118 0.252567 0.711338 1.269135 -0.038637 2.326288 -0.845043 -2.284894 -1.513809 2.577195 -0.063210 -0.104490 0.811217 0.425047 0.395273 -1.532759 -2.688869 0.966849 2.260074 -0.190324 0.025089 3.243438 -1.469190 -0.589735 -0.048962 -0.438352 -0.915592 0.256332 2.404873 0.734696 0.967907 -1.563903 0.184657 0.406434 0.703262 -0.623900 3.837791 -1.033746 -2.286828 -1.332260 1.275336 -1.007517 0.384745 -0.682230 1.307391 1.820603 -0.653065 0.898957 0.418903 1.439558 -1.305164 -2.675719
者 1.328987 1.231779 1.283538 -0.321603 -0.583038 0.991109 1.170775 6.401249 -6.999726 3.689579 -4.361470 0.988479 -2.480728 1.848125 -1.022552 -1.072229 -1.472207 3.161730 3.269471 -2.164415 -1.209320 0.735755 -2.580162 0.499252 -0.294202 -2.110637 0.230273 1.783299 3.063257 4.956248 -2.693614 0.885107 0.823879 -1.549368 3.399083 2.048994 3.833190 -0.945983 2.507009 -5.122180 6.781087 2.692101 1.574136 -0.713917 -4.064924 2.212426 2.471316 1.885602 6.428449 -0.272232 3.176943 4.000804 -7.147325 -2.516879 3.643266 2.447529 3.948819 -5.081082 -1.568375 0.664689 -0.721188 3.388393 -1.698525 2.912061
作 -0.950615 -2.846208 0.723742 -4.206207 0.367848 -3.617836 0.304712 -3.002659 0.850300 0.788222 1.301625 -3.795664 -3.671265 -1.492499 -3.011730 -1.687508 -3.983469 -0.734315 0.350132 1.185576 -1.889312 -2.649018 6.226639 3.089965 -4.402632 0.923925 0.603597 2.414869 -1.766364 1.668039 -4.789783 5.328425 1.851159 1.878549 -3.449657 1.508672 4.035602 -1.010801 3.617584 4.916492 0.265718 -2.567890 1.174089 -4.570450 -3.935879 -4.204273 -1.988639 1.787673 -1.717996 -0.385932 -2.793139 -1.466179 4.608887 3.496114 -5.748113 3.899555 -6.292342 5.373672 -2.107594 -4.238677 1.439803 -0.615779 6.971189 -3.962322
海 -1.522648 -2.731306 -2.076942 3.400973 0.154431 -1.124900 -8.310830 -4.378072 -2.123841 -0.034117 -0.382656 2.081863 0.227617 -0.250294 1.401932 0.452004 7.878839 -4.784550 0.149153 3.349436 0.689204 -10.784595 -0.014999 2.378670 4.392778 3.811674 2.044186 2.487533 2.036595 1.960578 -4.600521 -2.975418 -1.884828 -3.647431 -4.875556 -1.497282 1.676983 2.813335 3.831201 -1.643779 -0.722307 -5.086899 -2.234071 4.706244 1.820198 2.556921 5.463761 3.439885 3.470717 -5.237010 -4.403201 6.555315 3.196871 0.066024 2.055335 1.136864 -0.257548 -3.694840 0.292024 -1.136826 1.897109 -4.241503 2.361763 -2.004540
网 0.865790 -1.409473 -3.004335 6.465410 -1.495029 2.076728 -9.540972 -2.824827 -4.386779 2.222040 -2.616584 2.929157 2.813207 -0.381233 -3.415781 0.188549 5.963974 -0.668949 -1.790758 -2.326088 0.377235 -1.273163 -3.296250 -0.786557 -1.057899 2.780864 -0.493985 -0.524871 -0.960781 1.386186 -4.865151 -1.968545 1.901920 -1.964184 1.202981 6.884027 0.296227 5.720581 6.295885 -6.275875 -1.153907 3.877824 0.964494 0.372689 -2.376185 0.579505 -1.611165 4.377382 3.791929 -0.494500 -0.643192 4.951135 -0.171796 -2.029874 0.625325 -2.718683 3.936474 0.985996 1.300036 -4.748931 2.665259 -7.594397 3.988991 0.031273
增 -3.718031 6.791264 0.261828 8.210882 1.383012 -0.256898 1.254866 -1.958293 -5.139387 -5.515824 -1.481169 0.553717 -2.077474 -6.057190 -2.468698 -2.716151 -1.604012 4.103155 1.345710 -3.833405 1.200644 7.474601 -0.641970 0.240866 1.451190 -3.554530 -4.220192 -1.697334 0.252813 -1.860429 -1.491947 -5.225234 -2.287285 4.782393 -1.816266 -0.181806 0.339068 3.274166 -2.549899 2.160324 -1.734657 0.718598 -6.234148 -1.109101 5.726491 2.493278 5.466458 -1.923319 5.037920 -2.277122 -5.199473 -4.351238 -2.763662 0.383265 0.186734 -3.258933 2.982152 0.817904 -4.451198 -2.761871 2.261988 2.939793 -3.777353 -1.145905
或 3.395736 0.472198 0.925175 0.440864 3.911382 -2.424580 1.380045 -0.137396 -2.811793 0.116398 -1.252787 0.706489 -0.609694 -2.084702 1.124911 5.764445 -1.358389 0.371388 -5.246753 1.580229 -0.000080 1.031918 -1.060642 -6.063916 -0.515099 -0.430731 0.158686 -1.286483 -2.302649 3.248523 -0.129182 3.037320 0.280956 3.089306 0.171450 -1.432460 -0.820701 1.385082 -1.330111 2.384145 -2.236037 -1.867027 5.252277 0.330684 -2.357784 -1.209751 -2.687942 1.863577 1.491888 -1.842041 -1.552876 -0.946012 0.546480 0.888201 -0.647059 -0.268320 1.385938 -0.059350 -3.904427 0.413815 3.309400 0.226403 1.071324 -1.368158
“ -2.210874 -0.519562 -0.826318 -1.541650 -2.185800 -0.558082 -3.272922 1.960938 -0.017034 -0.969546 -3.815782 0.853682 0.279392 -1.612100 -1.156445 -1.481997 0.140947 -2.648977 2.344407 1.065785 -3.458289 -1.580935 0.220257 -0.105194 -1.422179 2.801261 2.423623 0.125333 -0.025882 -0.677694 -1.302878 2.749527 5.111486 -0.612126 0.300004 1.370497 -3.763119 -0.156239 3.430698 1.854143 -1.083024 3.276822 -2.589807 -0.765727 -2.001841 1.766194 -0.386935 0.938861 2.240131 1.579817 1.075540 0.288777 -2.184657 1.864263 0.219793 -0.876417 1.036185 0.722954 0.265596 -3.644685 1.831743 3.583833 -1.577200 1.855603
化 3.669873 -1.362048 -2.429991 -0.829680 0.012723 -2.358271 0.460603 3.007106 1.746005 -2.643138 5.034251 -2.588045 -1.946259 -1.218305 -3.051379 -3.939267 0.275479 1.953276 -0.238117 3.994336 2.803763 -2.559556 5.133066 -1.927860 0.129943 3.713163 -0.716232 -2.112065 -1.005562 0.865461 1.584895 0.371350 -2.100840 -1.479280 0.480378 -1.471965 -0.374054 3.704176 0.825015 4.836633 3.317697 0.085295 -5.247523 -2.860780 -0.260052 -3.865406 -3.320823 -2.892265 -1.478502 -0.534753 5.645423 -0.328586 3.407770 1.620713 -2.994879 0.202732 1.493820 0.182396 -6.074696 -5.518886 1.609477 3.349782 -2.041832 -3.348452
