3558 64
， -0.597307 0.208391 1.384831 -1.294718 2.148816 -0.030902 0.670316 -1.916584 -0.845139 -0.760185 -0.174526 -2.366068 1.118639 -2.088125 -1.253253 1.405182 -0.967599 -0.182356 0.564370 -2.227671 -2.322830 -0.308969 1.824308 -0.924516 2.183626 -0.815786 0.111276 -2.194751 -2.093629 1.407411 1.366062 -0.498497 0.817824 3.369914 1.318225 -1.212954 -0.169552 0.731452 -1.328769 0.059822 2.103340 1.691739 0.806105 -2.423998 1.628393 2.192503 0.538950 -0.695115 1.794998 1.739057 -0.389744 -0.089154 0.480927 -0.245317 2.221570 -2.760047 -1.183749 -0.502938 -0.590596 -1.252308 1.054771 1.948350 1.378908 -0.317830
0 -2.442781 0.413804 -2.304322 0.405306 2.305114 -0.677123 1.160659 0.109312 2.324338 -0.251880 -1.096421 -1.951407 2.145534 -4.533002 1.731242 -2.951740 -0.378772 -0.651334 -3.298061 -0.995422 -2.595454 -2.447381 -3.061929 2.192974 0.401126 -3.596578 -3.468404 0.971637 4.145337 0.336674 -0.577648 0.821382 -0.733984 -0.210643 -2.255313 -2.102235 2.007036 -3.447306 -2.031148 -4.252045 -3.447281 -0.390182 1.785270 3.070464 -0.074731 -0.653061 1.155827 -2.425994 -4.744397 0.351062 -2.148718 -1.729200 -1.925830 -0.135398 -0.114863 -3.017479 -2.607927 2.677591 -0.140660 1.260271 1.016240 0.994415 1.258684 0.832541
的 1.873217 1.323106 1.555606 0.726745 1.414868 -1.190145 0.113753 -0.321910 -2.957708 0.654686 -1.233542 -1.374193 0.023183 -1.229353 -0.922777 -0.069899 -0.325146 0.619859 -0.638678 -1.850086 -0.375158 0.259491 1.267003 -2.179207 0.798786 -0.018357 0.489855 -1.606923 -2.207211 1.119550 -0.481493 0.031955 0.173233 1.843424 2.133714 -0.649278 0.813484 1.562019 -0.702375 0.840846 0.751008 -1.374602 1.047009 -1.746849 -0.719968 1.871138 -0.914176 0.414338 1.711251 1.309221 1.441698 0.533848 -0.256659 -0.467088 1.840304 -1.233850 -0.254471 -0.214789 -1.066009 -1.737334 2.493691 -0.462893 0.235315 -1.613020
1 -1.420376 -0.702019 -3.014313 0.541028 1.252057 -0.765287 1.782215 -0.276853 2.361411 -0.684353 -0.590649 -0.776510 1.726030 -4.216697 1.983031 -2.853683 -1.131058 -0.948336 -2.492175 -1.638718 -1.855718 -3.042864 -2.961221 1.375856 0.402114 -4.331262 -3.573836 1.097693 3.887358 -1.121756 -1.125665 0.222425 -0.761996 0.542908 -2.825258 -1.414159 2.262977 -3.141619 -1.820932 -3.752062 -3.285651 -0.062570 1.737986 2.576300 -0.074852 -0.593273 0.625270 -1.145082 -4.141458 -0.343588 -1.728111 -1.719914 -2.037792 -0.040332 -0.595682 -2.132912 -1.984945 2.659118 -0.971967 1.409627 1.095221 0.651378 1.679222 1.414415
公 -0.905516 3.873163 1.634660 -1.274180 1.529535 0.803054 -1.988266 -1.660131 0.592756 1.993891 0.358592 1.165082 0.218205 -3.934607 3.016345 0.063280 -0.281183 -0.024891 -3.967559 -4.563510 2.647451 1.302002 1.116629 1.758548 1.039787 -3.233792 -1.144686 0.718084 -2.020314 0.896034 -0.636042 -0.352740 -5.168326 -0.951690 0.731852 0.581561 -4.246500 -3.138004 -0.479291 -0.711738 -0.636189 -0.964380 -3.430062 0.414361 -0.335867 2.842565 -2.357590 -1.798425 1.047721 -3.288310 -0.329719 0.764951 3.179489 -2.400917 -1.950764 2.731012 3.618712 0.233968 0.247624 1.593091 1.311415 -1.474612 -0.051412 -3.714254
2 -1.312156 -0.478459 -2.824589 -0.052345 0.745869 -1.273947 2.236637 -0.299211 2.400254 -1.013944 -0.545378 -0.382635 1.931137 -3.655289 2.150705 -2.887379 -0.538001 -0.586206 -1.878140 -1.694783 -1.944297 -2.637573 -3.154472 1.848149 0.158343 -3.975622 -3.979640 0.997441 4.131692 -1.485580 -1.141532 0.119806 -0.849254 0.472142 -3.069645 -1.045982 2.207368 -3.222857 -2.055422 -3.833865 -2.879054 -0.329588 1.327109 2.680808 0.080168 -0.337218 0.387705 -0.891792 -4.042661 -0.607872 -1.820706 -1.549285 -2.252857 -0.086327 -1.231997 -2.038609 -1.883874 2.723609 -0.883762 1.561888 0.811590 0.774113 1.869750 0.614755
、 0.671282 0.357772 -1.177067 1.979828 -0.178639 -2.485769 2.354629 0.326026 -1.181803 -0.448546 -2.147383 -2.982968 0.292618 0.787088 1.254171 0.170260 -0.190704 0.593093 -1.431434 0.009293 0.405146 -3.188869 0.783156 -1.556357 3.327897 2.560614 2.052974 2.285926 1.043510 -0.862614 -0.544061 0.488653 2.156935 -0.276974 0.395490 -0.297006 -2.074911 1.626149 -0.071187 -0.053655 -2.691876 0.035870 0.532231 -1.298664 2.546153 0.871592 -0.204508 0.612924 0.706011 2.502878 1.521874 -0.479046 0.941665 -1.857730 0.554544 -1.629563 0.461858 -0.169223 -1.317675 -0.585967 -0.058581 -0.163201 1.061743 -0.933958
司 0.192516 0.153420 -1.074214 4.119058 -1.437595 1.507456 -0.857803 0.439398 0.440099 2.398850 -1.495962 1.990666 -0.947040 -0.844311 -1.791633 3.073432 -0.749690 -0.750422 -4.250595 -4.121516 1.323365 0.897288 -0.962718 4.523227 0.727931 -0.398599 -0.767571 -2.510253 -2.668509 3.769675 2.231504 1.783261 -2.851386 -1.668124 -2.088328 -2.479221 -1.867585 -0.160665 -2.346468 1.563956 0.572979 -0.832032 3.479730 1.841316 2.732562 1.005469 3.714476 -2.401943 -3.719047 -2.936178 0.330948 1.477656 -0.736692 -1.703932 -0.614430 1.856332 0.323104 1.164829 1.380561 0.632114 -0.780036 -0.532884 -0.967190 -4.727581
。 -0.041360 1.518202 -1.284621 0.196867 -1.243883 -2.276350 0.972765 -0.724355 -0.532049 -1.339939 -2.982361 -1.738479 1.856005 -0.741337 1.467627 1.176064 -0.244657 -0.324903 -1.380191 -0.333428 -0.791462 -0.194455 0.616214 -1.457285 2.895178 -0.930965 2.305673 -1.620793 0.014371 -0.285137 0.295040 1.173903 2.726951 1.481143 0.655676 -2.709638 -1.244547 -0.291974 0.282250 -0.891618 0.474590 1.886367 0.509118 -0.649163 0.505550 1.597368 0.976266 0.959120 2.832645 1.813342 1.820648 0.060760 -1.799995 -2.264947 0.462253 -1.657723 -1.106956 1.121233 -1.500134 -0.939075 1.446871 1.133405 0.306973 0.455971
股 0.392731 2.207363 1.552112 7.386502 1.069436 0.536684 -4.202496 0.740552 2.025893 0.343908 -4.704040 -1.483282 2.457648 -4.924621 1.714901 -2.838229 0.036487 1.129179 -6.979525 -3.895126 2.289012 3.593017 0.245844 -1.671256 -3.610999 -2.788551 1.880697 -3.743041 -1.579746 1.939100 3.447719 0.935775 -3.039533 -2.015758 1.019935 -1.083424 -0.689066 -3.802776 0.179361 2.779196 -2.203596 1.922548 4.356110 -0.847147 3.487416 -0.783175 3.160468 -3.333588 1.998271 -0.583670 -3.655361 -4.493876 4.308229 -1.804558 0.872239 -1.358854 3.029397 0.617006 2.765479 2.822296 1.032102 0.358603 -3.530708 -2.501306
资 -1.605330 -1.457866 -0.029016 -1.330781 3.348053 4.699953 -0.086314 4.199201 -1.810379 1.720851 -2.364518 -0.607289 -0.768785 -1.327292 -1.431733 -1.380238 -0.418321 1.471171 1.293718 -2.064019 3.767765 -3.248593 1.618858 0.792171 -0.315288 -2.688025 -0.147219 -1.524023 -1.170856 2.552095 0.023166 3.203090 3.270542 -1.814678 6.577132 2.455928 -0.576092 1.894873 1.200222 0.683628 1.508532 -1.801219 2.782867 5.064496 1.751889 2.824467 0.621377 5.816428 -1.547450 -5.463603 4.126079 2.522799 -2.291227 1.862565 0.420439 -1.375449 0.743480 -1.035843 0.066283 2.944745 0.554833 1.477666 3.641440 -3.848953
０ -0.485235 1.616706 0.038861 1.809089 1.327317 -1.629211 -1.063040 -4.046939 1.284375 0.862877 0.878062 -2.903139 2.134888 -0.462037 -3.820177 5.469666 0.447842 -4.496080 1.814386 0.023702 0.793339 0.067665 2.282655 0.440699 -0.913547 -2.697492 -0.728612 0.627015 1.011363 -0.640282 -1.801486 -2.892215 2.717296 0.011220 -1.659547 0.959252 -1.814193 -2.143006 -2.466239 -0.962287 -1.151707 2.937134 -0.588694 -4.747647 2.310613 0.327768 1.420184 -0.564433 -3.105190 -2.050348 2.949976 -2.090389 1.387167 0.538778 0.622503 4.045032 1.539596 -0.783321 0.697991 1.587759 0.587380 4.080168 2.253944 -1.876433
3 -1.824625 -0.113153 -2.189824 1.050564 2.456412 0.658710 2.082558 0.568680 1.437381 -0.388148 -0.961793 -1.153703 1.416613 -4.006169 2.466487 -3.593621 -0.532068 0.464726 -1.926109 -1.150497 -1.245486 -2.240501 -2.516602 0.694983 0.820410 -2.911893 -3.328110 1.394315 3.892020 -0.576914 -0.811090 0.619438 -0.909292 -0.096019 -2.057865 -0.316137 2.047400 -2.002448 -1.451570 -4.302568 -2.676616 -0.218183 2.674949 2.426069 0.630587 -1.365476 1.209607 -0.610314 -4.097445 0.369648 -1.102985 -1.977934 -2.570764 0.095723 -0.379251 -2.424889 -2.134290 2.152252 -1.000052 1.158730 0.297817 0.510967 1.240070 2.021758
有 2.083699 -1.507133 2.813291 4.521981 2.106800 -0.196855 5.317369 2.109790 2.418952 1.556642 -1.077710 -0.441379 -4.441451 -4.053665 0.812414 3.155354 3.023000 1.328800 -5.392639 -4.576199 1.556872 1.328309 1.942944 3.336865 -0.972207 3.632356 2.468189 -2.949697 0.862561 4.224658 -0.470364 -4.797675 -4.401981 -2.558150 4.224188 -0.263019 -0.838415 0.474993 0.258560 2.768967 -2.000015 -1.606186 1.141461 0.772781 3.692604 1.779064 -1.219868 -4.683906 3.356805 -1.924408 1.091372 -0.928661 -0.370005 -0.232622 -1.607193 0.198669 -3.453105 -2.215482 -2.796894 1.069151 1.626116 0.799056 -2.205740 -5.218578
. -5.233438 1.474023 -1.054253 0.657364 2.732487 1.065852 2.235858 -0.717594 0.497578 -2.322191 -3.138705 -2.537240 3.505948 -3.587206 3.683528 -4.832664 -0.307929 3.298785 -1.130045 -0.769456 -0.395978 -2.304965 -0.355010 1.178502 1.884466 -2.259259 -1.422770 0.823759 1.644486 2.589014 0.979789 0.005148 -0.775927 -0.664680 1.646288 -3.182372 1.912657 1.872951 -2.281659 -5.042971 -2.067439 -0.321675 2.017730 2.574017 2.478093 -0.398058 2.599864 -1.027780 -2.722863 3.057447 0.846989 -0.852875 -2.346940 -3.868771 1.365490 -5.280642 -2.100523 2.036393 -0.384281 1.009808 -0.177362 0.335817 1.296084 3.333138
, -5.506516 0.302696 -1.198798 -0.348671 2.436662 4.546137 3.311930 2.340271 -1.440546 -1.405181 -2.987022 -1.845075 1.960384 -5.055446 4.400336 -3.303494 0.912298 1.301958 -1.567793 0.077692 -0.259291 -2.532417 -1.096538 1.836161 1.528105 -1.132439 -1.987368 0.538130 0.088690 2.965525 1.070226 -1.508633 -1.600536 -1.167704 2.318736 0.219752 1.438881 1.085048 -1.198604 -4.095659 -1.912985 -0.423774 0.786840 1.970033 4.268044 -1.756584 1.721105 -0.671904 -3.427824 3.704864 -1.269845 -3.719566 -2.250048 -3.128873 3.602090 -5.997552 -2.284562 0.787831 -1.200756 2.347822 -2.229779 1.641697 2.170039 0.795504
行 -1.764405 0.374136 1.012308 0.706388 -3.476488 -0.019548 0.131489 0.588724 -1.265302 1.566626 -1.772460 3.136683 1.561429 -2.151781 -2.188168 4.179887 3.605924 3.720604 -3.937931 1.091888 3.304677 0.939934 4.212748 1.714643 0.588840 -2.054012 -1.974681 3.290332 -2.044716 -1.378291 4.158414 -2.259145 3.641962 3.670953 -0.951994 5.392955 -0.859170 0.555280 -0.814148 2.503272 3.519028 1.335903 2.146836 -1.654739 3.711064 -1.395470 -5.843929 -0.211499 0.402294 0.026871 -7.476022 2.010463 -2.526058 -2.949829 0.061154 1.866549 -4.756502 -2.270622 0.825283 -1.383406 1.864411 -4.830702 -3.233941 -2.709855
5 -2.964550 -0.075497 -2.024768 0.683527 2.887351 0.980850 1.868724 0.763935 1.391726 -0.382858 -1.226629 -1.481515 0.808346 -4.394685 2.477406 -4.172202 -0.521609 0.457311 -2.158919 -1.020882 -1.074350 -2.309329 -2.720175 0.472965 0.919019 -2.507380 -2.870733 0.827190 3.549793 0.135457 -0.500563 0.465227 -0.818968 -0.788315 -1.517769 -0.925305 2.838669 -1.798631 -1.940180 -4.535828 -2.913501 -0.514747 2.293399 2.479429 0.669221 -1.438848 1.542723 -1.118285 -3.842151 0.778753 -1.066369 -2.104223 -2.138368 0.547616 0.348721 -2.461883 -1.944614 2.068145 -0.181907 1.077073 0.227485 0.341625 0.639341 2.066525
4 -2.195710 0.028496 -2.100130 0.443354 1.856925 0.354465 2.473046 0.040805 1.488407 -0.923772 -1.247613 -1.395933 1.286442 -4.113972 2.822996 -3.498197 -0.374203 0.395347 -2.062872 -1.190192 -1.268118 -2.151553 -2.831025 1.045417 0.715215 -2.820999 -3.409616 0.969289 3.617221 -0.184938 -0.926939 0.419963 -1.312216 0.374727 -1.885345 -0.430727 2.798660 -2.270655 -1.735498 -4.168639 -2.779965 0.045600 1.955168 2.623928 0.784861 -1.556754 1.035989 -0.478781 -4.429597 0.300491 -0.703655 -2.337512 -2.721987 -0.276904 -0.386033 -2.450316 -2.133750 2.027315 -0.319291 1.136618 -0.003421 0.574745 0.978911 1.290991
１ 0.120820 0.589488 -0.342558 1.863814 1.107560 -1.678444 -0.329032 -2.822959 1.786354 0.744091 1.492493 -1.972385 0.901001 -0.520129 -2.754426 4.910056 -0.393697 -4.107163 2.088648 -0.685917 1.499937 -1.109002 2.446496 -0.750879 -0.600341 -3.252180 -0.976822 0.335910 1.167665 -1.724938 -1.679903 -3.032489 1.518788 1.117918 -1.962596 1.408948 -1.605262 -1.862337 -2.656031 -0.578506 -1.178000 3.212669 0.951099 -3.802601 2.151684 0.995965 1.109431 0.601510 -2.342512 -2.810184 2.297919 -1.487720 0.677882 1.067583 0.576425 5.165295 1.336636 -1.275567 -0.027535 1.466483 0.249353 3.214411 2.150250 -1.202879
发 3.149617 -1.560025 1.760601 2.490870 2.311063 -2.287323 -4.881285 0.435266 -2.554779 2.284170 -2.493098 0.665289 2.421045 1.699676 0.832978 -0.884592 -0.441585 -0.458776 0.729532 -6.188463 1.724144 -0.791832 -0.530040 -2.634652 -2.324624 2.133943 -2.408064 -5.933704 2.685447 0.220116 -0.085975 -1.946197 2.848341 -0.018916 -2.291528 -1.219571 -4.387273 -1.532626 3.075462 -0.294474 2.592482 -1.508985 -3.091804 0.894022 -5.928221 0.998815 -3.965883 -3.141594 -2.261907 1.950955 6.505877 -4.796545 4.670152 -4.088685 -3.528581 -2.464554 -0.429222 0.041834 2.685762 1.688024 1.041138 -2.344613 1.788490 -1.205888
6 -2.729310 -0.145293 -2.187799 0.868950 2.901598 0.767541 2.186191 0.480178 1.741609 -0.540663 -1.056258 -1.707198 0.850902 -4.500524 2.975190 -4.147841 -0.435385 -0.224193 -1.291951 -0.988935 -1.073536 -2.099624 -2.701405 0.602426 1.470187 -2.186774 -2.796879 0.986623 3.790434 -0.118868 -0.759363 0.402288 -1.264774 -0.157781 -1.687095 -0.197030 2.996960 -1.125005 -1.900016 -4.317361 -2.662217 -0.303344 2.499622 2.490892 1.207803 -1.579228 1.426342 -0.908420 -3.827269 0.909955 -0.826782 -1.835649 -2.493232 0.418987 -0.055597 -2.891407 -2.158199 1.874539 -0.850777 1.083106 -0.403743 0.477856 0.813238 2.015584
年 -5.294442 -4.195506 -5.679232 -0.636969 -2.935668 -0.994128 -1.998621 -2.259032 3.263123 -1.641948 3.375998 -0.191288 8.447543 0.159508 0.458284 3.000623 -1.238436 -4.149997 -0.802250 -2.859087 -1.574436 -1.999909 1.221637 4.016912 -2.433107 -5.209929 -2.745967 -1.925927 2.412458 -2.220915 1.373541 -3.781055 -1.775791 2.003138 -4.545587 -3.602789 0.845130 -1.676695 -1.411411 -0.109662 1.125327 3.224392 -0.572557 1.313850 5.102221 5.594889 2.783633 -1.928545 -2.279768 3.217757 -0.456853 -2.979379 3.496373 -1.804779 -0.166008 -4.782470 -3.301173 4.085207 -3.945546 3.294694 -0.981712 2.370937 2.952641 1.216542
本 2.610969 0.192319 2.060933 2.117274 -0.307011 -0.381151 0.816695 -4.612161 0.122234 3.605240 -3.634811 0.814973 -0.003050 4.425498 2.795033 2.653455 -2.453159 0.585746 -2.167319 0.895298 6.378942 1.190785 -0.161249 2.170472 -3.875565 -2.990454 -5.168047 -1.161389 0.249436 1.058965 2.300159 -1.105259 2.380843 -1.371189 -1.208291 1.308394 -0.581205 0.571651 -2.188687 -6.892369 1.364112 1.747373 2.098712 0.759621 -5.284788 0.921371 -1.306094 -1.581184 1.738442 0.629807 -0.987939 -1.369789 1.542582 -2.243848 -0.851341 -2.593930 -1.504642 -2.309769 -0.363361 -0.452298 2.480108 1.105263 1.602352 -2.133802
9 -2.780019 -0.313653 -2.425682 0.115887 2.570816 1.155555 2.566809 0.303679 1.498244 -1.186702 -0.324808 -1.899144 0.705075 -4.415595 2.756883 -3.810581 -0.517953 0.426649 -1.282569 -1.380501 -1.058403 -2.129311 -2.999659 0.469984 1.410509 -2.575428 -3.529657 0.527816 3.871794 -0.605197 -0.907941 0.287677 -1.467157 0.024531 -2.271174 -0.626667 2.897995 -1.677922 -2.604996 -4.506500 -2.304437 0.162161 2.139187 2.127691 1.039225 -2.091805 0.475917 -0.346491 -4.361294 0.550517 -0.853119 -1.881464 -2.294043 -0.231564 0.602677 -2.689937 -2.538092 2.256733 -0.603273 1.523255 -0.020831 1.191387 1.232589 2.331930
8 -3.183786 0.121962 -2.071676 0.946973 2.921789 1.595344 2.129889 0.743401 1.325670 -0.683982 -1.335103 -2.182219 0.845584 -4.201880 2.833340 -4.102470 -0.504443 0.563044 -1.035513 -0.698135 -1.054682 -2.467290 -2.927776 0.648575 2.063159 -2.427021 -2.738003 0.912350 3.481993 0.097696 -0.828502 0.539177 -1.273351 -0.559867 -1.316327 -0.267502 2.762081 -1.130798 -1.751807 -4.293831 -2.545537 -0.161215 2.236883 2.345824 1.345987 -2.270807 1.180054 -0.876924 -4.099684 1.245695 -0.670378 -2.099428 -2.816564 0.419348 0.513767 -3.005383 -1.923866 1.629774 -0.308106 1.238690 -0.491891 0.824422 0.675657 2.406187
业 -0.088155 4.042721 -1.123330 -1.841150 0.052913 4.680199 3.151150 1.165865 3.485831 1.068982 3.541615 2.954293 -1.974275 1.295732 -3.916377 -4.457927 -0.115953 -3.728055 1.171808 -1.564376 -1.861157 -0.334773 -2.193269 -4.431204 -1.014022 3.102249 5.224893 -1.524737 -4.006988 -3.129797 -1.356353 2.717400 1.646298 -2.015423 0.804943 1.106183 -0.286731 4.016429 1.946978 4.640725 2.326676 -4.881697 -1.819846 0.457352 -0.332527 0.779142 2.827164 -2.527004 -2.389287 -6.641279 5.390273 -2.156221 3.813879 -2.750110 2.678586 -2.733353 -1.205271 2.059982 -3.544844 4.193587 2.027790 -1.528549 3.172597 0.029097
２ 0.049252 1.095361 -0.745400 1.240445 0.130698 -2.036265 -0.605794 -3.047650 1.631345 -0.222210 1.115922 -1.339324 1.734274 0.279966 -2.873138 4.576240 0.585293 -3.473244 2.061580 -0.750816 0.933478 -0.721349 2.094490 -0.237871 -0.817655 -2.867663 -1.436899 0.529510 1.718531 -2.011055 -1.771051 -2.962189 1.532567 1.043486 -1.903554 1.599106 -1.291787 -1.663349 -2.534364 -1.039165 -1.223377 3.161745 0.577180 -4.012973 2.405100 1.078434 0.912247 0.818657 -2.460158 -2.841032 2.418313 -1.814108 0.950067 0.468882 -0.049810 4.678492 1.636035 -1.225837 0.153414 1.865737 0.067399 3.432027 2.247796 -1.915392
7 -2.833670 -0.146373 -1.823859 0.887448 2.961406 1.639770 2.670047 0.689926 1.256412 -0.771661 -1.322526 -1.953364 1.069925 -4.225365 2.772863 -3.822206 -0.523640 0.673513 -1.376974 -0.977585 -1.012521 -2.342701 -2.789241 0.278177 1.590108 -2.217059 -2.969594 0.742693 3.403524 -0.243538 -0.780454 0.108681 -0.934817 -0.307920 -1.421773 -0.308644 2.744542 -1.594288 -1.904809 -4.343679 -2.559523 -0.150548 2.321889 2.122847 1.363634 -2.186300 1.320315 -0.992777 -4.410876 0.932187 -0.604880 -2.396776 -2.574305 0.091239 0.656389 -3.373177 -1.836951 1.837870 -0.524958 1.194500 -0.418605 0.646240 0.882957 2.159007
人 1.849195 -0.912866 -0.173598 -0.940252 -4.326611 -2.212768 3.980192 3.081940 0.512148 3.298975 -2.453977 0.319042 1.872398 0.108940 -2.299606 -3.290376 -0.456130 -0.482258 -1.694424 -1.234129 2.197143 3.086920 -2.536147 1.163230 -1.379029 0.566614 3.154348 0.068897 -3.127573 0.176989 -1.013818 -0.332743 4.070219 -4.870594 2.436876 -4.939460 -0.196123 -0.957279 -1.814803 -2.549484 0.619048 2.179646 1.968573 -2.129285 0.665261 -4.240437 -0.440448 1.818758 0.287910 -1.015688 0.352445 3.435141 1.033257 -0.325878 6.337623 3.108707 -0.065220 2.795822 3.856867 0.631710 0.959160 -0.751924 0.978341 2.927177
： 2.866992 3.340852 -2.083075 1.225835 1.208325 -4.492596 -0.370923 -2.925010 -0.412539 -0.098583 -0.288285 -2.138881 -0.300335 -5.300631 1.514244 1.268993 0.668011 -1.547554 -3.224723 1.452319 0.246290 -4.106307 -0.879063 0.853049 5.475097 -3.006708 3.774675 2.252820 4.097205 0.676024 1.136345 0.596094 2.495108 1.484783 2.024695 -0.560999 -0.361049 1.333003 0.595061 -1.010402 -1.028311 3.479468 1.168483 -1.063948 1.825853 1.121822 -1.380848 -3.161610 1.434668 2.434513 1.517581 0.615228 -0.928532 -0.549458 3.302665 -1.892637 -1.123703 0.629377 -0.246066 0.401355 -0.313650 1.353818 1.228438 1.874649
） -1.318455 1.861477 -2.145967 4.758006 -4.429396 -2.291866 -2.418857 -0.315989 1.668548 -1.187519 -3.005069 -0.530734 2.695925 -0.836079 0.481648 0.485629 1.331559 -0.707293 -1.152739 1.023881 3.675831 -0.117075 -0.425110 0.671065 -0.988705 -1.248170 2.545413 -0.898847 2.121948 -0.834942 -0.615094 -0.147018 1.835148 -2.066138 0.414067 -1.973151 -1.715124 -0.367710 1.478869 -2.713206 -3.443406 1.937310 0.433331 2.506978 -1.854745 -0.515286 4.001219 -0.040877 -0.177465 2.855491 2.234078 0.481515 -4.327901 -4.873149 -1.920811 2.738777 -2.179611 -2.865397 -0.366575 4.007085 0.326423 -0.085765 -0.197605 0.891971
产 -1.656143 2.456066 4.536307 2.801368 1.561562 1.196259 -5.835916 0.910480 -5.542836 -0.874584 2.992205 1.384969 -5.131962 0.826515 6.709469 0.102758 0.954742 0.872317 4.360327 -3.956057 3.772477 -0.266208 0.752021 -1.928647 -0.114329 4.188921 -2.328831 -0.130787 1.161499 -2.224510 4.070034 -1.641395 -0.680747 0.394772 -1.579283 0.951320 1.551261 2.264434 -7.808331 -1.404169 -2.077409 -0.897655 3.123314 -0.776176 -1.943520 -0.156077 -0.644978 -2.508390 -2.025832 5.333952 -1.432525 -1.734269 1.387490 -4.574897 2.331264 0.091021 5.430901 2.321685 -1.229537 -0.156816 2.894200 0.480103 -3.140565 -3.578735
金 -0.647317 2.548157 2.551303 3.007497 2.206440 4.342674 1.058863 3.493061 -1.318769 2.703953 0.516537 -2.144969 -2.052959 -2.311565 2.031297 -2.304152 1.915860 -1.641331 4.108289 3.679274 4.154952 -1.148499 -0.723338 -2.668236 -5.622714 2.458410 -1.201140 3.911597 -2.445420 0.240188 3.102600 -2.082526 -2.995173 -0.448359 1.335426 2.457948 -2.428790 0.912139 -3.809991 -6.566020 -2.366465 -1.925592 -0.173103 -1.347024 -5.154581 2.145896 -1.564678 0.096325 4.228799 0.100191 -1.351430 -1.039068 -2.634536 -2.605152 2.631793 -0.503316 -3.575437 6.142550 1.188487 2.401993 -3.434978 2.947276 0.312708 -5.354445
（ -2.518341 3.863489 -1.467882 2.495638 1.154875 -2.693406 2.590724 1.919011 0.758227 -1.990965 -1.077415 1.585193 -1.148102 -2.814015 2.164480 1.305065 -2.816797 2.078036 -6.535890 4.326766 1.821993 -2.130693 2.949958 -2.006913 2.807774 -2.078343 -1.020664 2.573567 4.213418 -2.301370 -0.237729 0.449792 3.682456 1.080593 2.106601 -2.319771 -5.691377 -2.204308 1.726327 -0.187233 -2.512755 -0.200948 2.855671 -3.017720 3.795475 3.768169 1.680217 1.028875 0.868509 3.274956 3.303229 -0.284287 4.143138 -1.049913 -0.329665 -2.729430 0.256978 -0.558498 -1.798365 -2.713915 3.757840 1.500401 4.593547 -2.642287
限 -1.391582 2.845008 -4.451509 0.600313 -0.943268 -1.792587 -1.306221 -5.038544 0.659349 2.664863 -4.792417 -0.160590 -1.331871 -3.318712 -2.436944 -5.879297 0.438144 2.652368 -6.178588 2.150412 -1.404291 -2.498731 -0.981415 -0.825752 8.930896 -0.103725 -0.306729 1.393479 -2.717877 5.135678 5.416252 3.376164 -1.354592 -1.014468 -2.270964 2.909108 -6.503735 2.108994 -3.436563 -2.834557 0.654872 2.555418 1.366707 4.486240 -6.234970 4.831157 1.347566 -2.555751 -5.091439 -4.277875 2.112545 -1.374011 2.715957 -7.001951 4.962531 1.685417 6.449835 -1.678343 -0.562697 0.735882 -1.189263 3.365025 -0.409291 -6.742086
中 2.298066 -2.079429 3.479647 -3.059725 -0.930807 0.669975 1.979340 -1.032726 6.049222 1.114264 0.850300 -0.770921 -0.203483 0.330845 1.474767 1.108274 3.930150 1.392218 4.349606 2.616589 1.750413 -3.490384 -3.506482 0.009118 4.401564 1.442952 1.234181 -2.251034 4.029211 -0.332907 0.149641 -1.409726 1.212801 0.899628 2.422192 -1.854248 -0.109107 -6.001252 -2.344004 7.208873 -2.289521 -1.833601 3.773263 3.594904 0.098721 0.044463 -4.319868 -3.284876 1.495855 -0.644831 -1.086524 0.753175 -0.962455 0.488662 1.447517 1.472156 2.018134 -1.269314 1.477696 -0.551665 -1.081259 2.246099 2.403839 -3.182225
． -5.915123 1.964225 -0.720306 1.054631 2.462815 1.067698 -0.962701 -2.814075 0.135615 -1.874420 -1.913179 -3.452103 2.758293 -1.337375 0.782007 0.642763 -0.265930 0.609641 2.907036 0.718225 2.339731 -0.622184 3.668576 1.210513 1.637609 -2.016264 0.599023 0.895759 0.270600 3.783253 1.098433 -3.999777 0.651694 -0.837023 2.993567 -0.551298 -1.053679 2.880307 -3.038902 -2.989140 -0.973055 3.014533 0.731355 -2.972522 5.892487 0.589750 3.503942 -0.017715 -0.721917 1.900724 4.040351 -2.274766 -0.530651 -3.922450 2.279101 -1.421813 0.940735 -1.493831 -0.138196 2.198424 -1.707206 4.141405 3.217233 1.061134
市 1.483372 -3.241322 0.419622 1.711225 3.574103 5.703075 -5.086369 -4.301603 -1.793932 -0.915958 -4.177508 1.488517 2.385237 5.012944 0.423008 -3.568172 2.298339 0.834821 -3.275618 1.858720 -2.335732 -5.964409 3.321228 0.055612 5.102264 1.591321 1.014465 -3.651554 -0.674602 -0.132913 -1.004422 -3.495597 -3.536402 -3.194924 -1.050245 1.034732 1.827557 0.184573 3.852503 -1.414333 2.000019 -1.461990 -0.124407 -2.323343 -0.750595 0.368097 2.294623 -5.514046 0.788629 -0.163344 -2.626411 4.100404 2.356607 -0.638281 3.123798 6.426696 1.936498 -5.542160 -4.780786 -1.697398 2.554701 -3.206110 2.896313 -2.568466
为 1.040947 0.833984 1.600216 0.816264 3.707804 -1.485020 2.938590 -2.966601 1.801748 1.935099 -0.000558 -0.568069 0.818802 0.437657 -2.247453 1.098620 0.120338 1.402422 -3.438737 0.370121 0.002461 1.143845 -2.204256 -0.756554 2.325783 -1.343698 -1.029970 -2.689543 1.996644 -1.468079 -0.344797 -0.472213 1.519182 3.306562 4.170987 -1.692082 -0.010939 -0.873395 -0.314706 -2.222697 1.800798 -2.087848 -2.706015 0.531617 2.682199 0.079165 1.751087 -2.142908 -0.297342 0.339519 -0.026422 -2.105125 0.336730 0.361098 3.114928 -3.894915 0.640083 -1.339954 -0.319323 -0.612635 1.769275 1.563956 -0.339831 1.392176
会 3.856256 -0.786968 -0.485885 1.560731 -2.282053 -0.766139 0.941032 -6.172151 -0.247918 0.263273 -3.958980 -5.179233 1.755414 3.809952 2.078502 1.665142 -2.016738 2.344306 -3.102426 0.712603 -0.189526 -0.359001 -0.873306 0.862016 -0.149618 -1.619179 2.560195 -3.406827 -4.788011 -1.926358 -6.659308 0.243273 0.415179 -0.204854 -4.171710 -2.702675 -4.753967 -2.339450 -5.951958 -1.905757 2.578619 5.186158 0.882827 -2.279839 1.284503 2.486171 -3.371509 1.017021 -0.598473 0.879770 -3.302651 4.159492 -0.423206 4.515460 3.132579 -3.164128 1.952204 -2.076160 3.413235 2.766143 0.691251 -7.115666 1.321440 -0.383278
国 -5.774476 -0.859577 -2.603983 -0.548878 -1.326167 -3.540280 -0.605570 1.743981 1.027344 -0.383073 -5.411712 4.483461 1.098679 -2.511983 -1.332379 2.076722 -3.831957 -2.565491 0.983253 -0.383021 -3.131445 -4.916929 0.961088 -3.962393 -0.953962 6.569906 2.249987 1.706450 -2.241328 0.103358 -2.560435 -0.155884 -6.282818 -0.593108 0.782975 3.351785 -2.619762 1.721834 3.380730 -1.987661 5.384398 0.830196 -0.675653 0.085248 -4.199758 2.104198 0.595876 -0.962856 -6.096262 -3.795635 -1.331522 -0.608642 3.656575 3.476934 4.857825 4.397166 -5.217700 2.834563 2.013916 -0.488709 0.199925 -0.125564 -4.905612 0.590964
上 0.952617 3.948170 2.832872 0.050020 -4.579408 -4.639184 2.555925 2.421681 1.286127 0.511801 0.575139 0.626009 -3.587053 -6.290482 2.535293 2.882001 -3.297116 1.059041 2.797314 -1.342415 1.994136 4.874154 -3.482829 2.846416 -5.041201 0.226170 -3.256518 1.416533 -2.013602 -3.986542 6.246740 6.408492 1.360911 6.856341 1.014775 -3.284408 -2.113925 -2.207729 0.397112 0.145419 -0.934348 3.261765 0.564234 -2.881917 -1.529286 1.304024 0.478881 -5.958770 0.147460 -6.308537 2.777241 -1.164286 -0.289712 2.164797 -5.624848 -4.975326 -0.769087 -0.114457 2.405709 -2.259625 -3.754620 0.433867 -1.748030 -2.220992
券 2.997272 -5.859538 -5.900131 -1.326027 -0.585494 -0.120701 -3.101196 3.200816 1.576781 0.998020 -1.897679 1.639541 4.543236 -3.132448 -3.300270 0.792642 0.894027 8.307262 -3.334163 -0.360383 8.626684 -3.194492 -0.377913 3.679176 -4.216482 4.846630 -1.681786 3.670621 -1.955885 1.054307 0.383638 -1.656058 -3.845690 3.484372 -1.114942 1.636178 -3.737347 -3.273178 -0.733174 -2.432230 0.620099 1.280163 4.840242 4.170787 -0.129154 -0.535425 -1.161959 -5.755069 3.251133 1.693808 9.177238 0.736293 -1.831129 4.059637 7.180069 1.675381 1.819926 -2.459748 0.116142 -5.073079 -1.816406 -0.224880 1.428937 -1.790982
投 -0.921899 2.152407 4.245089 8.772345 1.884364 2.126989 -3.141621 1.546589 -3.444039 0.664455 -0.983200 2.567023 -5.607775 -0.903509 1.688709 3.210904 0.035426 0.902658 -1.628387 1.078369 4.983933 0.236824 -1.590518 -1.757093 -3.153630 4.018945 -3.685848 1.973000 1.155884 2.935252 -2.486206 -1.521872 -1.866858 0.971782 0.856714 1.811968 1.826026 0.067438 -1.241354 -0.629212 0.080930 2.205787 0.839151 1.611662 -3.133216 -4.809612 1.979996 -3.916082 4.246388 -0.184566 -1.744763 -0.734249 3.147828 -1.432156 1.963461 -1.448210 1.115993 3.428837 -4.011913 0.759236 1.032550 0.873624 -2.370430 -3.407005
事 0.933008 -1.643940 -2.131650 -7.878953 3.058111 -1.964954 4.677218 -7.392776 -3.967431 -4.357723 -6.162892 -0.118726 1.084822 5.697053 2.879062 1.223656 -5.831941 -6.204137 -6.041887 0.063572 -1.165107 -0.350697 -1.445453 -1.839388 -2.676777 -0.367122 3.912470 1.283186 -0.548922 -0.226240 2.803697 1.613468 -1.661376 -0.817484 -0.316758 -0.111031 -4.286598 -1.623408 -5.788497 2.657576 0.971160 -0.313766 1.556839 1.972006 5.286124 -3.282584 -0.691378 -0.534632 4.503052 -2.170591 -1.016907 2.166034 -1.790202 -5.116841 -6.025670 4.788689 -3.412891 -2.125137 7.315490 5.784343 0.813768 -2.128800 0.250614 -3.479546
务 -1.307714 -2.364380 -2.262457 1.697847 -0.046731 -2.671226 -2.252783 -1.629580 -4.661747 2.544237 5.939382 2.836028 -1.547619 2.773784 0.933213 3.866469 4.851851 5.509844 2.276894 2.003476 2.305197 1.196820 2.283025 6.043933 1.832352 4.121817 -3.780352 1.287615 3.127221 -1.787365 0.281308 -4.369349 -3.223204 0.025258 -0.128517 -1.427082 -2.281601 2.075930 -5.896694 -2.715106 -4.127662 -0.629191 3.403282 1.282683 -3.541627 2.688716 -7.642397 2.938562 -0.854785 4.084725 5.110298 3.671637 -2.301066 1.207457 2.258169 1.298568 -2.245134 -3.322341 2.289900 -5.513544 0.720330 -3.647799 -0.349424 -2.300079
３ 0.379233 0.868886 0.416332 2.158121 1.875835 -0.099276 -1.063667 -1.676388 0.702949 0.875078 0.889892 -2.480119 0.199223 -0.301497 -1.659034 3.662672 0.139294 -3.153805 2.619680 -0.217556 2.792728 -0.521987 2.061743 -1.912909 0.041531 -2.008192 -0.764504 0.033593 1.446286 -0.684633 -1.536448 -3.161430 1.352763 0.227574 -0.643883 1.875443 -1.010607 -0.760861 -1.402522 -1.792992 -0.515743 2.999556 1.141566 -3.579674 3.320921 -0.116868 2.668053 0.976422 -1.867426 -1.618327 2.816041 -1.925406 0.124990 1.404996 0.420579 5.057276 1.134174 -1.702293 0.026335 0.852871 -1.289454 2.901435 1.556619 0.171577
期 -4.980885 -1.107414 -0.670344 -3.452262 -3.872638 -0.711271 -0.336117 1.569826 -4.988297 0.267487 0.111407 0.665593 3.244658 -6.406132 0.356529 5.251425 -2.373944 -1.480617 -0.453791 -7.146750 6.719989 5.520291 3.044133 -3.426841 -4.036650 -2.747862 -0.855081 0.863978 1.501874 0.438641 0.737662 -7.267422 2.704662 -2.404277 0.132491 -4.917482 -0.737215 -2.046233 0.321469 2.126896 -0.016926 -1.979104 -4.135032 1.723991 0.488381 2.986542 2.810327 0.291555 -0.468609 1.208686 0.645070 0.028903 -5.208632 2.744696 3.202406 4.974320 -2.596967 5.429961 -3.674399 -1.485832 -1.516465 -4.369851 0.916919 -3.709786
日 -0.765620 -2.699395 -4.308737 -3.167906 -0.178395 -2.669781 0.811390 0.413156 7.385233 2.930463 -1.302322 1.533249 6.859274 -1.815679 2.821188 1.321855 -3.548525 -5.897853 -0.477816 1.099021 4.313115 -1.331664 -4.231022 1.868241 -1.276699 -6.321387 -4.272688 -3.378073 0.180042 -4.820089 2.177289 -2.071126 -0.524478 3.490101 -3.252731 -1.283298 1.965612 -0.687719 1.195529 0.784110 -0.564822 3.553505 0.505740 -0.241676 -0.082920 0.464763 2.831524 -0.159972 1.537612 -0.536560 -1.034353 0.327191 0.972633 -1.626168 1.908617 0.639853 -3.082267 0.453597 -3.422081 0.254041 -2.647721 1.063742 3.876787 1.055395
和 1.822593 0.519180 1.030632 1.080499 1.940001 -1.776464 2.914666 -0.035196 -2.595555 0.564905 -0.729111 -2.211902 -0.537459 -1.098869 -0.449905 -0.674581 0.854540 1.375507 -0.666869 -0.794434 -1.995017 -2.819894 0.054469 -2.457976 3.894333 2.421671 1.200763 -0.331463 -0.788577 0.382091 -1.188669 0.391878 1.912965 2.527554 1.908616 0.419509 -1.147298 2.134495 -0.664912 1.620399 -0.806467 -2.331710 1.826548 -1.984805 1.115840 0.954529 -1.306238 -0.399683 0.600653 0.806389 2.311565 0.273852 0.881016 0.764789 2.183508 -1.948504 0.433902 0.371479 -1.878954 -1.387326 1.467650 0.689108 0.386777 -1.713687
理 2.254036 4.982043 -1.859671 1.081768 -2.068607 1.476958 -1.029316 -4.398022 -1.068215 4.104766 5.944314 -3.660973 -1.153692 4.855851 2.736933 -4.632927 -1.129720 3.877035 -1.136390 -7.272857 6.306406 1.944188 1.173997 2.339903 1.855427 1.385103 3.422738 4.002791 0.099790 2.591882 -3.849794 1.204172 -0.102391 -3.118055 4.635333 7.038308 -2.698966 2.067427 1.999552 0.470902 -1.985725 -1.246328 6.621593 1.343496 -0.510665 -4.178799 -5.970631 0.892624 -2.393431 -2.542405 -0.962547 -1.472682 -0.422981 2.941017 1.429483 2.447019 -4.200862 4.299419 0.723306 -5.894139 4.032331 3.280316 -1.751485 -5.739511
经 2.171423 -0.019600 -0.505442 -3.019399 3.803230 1.185757 1.452546 0.275521 -4.106024 3.300275 5.142500 7.053415 0.699292 0.308097 2.163237 4.938049 0.103375 3.741171 -0.610679 -2.619965 -5.003463 -6.429519 -6.444846 -0.975353 0.030941 5.744334 -4.306610 0.372281 -4.883645 -4.165987 2.503357 0.085689 1.915974 -3.968829 0.676406 -0.765076 2.363547 -3.908233 -0.701098 -1.737145 0.518117 2.238656 -0.238236 -0.527770 3.794186 3.000978 -0.280135 1.514960 -3.226626 -4.210206 5.184567 -0.604210 3.062097 -3.296149 -2.509728 2.385891 -1.291520 -5.336083 -5.983016 4.338636 4.258646 -0.679730 -0.724255 0.626419
关 -0.731431 2.567624 -3.573976 1.410674 -6.914472 -3.711468 -4.240451 -3.497924 -4.873045 -0.253475 -2.253353 8.223792 0.450194 2.309231 0.651014 1.138726 0.135510 0.906556 -2.299143 1.252423 -1.960532 1.265356 -4.809825 -2.396324 3.743142 -2.874187 -1.678113 0.691963 2.165783 0.764926 3.057177 6.583055 -5.731002 3.046018 -1.618209 2.549848 0.189131 1.826457 -1.814977 -0.387394 5.476504 -0.646259 3.767224 -5.131460 -1.302568 -1.828566 -6.463519 2.806395 -0.463159 -2.726587 1.256038 1.585773 0.750334 1.123087 7.386496 1.375654 11.092169 2.914933 6.761176 4.616448 -0.534316 -1.769523 6.528260 -1.848350
一 3.470672 1.932386 -1.142451 -2.246949 -0.278417 -1.878866 -2.517287 -0.876634 1.253779 2.727315 -0.535711 2.238353 0.817457 3.705892 -0.866637 0.155965 0.252033 -1.995954 -1.342853 1.053455 -2.350870 2.679908 2.216767 -0.885243 -1.897344 -5.416012 -0.339874 -1.066791 -2.367023 -2.156657 -0.384137 3.904437 3.736948 2.433663 -1.585539 -0.542639 0.634889 -0.226186 1.205642 0.732546 0.327786 1.936481 1.661166 1.215051 -4.772154 0.463454 -2.529874 1.782528 4.285500 -1.040744 0.351950 -3.207856 -2.626032 1.795770 1.164289 6.259600 -0.767788 2.031924 -1.475642 -3.255717 5.698002 -0.518866 -0.591853 2.571690
在 4.186355 -0.534817 2.581990 -1.523853 3.066901 -2.352298 -0.138111 0.658579 -0.570270 -1.552206 0.939532 1.643718 0.001773 -1.553936 -1.459338 2.036702 0.748473 -1.540754 -3.300814 -0.860408 -0.220848 0.881826 0.493046 -0.367425 2.799572 1.307526 -1.619420 0.989519 -2.058661 1.790246 0.359932 -1.411108 -0.987732 3.526464 0.094027 -1.257925 3.248590 0.991130 0.766638 0.798547 2.421252 -0.286406 -0.061757 -2.858900 0.000965 1.798390 0.177689 -0.554794 1.529931 1.481923 -0.724371 -1.016431 0.721769 2.017685 0.601705 0.769334 -3.644544 -0.317620 -0.891353 -2.276593 1.145526 -0.988030 2.054746 -1.031293
证 0.202359 0.527234 7.501639 -3.553186 -3.712151 -3.846572 -0.682667 -1.976197 -4.193679 0.334352 -5.127200 0.756597 -7.462612 0.162525 5.449992 -2.691385 -2.591001 -7.269511 0.834047 2.238943 -2.001888 0.004735 -6.385036 -0.863039 2.545222 -2.173448 2.829667 3.735181 1.551124 1.159577 1.785668 -7.700574 2.750849 -5.314405 3.142275 -0.633926 0.375833 -3.433149 6.630541 2.578312 0.671327 2.616938 1.770833 0.500869 1.180140 3.588951 0.447066 -2.248029 -7.983353 -0.267857 -2.543684 3.697870 0.811839 2.479930 1.839567 0.218402 -2.818514 -1.103653 1.074904 6.516139 -0.019378 -0.719185 -4.037187 -9.309456
大 2.238279 -0.456589 -3.865918 2.418034 -0.023645 2.303322 0.718920 2.207915 -2.082103 -4.837372 0.973327 3.774045 -2.149823 4.036912 1.306804 -0.579509 1.441480 -1.614766 4.472281 -1.117720 -1.199751 -1.266921 1.323133 -2.378902 -0.074599 -0.631629 -0.607504 -3.181030 -0.857119 5.196725 -4.999007 5.542140 -0.454330 4.422737 0.068780 -5.033258 -3.956420 -1.742913 1.500332 -1.695248 3.087889 -3.138692 -1.772249 -1.033402 4.642334 -0.882644 -2.164799 -4.698310 1.554407 -0.176382 -1.433948 -3.094093 -2.207197 0.675747 2.652848 3.116307 1.284428 -0.655954 -0.811525 -0.584580 -0.747506 0.695544 -2.829708 -3.340616
及 4.017181 1.479549 0.359871 -0.698098 2.431241 0.200624 5.124575 -0.915566 -2.848960 -1.435760 0.610755 -0.488804 -0.494832 -5.285753 -0.235822 3.000063 0.296021 2.445276 -2.714801 -0.605401 -1.365863 -0.683460 -0.761274 -4.244978 4.257286 1.279960 1.157725 0.467272 -2.579381 -0.407065 0.365794 2.498710 2.636862 4.725076 3.034284 -0.044113 -3.281915 -0.214419 -0.363461 2.815411 -3.228885 -2.483067 3.730004 -3.403552 0.045559 1.620188 -3.339317 0.319930 1.528720 2.482520 2.281453 -1.360121 1.387778 -1.028277 1.022301 -4.496387 5.327185 -1.054770 1.120690 -4.012414 0.094725 3.551927 2.661858 -5.353252
５ -0.443473 1.394557 0.872959 1.399197 2.491585 0.733719 -0.832992 -2.290093 0.528737 0.853109 0.214082 -2.299127 -0.237465 -0.712467 -1.905399 3.793734 0.647355 -2.482184 2.941629 0.059834 2.716079 -0.145686 2.071385 -1.463356 0.413553 -1.932138 -0.224992 -0.369755 0.823629 0.433200 -1.256337 -2.244055 1.316501 -0.273050 -0.135875 1.663865 -1.089740 -0.159685 -2.182233 -1.661512 -0.731369 3.010533 1.171995 -3.939775 3.123205 -0.651996 2.721237 0.647362 -1.831124 -1.026508 3.033056 -2.219730 0.819781 1.761717 1.265374 5.138147 1.510742 -1.975147 0.935138 1.444289 -0.946827 2.772490 1.383732 0.430717
元 -4.886491 -1.772992 -2.596509 5.464787 0.182843 1.559090 0.939226 1.695169 3.969898 0.622020 0.421686 1.124196 4.362495 0.145542 5.653281 -1.911736 3.992201 -0.700220 0.126113 -0.713035 2.133720 3.540144 -2.098722 2.341222 -3.907263 -4.985097 -1.003245 1.104253 6.370804 1.705524 -1.289557 1.451827 1.997023 0.466493 7.912315 0.552019 4.144318 -0.298173 0.333290 -6.634161 -1.765170 3.615225 1.287031 0.715631 5.767455 2.738743 5.807152 0.002783 -3.112020 0.365752 -1.595759 -3.557372 2.066835 4.629941 -0.801905 1.372175 -0.504801 6.698601 9.007576 2.694108 -1.958176 2.088728 5.684937 -0.774946
东 -0.512677 -1.592463 3.590450 -0.911518 1.224971 0.449290 3.375553 2.418586 -0.691901 2.299355 -3.767137 1.887153 -2.974452 -0.687735 -0.771772 -0.723105 -1.856572 0.375857 -3.003958 5.991283 -3.733247 -1.561506 0.696831 3.719537 -1.072268 -5.079121 -6.729358 -6.413332 -0.279464 2.693584 -2.755563 2.524089 -3.282007 -5.532903 -3.352483 -1.291914 0.478947 -1.698527 3.674458 3.162972 -2.779246 2.516528 -0.607819 0.553752 1.984800 5.862229 -1.376184 -2.954040 1.575247 -3.806626 0.078478 -3.703199 0.764555 -1.545871 -2.891744 4.544723 -0.530448 -9.993639 6.644222 -0.742705 -4.096063 0.087588 -1.467795 0.977949
份 -0.088388 0.887083 -0.540821 1.729434 3.209572 1.264642 3.647139 3.311424 3.385721 6.695138 -3.681718 0.400038 -4.986992 -2.858107 -3.015258 -0.753428 2.668629 -1.256506 -4.382248 3.031646 4.285250 1.533370 -4.327267 3.418346 -0.033516 -4.859110 -6.279930 -2.562953 -1.366146 7.357584 -2.025876 -0.974503 -2.009891 -0.906914 -3.228641 -3.117118 -6.113482 0.029762 -2.309545 -1.635876 -0.268104 -1.934965 -2.981661 4.179931 0.238360 4.306129 -1.154361 -3.733617 -4.146301 -3.724895 0.971358 -0.615947 2.636121 -1.755448 0.803431 4.347955 0.288718 -7.797827 1.444894 1.875364 -3.519310 -3.712194 -0.282875 -4.077116
合 0.416133 2.483541 -0.611682 6.878345 -0.914279 0.523793 6.144594 3.855468 -5.236396 4.601434 -1.589908 -1.307802 2.142242 1.903306 5.619800 3.847634 3.424829 1.337204 -1.119651 2.046404 -0.497697 -3.388285 -3.968616 -0.399721 -0.217639 -1.694754 2.538092 -2.873827 3.252696 -3.201877 2.678007 -1.108038 -5.377430 3.308392 1.326712 -0.419650 -0.419330 6.035762 -7.839067 3.494871 9.582069 0.879532 -2.854289 0.226551 -0.273057 3.487432 3.791729 -0.096279 -1.247273 0.486692 5.316180 1.334406 0.068593 6.248081 4.397667 -3.710904 2.003904 -1.602738 -0.597416 8.374077 4.078656 -6.321507 1.415731 2.278001
月 -4.601934 -2.649653 -3.867715 -3.297113 -6.108544 -6.921279 -2.078517 -1.710998 2.364636 -5.991388 0.330972 -1.599836 2.511595 -3.855531 -3.394323 -2.238972 -4.485526 -1.206782 4.766495 -5.520271 -1.280238 -5.343637 3.246405 4.798383 5.752144 -8.086187 -2.522238 3.004109 1.833426 -0.741556 5.059867 -4.458867 -2.901474 -0.779904 0.124356 -4.518486 -0.469075 -6.294068 -0.081601 -7.218826 2.004482 4.742506 0.361723 0.271717 1.209804 -0.831927 0.217200 -2.891918 -3.581069 -1.151969 -6.344932 -5.279353 -4.860803 -3.169793 0.146898 -0.685183 0.096235 -0.169639 -3.233213 3.880011 -2.310016 1.727512 5.638800 -3.161915
４ -0.790797 1.541753 0.616448 1.810541 1.973413 0.764988 -0.091682 -1.761638 0.284115 0.238886 0.199078 -2.085556 -0.122175 0.194218 -1.031055 3.443119 0.530741 -2.100161 3.346485 0.427989 2.718470 0.178133 2.329675 -1.970060 0.065317 -1.296847 -0.757744 0.228048 1.053483 -0.171012 -1.732664 -2.482465 1.520251 0.011773 -0.242969 2.164984 -1.163372 -0.011695 -2.042766 -1.631061 -0.026443 2.890425 1.061364 -4.084242 3.350515 -0.611445 2.915482 0.964669 -2.351523 -1.266190 2.681540 -2.221659 0.202514 1.401617 1.048395 4.375307 1.161497 -1.642347 0.833883 1.291599 -0.871725 3.298133 1.506082 0.518464
９ -0.828548 0.217023 -0.264771 0.758117 1.306586 0.317678 -0.323357 -2.935870 0.902949 -0.727990 1.376092 -1.996747 -0.027375 -0.186126 -1.782604 4.221378 -0.016983 -2.860890 4.035104 -0.063967 1.969746 -0.621553 1.985770 -1.221583 0.472546 -2.123672 -0.903840 -0.538343 1.521273 -1.458642 -2.308926 -2.934941 0.925361 0.573905 -0.982371 1.294308 -1.181002 -0.645224 -3.188049 -1.680122 -0.585896 2.922713 1.137194 -4.487976 3.289159 -0.407045 1.525818 0.720442 -2.515047 -1.914532 2.342108 -1.913314 1.071007 1.124017 0.936388 4.168481 0.878840 -1.001723 0.398422 1.781453 -0.906451 4.080811 1.614971 0.178595
定 2.412374 -1.265417 -0.482576 4.474481 -4.955017 3.897019 5.196549 -0.840870 -2.904203 -0.134034 -4.091210 -2.518880 -0.843177 0.203831 -0.013204 0.274740 0.125266 2.023984 0.805855 -0.440438 3.307006 7.401318 -0.462793 -3.096478 -0.596885 -0.449225 -2.688509 4.081789 3.582248 0.986123 -3.319583 -0.604180 -0.446906 2.309213 3.427055 7.077886 -5.729826 -4.145897 0.806938 0.901368 4.712602 -4.045734 -1.421750 -2.176912 -0.181955 1.419122 -2.746801 -4.697355 0.762315 5.130981 -0.638621 7.609838 2.918442 -0.077019 -4.059447 0.661358 -4.595347 -3.207012 -2.397583 1.567751 -4.176907 1.887931 6.671613 3.081626
６ -0.207036 1.253035 0.789998 1.143589 1.969901 1.011474 -0.506484 -2.135373 0.700908 0.428835 0.948564 -2.363546 -0.269696 -0.688688 -1.009440 3.873662 0.529360 -2.899362 3.490055 0.448706 2.691110 -0.384756 2.134335 -1.713668 1.017982 -1.776527 -0.440443 0.095670 0.735894 -0.191709 -1.506882 -2.621972 1.594350 0.555597 -0.218177 1.865590 -0.995199 -0.062507 -2.199103 -1.454347 -0.491316 2.986952 1.387579 -3.954105 3.310787 -0.422479 2.477489 0.569597 -2.577550 -1.111125 2.869614 -2.181149 0.189273 1.817038 1.494537 4.449677 1.109181 -1.860550 0.530030 1.382364 -2.040124 2.979040 1.200904 1.312983
８ -0.715826 0.746502 0.352689 1.488769 1.866587 0.921172 -0.389125 -2.495922 0.581724 -0.496932 1.139680 -2.123090 0.134099 -0.593127 -1.570719 3.449907 0.494927 -3.237993 4.276479 0.328614 2.348146 -0.632309 2.566484 -1.722247 1.308938 -1.932355 -0.980681 -0.320904 1.048534 -0.355110 -1.682279 -2.958794 1.044953 -0.126421 -0.541934 1.843927 -0.941211 -0.101636 -2.373421 -1.515517 -0.537811 2.818506 1.045748 -4.046390 3.919485 -0.558793 2.083560 0.303846 -2.456414 -0.532002 2.627464 -2.443778 0.017731 2.344038 1.440819 4.077188 1.384870 -1.073845 0.622506 0.873608 -1.323028 3.843626 1.248163 0.392712
债 -1.242295 3.170593 9.882038 -3.452818 -3.368192 0.640999 0.302227 -0.443136 -3.164107 1.958842 -8.366989 -2.429384 -1.507284 -1.844378 3.645668 -2.193880 -2.631495 -3.423676 -4.624480 -1.966598 5.159873 6.548572 -2.743784 -0.986321 -0.092722 -7.030277 7.319602 -0.163120 -0.080348 -1.474069 -2.019495 -2.137030 11.228537 -0.554745 1.479936 2.434459 6.382594 1.411384 2.200507 1.347202 7.165988 -1.421102 3.169883 0.534952 -1.729430 2.164244 0.446590 0.031761 -2.039233 -0.622008 -0.812811 -1.155680 1.005655 -5.925298 -2.780304 3.349905 -1.211908 4.561890 -2.117670 11.712413 -0.473517 3.187657 1.022919 -5.516161
交 7.403264 -1.746838 -1.298845 -1.939423 0.140948 3.664483 -3.993098 -0.581611 1.458452 -2.656496 -5.638020 -3.195660 -3.092834 3.136325 3.792239 6.687726 0.747166 -4.302077 -6.675748 3.366059 -4.013525 -0.297637 6.615623 -4.016008 -7.051778 -4.208642 -5.060688 1.331071 2.250768 -1.130266 2.416756 -6.255781 -4.707269 1.385240 5.460927 -0.294143 6.532779 0.492568 4.114775 -0.732295 4.547750 3.710952 6.879114 1.148314 1.346601 1.491678 -4.580993 -3.011825 1.456290 -4.579153 3.683969 1.879567 -3.353750 -2.275389 0.823816 -4.068030 4.195540 1.730810 -1.883003 -3.571219 -8.163338 -9.356961 2.823200 -1.973551
议 1.686307 3.302171 -0.523622 0.251099 -5.620281 5.372465 -1.409036 -3.093159 -7.715934 3.069241 -5.009479 4.085225 1.018017 3.184011 0.810736 5.775970 -5.992513 0.434472 -2.735210 3.537903 0.131192 -0.688432 -1.764340 -2.637509 -3.503971 -1.601625 -1.047720 0.564406 0.747181 -0.288574 -3.026323 -1.269682 -10.267075 0.676494 -2.891566 -1.474530 1.242085 -9.839335 5.833783 1.677106 0.782239 1.084303 0.249434 -1.334145 4.620234 -4.477015 -4.967615 -1.014380 -0.117593 7.082310 0.582741 -6.737888 1.640823 -8.756462 -3.149847 1.171651 -3.167876 -0.441368 3.882102 -1.117682 -0.531866 5.226120 2.249091 -1.596129
于 1.844537 -1.432733 5.124152 -0.938738 9.189022 2.360151 2.671783 1.260933 4.107825 3.178583 -2.196585 -6.421872 4.153813 0.537781 5.199358 2.522933 -2.675998 -2.027806 0.963079 0.343944 -0.028748 2.419015 2.325724 1.863713 0.909340 1.411172 -1.772905 0.248409 -7.101622 -0.787062 -1.551983 1.099657 -2.993158 2.962804 -1.050853 -3.834437 -2.618392 1.218445 1.252153 -1.433654 -1.578507 1.621833 2.015130 -1.568103 0.792244 3.207686 3.064533 -2.056300 0.128686 1.440674 -0.745142 1.452335 -1.596332 -2.784781 -4.091356 -0.942381 -8.312683 -1.043319 -0.429929 -3.354135 4.959902 0.311862 1.028012 -4.982435
７ -0.852430 0.868579 0.996367 1.295839 2.333759 1.083389 -0.400708 -2.510105 0.269129 0.233596 0.697582 -2.427115 -0.370839 -0.344091 -1.035795 3.836040 0.605362 -2.507105 3.643337 0.379833 2.724579 -0.014596 2.358805 -1.806126 0.969184 -1.545541 -0.809756 0.086322 0.928368 -0.287628 -1.473327 -2.928987 1.252758 0.058904 -0.013500 1.754501 -0.959656 0.094289 -2.453751 -1.652916 -0.519460 3.081465 1.111221 -4.102127 3.349755 -0.625681 2.565585 0.816761 -2.507744 -0.841367 2.394058 -2.386497 0.002720 1.279475 1.156583 4.731733 1.013610 -1.610363 0.355955 1.277428 -0.931971 2.952238 1.431147 0.619408
权 0.521360 -1.276450 -2.372043 3.018331 3.295858 1.813681 0.290240 2.140802 -0.167513 1.476372 -1.591416 -0.332648 2.800705 -0.789291 -0.365716 0.116622 -5.329941 7.652801 -0.965370 0.289195 4.687480 2.247686 -1.367638 -2.657052 -2.982978 -1.578497 -10.051342 0.544009 0.086330 6.550861 -2.161770 1.999772 -3.014847 0.029981 -0.211932 -2.087252 -3.762815 0.591428 -3.563579 -0.426198 -2.544873 -0.070999 -1.914385 1.366374 -0.502866 1.429698 -0.836213 -1.415847 1.097631 -0.388923 5.672142 0.913769 -3.863493 -4.225996 2.915988 3.025184 -0.106267 -9.050546 3.519306 -0.867828 -0.310786 0.281058 1.324374 2.492254
对 3.003734 3.752562 1.272252 1.744463 -0.840487 -3.545002 0.844900 -2.404959 -2.496498 -2.863895 -1.353109 3.117865 0.856178 -1.231008 -4.221502 1.908238 2.060533 0.248689 -3.314403 -0.714468 0.003951 1.105316 -1.028572 -1.215048 0.589775 -0.048553 -2.935395 -1.332466 0.280595 2.382298 -1.550409 -0.264867 0.057821 0.850593 3.539368 0.668541 5.846471 0.249085 -2.503738 2.883165 0.979139 0.694731 -1.459511 -3.327776 -2.067158 0.346687 -1.920667 2.132662 0.592912 -0.556837 -0.070547 -1.111163 1.158950 -0.433893 0.534206 -2.449699 1.843678 -2.615862 3.717630 0.392238 -0.837123 -2.007362 3.445471 -1.029284
集 0.459400 -3.002235 5.551507 0.936553 0.224192 -1.837982 -2.201144 0.101378 -3.154462 -4.878324 0.070536 5.372357 -0.250043 -3.169829 -5.238255 6.028164 4.320723 -3.418899 -6.128518 -3.444682 -2.587715 5.856216 3.895711 2.805888 -0.156486 -2.288885 -0.135699 0.292166 3.557884 4.084377 -4.014689 8.795150 -3.578160 4.583204 -4.324060 6.207470 -3.328524 8.167729 5.648395 -6.875469 -9.636117 3.732181 -1.132060 6.326230 -1.837167 -5.626897 4.670385 -0.821529 -1.264772 -1.567579 1.161983 1.849502 9.714653 -0.270912 4.089394 2.354732 -2.895967 -4.252922 -2.423715 2.789137 -0.058069 -0.807260 -4.103583 -3.721978
计 -5.552650 -2.337129 4.755983 -4.218226 -3.237803 -0.520768 1.322444 -0.608843 1.844719 1.574919 4.722586 3.453069 3.060211 4.668337 -4.406028 -3.901654 -6.396502 -1.793744 -0.774433 2.308197 0.700847 1.239144 4.328578 -2.345943 -2.496119 -1.923052 -4.358850 -2.931735 3.117033 4.007833 -6.245914 -0.517291 -3.856941 -1.734554 3.476944 3.393554 3.247491 -7.166615 3.433971 -2.229036 -2.918954 -4.604522 8.906157 -2.546170 5.863077 -1.758848 -1.661385 2.411403 -0.642496 -0.722232 3.611128 -4.617876 -5.256095 -10.516949 1.168616 0.701124 -0.050201 7.314828 -2.296110 -5.261477 -0.165534 6.603007 -3.957721 -5.851797
管 -1.824620 -2.271345 8.675718 -2.302234 0.941079 -0.178694 7.619932 2.661032 -3.590878 1.466985 -1.187582 5.079094 -2.535949 3.247403 -3.719093 5.080234 -2.000579 -1.097440 -3.664246 2.276801 -2.477728 -8.728468 -3.060066 -1.471981 -2.169026 6.979387 -0.554699 3.411627 -0.533994 -0.727110 -2.750589 -4.584176 0.218995 2.483536 -3.694955 -3.664725 -5.615416 4.483175 -4.371758 3.553891 0.335367 -1.675104 -2.251455 2.246667 -0.551769 4.257701 -0.595220 3.077979 -0.442152 -2.042566 3.278418 9.011874 -0.704465 -4.096452 -0.935553 -0.394764 3.363781 2.193720 -0.368183 10.292307 -2.832375 -2.826833 1.023962 1.847791
利 -4.745701 3.723089 -4.070328 0.138432 4.496652 2.247624 2.081697 -6.889594 -3.274156 -1.340459 -1.492305 2.808026 5.552073 -1.941286 4.145897 -5.921906 0.746987 -4.383255 -2.885100 6.366924 5.286886 4.204988 -1.248001 -1.938095 -3.015029 -1.920880 -8.812840 -1.620086 -0.402600 -0.173182 -2.513664 -0.608576 4.597129 0.039513 -1.282886 -4.382280 8.403169 4.144525 -3.769458 3.502208 1.112614 0.868181 -2.416095 -8.089071 -2.050482 -1.837539 0.823800 3.602527 -2.983738 1.035309 -0.608102 6.400444 2.240682 -1.589417 -0.400340 3.063420 4.267557 2.031986 -4.893054 2.501783 -4.110228 -0.174685 -3.204422 -3.706212
次 3.163064 -0.345768 -1.162353 -1.888305 -1.178050 -0.193921 0.180859 7.233721 -2.773399 -4.653936 -5.165411 3.305707 4.319612 -5.211748 -2.644807 0.312068 1.140947 -2.862438 -5.517137 -5.147777 4.636149 3.996592 -1.335329 -1.503023 -1.772220 -2.668417 1.551516 -4.794883 -2.656888 -1.416613 -3.847069 1.739939 4.320724 1.610015 1.708389 -2.006959 -1.107781 -8.211271 3.292428 1.984392 1.960949 0.982809 -6.315746 -0.234079 7.283954 -0.628793 6.204857 1.577872 0.033522 1.897426 -0.541763 -0.199128 -3.178763 -3.190621 0.694128 2.171037 4.552351 3.697219 2.723893 -2.285679 -3.212127 -3.005477 5.199419 -2.636256
不 0.066249 -0.656408 3.396683 -1.816849 0.378186 -2.062959 -0.643558 2.189317 -2.341737 -2.018375 2.011084 -0.791676 1.126432 -0.181736 2.454442 5.461131 3.729870 -1.232946 0.049197 -1.621208 -0.361830 4.780287 -2.237742 0.832949 -3.740872 -1.072803 1.430864 -4.476974 -4.801987 4.579411 2.948510 0.989172 -2.465216 1.160994 -0.968308 -0.629121 4.258357 2.805851 -0.916316 2.513706 1.201754 -4.004217 -1.054765 3.076336 -0.598871 0.962482 1.236312 -0.578124 3.717787 -0.812160 0.267745 -4.781780 -0.383339 -0.686180 1.892942 2.841723 -2.851260 -1.056509 -1.881046 -2.488478 3.715127 1.988796 4.515045 3.181195
营 -3.284156 -0.665894 -1.988071 3.583210 -3.434661 -1.425441 -2.449066 2.760332 1.837489 -4.989503 1.884949 1.545321 -1.917534 6.510243 -1.054027 -4.510757 1.749458 -2.921614 -1.535522 -2.390842 6.437747 3.881313 10.326340 4.024921 5.237203 -5.701548 3.875132 -3.160907 3.851898 -2.655507 -2.028985 -6.291787 -0.931710 3.932779 0.322966 3.811468 -1.847323 4.449558 -5.049568 2.199734 -3.063718 -6.582202 4.886775 -0.566582 -5.342485 -0.992757 -2.734056 -1.259254 -4.626704 -2.669714 -2.262675 3.892964 1.230038 -1.744143 -0.146987 -4.084592 -2.725992 8.329324 3.966535 -1.673781 -3.415291 3.775908 -0.719752 -0.233133
其 -8.019486 -2.437083 -0.690922 2.234363 0.349283 1.479098 -0.728759 2.852905 -3.208096 0.190878 -1.131899 2.811145 -2.751234 2.013285 -2.559556 -2.294290 -7.790771 -2.446434 -4.221371 -4.613756 0.290950 7.769419 1.011174 1.717614 -7.421190 1.889750 1.359504 2.673971 -3.137805 1.229901 -0.949753 0.578565 -4.419630 -6.238997 -0.704371 -1.061307 -0.784353 6.412048 0.688081 -8.442840 2.942738 5.463789 2.940339 -5.028904 -1.689724 -0.255438 0.292214 -2.085835 -2.111137 0.018297 2.045788 -0.706300 0.728889 2.373160 1.158247 0.605322 -1.798739 -3.444683 0.832985 5.534496 5.413056 -2.944525 -3.673251 3.341134
方 0.588198 2.326226 2.158023 4.899913 -2.845588 7.296015 -0.978541 1.038581 -0.180266 5.469385 -2.061870 -3.465200 4.800228 4.383558 -1.981715 0.690995 -1.996330 -0.693577 1.320251 1.124944 2.135934 3.940198 -1.686731 -3.617366 0.876239 -2.815442 3.449754 3.571963 -5.600544 0.616702 5.221251 1.827697 -3.000290 3.239988 5.476035 -2.220213 2.714560 -3.566608 1.281497 1.501490 0.368228 4.144777 1.304469 2.650667 2.320376 -5.197626 -2.299023 0.023646 -3.511735 9.926253 3.565042 3.957945 6.138455 -0.970355 -0.172796 0.768329 0.745860 2.391120 3.458666 -3.936454 -7.557180 -1.980888 -2.567354 4.643340
项 0.878045 2.873005 2.577663 3.448981 -7.002310 4.341392 -3.433857 8.244299 2.697932 1.831623 7.121758 -6.091841 -1.620568 0.187465 -1.591860 3.367448 5.868418 3.423644 2.000314 -0.607098 1.576255 6.734054 1.158887 3.506617 5.661258 -3.100697 -3.628452 1.438443 -6.098071 -2.903829 -7.145583 1.214052 0.762643 -1.322726 1.664417 -1.060202 0.184042 0.228392 6.620469 -5.684332 2.472255 1.545851 -3.045048 -4.494805 -0.198369 4.241783 -0.644667 7.436702 -5.617620 4.068775 1.623300 -1.101898 -1.947733 -2.276459 7.200785 -6.631223 4.611558 3.144872 -6.268291 -2.602507 -0.124980 1.348154 1.187805 2.681361
以 0.987722 0.791442 -0.429867 2.094017 -0.587218 0.273207 -5.948830 -3.211394 -0.940774 1.228235 1.646853 -4.091950 2.789942 1.539844 -3.022844 -2.695984 4.349229 -2.887306 -1.962293 -1.644167 1.081886 -0.086727 0.040898 0.050750 -0.934973 -2.619401 0.963789 -1.464514 -1.020440 4.883654 -2.346450 -3.314827 -2.010901 -1.901296 -0.984039 0.193944 3.298621 2.876939 2.613975 -0.799611 2.313112 -0.278862 -0.818816 1.337931 -2.416973 2.046332 1.976314 1.560085 1.839144 1.584454 -1.989319 3.095034 -2.971404 -1.616034 -0.444886 2.988553 -2.864301 -2.262151 1.445406 3.260218 1.149278 -1.308679 -1.909125 0.938653
法 2.331897 1.072913 -2.860355 -1.990142 1.163386 -2.866972 -2.143946 -4.901097 -1.425148 -0.463759 -3.262785 3.371209 -1.321424 -1.205269 8.102840 -0.307757 1.584465 4.511850 0.781882 -2.028475 -0.119712 3.625270 0.562159 0.523663 0.336901 1.365980 -1.075312 3.113720 -1.178769 3.794493 -3.755222 -1.982460 0.545173 1.388204 4.245981 5.642509 -4.902433 0.383347 3.994584 5.966222 -0.281127 -0.242370 2.720302 -2.098328 -5.514027 -3.935603 -4.184330 -1.085839 -4.473432 -3.593785 0.724798 -4.219276 -9.083653 -1.240986 0.598768 3.625583 -0.512214 -3.459145 -1.847972 4.472308 5.245579 1.384773 0.862947 1.934903
用 2.131766 0.923756 5.033647 4.794468 -8.299477 2.429605 -0.807261 2.063775 -0.798777 -4.399136 1.334467 -0.355847 -0.733410 3.485163 -7.570951 3.118521 4.424955 4.083190 -2.881746 -3.062046 -4.700946 -1.312533 5.197983 -0.595318 -0.844849 3.456610 4.783830 1.901158 2.122527 0.166050 4.178628 -2.163718 1.805823 -0.165436 1.455264 1.170131 5.559018 -2.086732 -4.710786 -5.161895 -0.340905 -3.522709 0.943802 3.385260 -0.090636 -0.872043 -1.277211 -1.441989 -3.635994 0.890285 -0.878566 -5.573418 -7.153086 4.574285 2.523736 -2.616827 3.090756 -4.123623 2.428468 4.519460 0.161661 0.947685 -0.056100 -3.663432
工 5.314480 -2.310229 1.787876 2.608231 -0.024410 -3.737448 2.667841 -0.704707 3.799748 2.739831 5.347898 -0.205254 4.039101 2.876114 -1.265846 -2.312469 2.900060 3.578230 1.554765 -4.892623 -3.542055 0.451456 -1.673815 3.509317 2.585210 4.986465 -0.571422 -0.108542 5.990147 -9.293650 -0.636668 -0.178736 -4.817221 4.154838 1.779225 -2.132556 -7.212812 4.046559 -2.733755 -3.843713 2.775426 -3.962226 -1.174828 4.851696 6.481368 -0.181833 -1.382360 0.742527 2.864300 4.453067 0.344869 0.468563 -4.036017 0.619650 1.121421 8.034924 4.116490 -2.834779 3.549729 0.287858 0.359561 1.647275 -4.585242 2.767539
易 -3.023105 3.988311 7.531888 -0.059914 -1.433097 -3.793247 -1.787566 4.105889 -8.798608 6.521919 0.257322 4.685004 1.711999 -1.178807 0.052140 -3.690578 -2.519975 -2.614982 3.992565 -0.902993 11.801088 -1.150744 -1.550442 0.962655 7.625246 -2.075600 1.538705 -2.771685 -2.241938 -2.970340 -0.014829 2.462900 -3.675476 1.775726 -5.777278 3.836890 -5.304611 -5.478728 1.626037 -5.012130 0.239344 -5.666875 4.027546 -6.584394 -3.539484 0.176542 5.292252 -3.817030 3.401500 0.061481 -1.502919 -2.577065 -4.215634 2.935671 -1.666833 -2.659231 -1.460361 -7.538582 4.126294 1.874100 1.680872 -3.505636 0.952827 2.643183
通 -6.335722 -0.415010 -1.917370 -0.975079 3.173443 -4.628651 -1.016547 3.153206 -1.872538 1.839743 2.467894 1.273424 -2.604425 2.011472 0.341067 7.329551 6.641892 5.925190 3.364948 1.766446 2.728455 -3.939733 -8.399502 -4.492556 2.991405 -2.961086 4.311417 -3.814809 -7.091875 5.996847 -0.457300 4.144538 -1.781635 -1.308450 -7.198184 3.812122 2.145019 -9.712441 7.428942 -1.296524 -6.764054 1.554482 0.619825 -4.660645 -0.709899 -0.299831 1.448973 -2.857072 2.722484 -0.466204 1.005146 -0.287211 0.402588 0.837107 -4.141197 -1.204633 -3.276193 -0.080657 1.786041 3.229548 -0.529487 -7.358751 4.056828 -5.839136
； -1.648549 2.555522 -1.665975 -0.143171 -0.871589 -1.204628 1.482072 -0.854652 0.477175 -0.070166 -1.897614 -3.022705 1.377091 -1.293184 2.259308 0.905750 -1.099636 0.502349 -1.368335 -0.915592 -1.088495 -1.387794 0.171329 -1.838678 2.565657 -0.970254 1.961354 0.456702 1.302237 -0.780241 0.179189 -0.219302 1.284497 1.835604 1.408680 -1.795363 -3.120891 2.008263 -0.540069 -0.349180 -1.871850 1.050488 2.942729 -0.198129 1.101318 0.464282 1.141224 1.319071 0.563032 1.817180 2.208748 -0.298936 -1.694344 -3.031276 0.530684 -1.052476 -0.055326 -0.097650 -1.241311 -0.728604 2.026093 0.240483 0.455404 0.180775
所 1.567914 2.327395 -0.813585 2.685766 0.401413 4.295351 -3.636215 1.696980 -1.436756 1.860824 -0.683131 0.563596 -1.447158 -5.857071 7.264382 -1.340411 -1.272877 1.349477 -1.671201 2.955268 2.576237 5.212395 -3.848681 -1.885000 0.119263 -1.061033 5.222553 -2.375103 -7.196560 -0.831875 -3.016425 2.771376 -0.884721 1.337201 -0.941562 -0.109326 -0.401063 -1.920941 -0.133409 1.272636 1.171733 -1.563462 4.132733 -1.781045 -0.613266 -2.101240 0.269041 -1.097147 -0.295755 -4.727661 1.182372 1.067042 2.846197 0.089676 4.038165 2.809234 2.810682 -1.025133 -1.972218 1.125982 0.102352 1.844309 4.226017 -0.521202
收 -3.204857 1.217711 -0.834911 1.257075 -2.240461 7.363518 0.226311 2.877161 -0.749121 2.499661 3.562235 3.235890 2.649474 -2.489891 5.166271 -3.435289 -2.172996 2.138665 4.530724 -3.944143 -1.940907 0.817304 1.793869 -4.282409 -3.283872 -1.455053 -11.717244 5.263578 -0.883197 3.300499 -7.010167 -5.097712 7.783089 -0.381614 2.147124 -1.526220 6.698215 -4.217975 -7.346083 -0.672694 -5.382274 -3.612722 1.594025 -3.630863 -2.257033 4.359827 6.292304 0.672147 5.579535 -1.154736 5.725847 2.022340 2.750189 -6.426900 0.305824 -0.627291 -0.736217 -4.244782 2.291042 1.940467 2.046918 -0.730991 -3.648540 -1.774671
重 2.789897 5.115273 2.138815 0.400790 -1.602093 -6.324852 5.588741 -3.211107 -3.625718 2.232860 -3.634230 0.025203 -2.322179 -0.057172 0.455837 0.981607 -2.064105 4.065017 0.549249 -0.809476 -1.499578 -2.565166 5.659441 -0.765159 -3.700220 -0.046784 -0.464108 -3.123919 -6.160268 -6.059578 -0.520768 4.155092 -8.347243 -3.005035 -1.008658 6.138005 6.853112 -0.569033 -0.935797 -0.528354 4.288819 10.533813 5.013009 3.764319 -2.860497 3.376824 4.279803 1.687797 4.815176 -1.372557 -1.525517 0.489115 3.791107 -1.326617 -3.180189 0.216730 2.010193 0.328813 -1.109100 -2.772489 -0.381680 -0.036759 1.956721 2.612183
出 3.644628 1.676579 0.927737 3.552702 1.504105 -2.340415 4.685314 -5.780825 1.818350 -0.047679 5.146281 2.122236 -1.123253 -0.299844 1.363684 -1.177338 3.658662 2.012689 2.164143 -1.821901 -4.156854 4.995668 -2.141478 -5.646243 -4.003236 1.311537 -1.313338 -0.649327 1.111537 -1.701072 -1.442657 -6.627072 -2.628442 4.762052 -0.085667 4.830982 -0.095225 -2.173710 1.330541 -2.650234 4.436245 6.210596 -1.282656 3.310017 3.303914 0.472436 1.321891 -0.114546 4.322115 4.096838 -3.130164 0.378914 -4.254904 -5.344001 7.339761 -2.922587 -0.558446 -1.258240 0.297601 1.091123 -2.769881 -0.211421 -4.495099 -3.010974
分 4.295730 -2.009783 3.184190 -2.928673 -1.335894 5.073606 3.653103 -4.290099 -1.131988 -0.542004 1.063249 0.033754 -1.754916 3.473982 -3.555339 -4.864522 4.650949 -1.665891 -3.923974 1.778041 1.550100 -3.885140 -0.969623 4.206656 -2.637823 -0.979334 -3.591311 -7.225375 -0.354191 1.780247 4.874135 -0.898219 -1.816093 1.475459 4.271363 -3.663426 -2.540195 0.070476 3.251840 -1.191710 -2.306591 2.025384 3.485007 -6.695987 -3.572129 -2.977536 -0.424245 2.921545 2.250474 6.440167 5.914526 -5.420937 2.653046 2.818768 -4.045474 -2.857941 -1.478142 -0.576471 -4.662055 6.180162 -1.969058 0.925117 -2.861094 -1.544741
任 7.455688 2.273245 -4.959833 1.037321 -1.290323 -0.395511 -1.482628 -5.344055 7.818401 1.500349 0.088140 6.732712 -2.596207 -3.922501 -3.258020 -1.554908 -4.846511 -1.525306 -6.021363 -1.158135 4.846376 -0.591536 -3.858626 3.467976 2.535456 10.896056 3.626547 1.833185 -1.519039 0.973515 -2.536146 -2.317890 -6.309563 3.244740 2.914439 -1.077800 -0.283448 -4.797565 -10.298788 -1.946183 -2.044910 0.111219 -1.447515 -2.575756 0.798317 3.150488 0.933849 8.719083 2.473010 -5.259240 1.358465 -1.934772 0.309163 -0.755491 2.384032 0.288725 -7.129686 -1.048886 -0.319148 2.933255 -10.231780 0.769648 0.373546 0.567595
万 -5.624333 6.947958 1.648195 -2.968648 2.693889 7.171757 0.581853 -2.042966 1.993804 -2.147813 -4.290395 -0.400797 0.627540 -5.443500 -2.948600 -0.006341 4.280253 -0.955336 1.966981 4.476408 1.031179 -5.364872 2.775141 3.293135 -2.007752 -1.618784 -3.787460 -1.289209 0.810084 1.696754 1.656076 -2.506635 1.419435 -0.811193 -4.264461 0.289508 -3.228650 -3.163983 -3.166909 -3.524602 -0.343371 1.843022 -0.533076 2.129496 0.942625 -7.103856 3.637646 -1.053684 -6.493770 0.559508 0.088970 -4.039272 -4.146561 -6.215259 0.165140 -3.886546 -1.623303 -1.769212 -3.602726 0.263259 2.563440 1.983889 2.739353 6.841262
成 0.094467 0.283636 4.235446 -1.160999 4.114706 1.522928 -4.390077 6.298317 -6.178116 1.789390 1.748605 0.485643 -2.799177 -3.279066 -4.324099 -5.536628 1.386851 -3.146556 0.383608 -8.469403 -3.007116 2.022969 -1.421704 3.587893 -1.503578 6.063616 -1.163636 -0.747756 -1.230061 -3.300135 3.412094 2.121027 -0.777656 -0.032454 -5.418394 0.422658 -0.706843 -4.995922 -1.897971 4.567372 0.590883 3.674113 3.972666 -2.428559 5.787999 2.384438 2.938822 2.981449 2.223690 4.004644 0.048325 4.258731 -3.616820 -0.222778 -0.691223 5.862597 3.277993 6.250944 -1.358838 -1.953716 -1.878824 -1.046789 4.358637 0.334995
董 -0.119813 -0.548892 -0.207561 -2.166813 -10.270782 1.277902 -4.305375 4.870582 -1.585241 3.543109 3.194590 -5.570762 -0.612311 -0.376609 3.912776 5.051657 3.914526 1.670456 -6.043164 -2.516835 0.941385 5.371209 0.702188 5.627436 3.864766 2.347253 -2.084269 -1.460450 -2.096993 2.111111 -8.801675 0.197341 -4.460150 -4.946998 -2.909373 -5.350795 -6.334867 -3.184101 5.541952 0.900564 -1.256492 4.177843 -2.944903 -2.109601 1.525101 5.765785 -1.235472 1.257037 -4.354053 -5.173458 -4.948195 -11.490981 0.694856 -6.050145 2.302721 1.351966 1.247574 3.966876 2.589164 -3.579974 -1.950299 4.598694 -0.118886 1.529440
% -4.831042 2.797874 -2.156445 -1.500096 0.537274 5.125561 1.208245 1.571045 1.081995 -1.998034 -1.977457 4.087377 1.660939 -3.134171 4.298985 -5.162102 0.330039 5.800461 -3.198099 -0.253995 0.187529 0.335418 -3.417294 3.737615 -2.099501 -3.263469 0.520576 -1.138262 5.041714 2.389920 2.802430 0.407589 -2.284758 -4.437076 -1.112507 -2.133517 4.378184 -0.366995 -0.058131 -2.016812 -2.338488 -0.547967 -2.125672 0.523900 3.027198 -0.986296 1.958389 -0.094005 -3.989158 0.495627 -4.452454 -2.911705 0.341341 -0.563972 -1.272471 -1.997851 -0.375824 1.386379 -2.843153 0.853907 -2.299114 0.387074 2.040791 0.572088
》 7.539136 1.470420 2.706170 3.634419 -8.476814 -0.925134 -2.594085 -2.696163 2.411077 1.226958 -6.678322 -2.115210 3.503191 2.419207 5.392450 2.010859 -1.330366 -0.031628 1.749411 0.839700 2.421640 -0.525112 -4.235142 1.812328 -0.079640 -1.138054 2.465402 5.657393 -2.210446 0.920900 -2.234895 0.531136 -5.648007 1.631785 -3.884746 0.098323 -0.644996 -1.710947 -2.491251 1.767415 -1.757861 2.491963 3.832264 0.179780 -2.235082 -1.983120 -0.728527 1.704316 -2.599942 2.011125 3.713583 5.549109 0.523789 1.175031 0.714984 1.506824 2.066243 1.149117 2.113765 -0.202619 5.413312 -1.074119 1.147954 -1.530794
《 2.323125 -4.892977 -3.841913 0.663190 -6.006359 -2.391426 5.429246 -0.194777 0.137273 1.246698 -4.196721 2.253909 -0.546925 1.131665 -2.490330 0.220117 0.019136 -0.056528 -0.823286 -1.505527 -0.180787 -4.068755 -0.275741 2.012146 -1.648671 2.422929 0.747305 1.867169 1.490071 0.091151 -4.898454 -3.734495 -4.860353 2.447327 -0.676311 -0.178615 -0.260356 -4.187743 5.028749 1.967168 -0.192257 0.521149 -1.621711 -4.382066 0.253604 0.401385 0.814000 -1.920849 -4.332799 -3.171916 -1.841490 2.475417 -3.286319 -1.146844 0.404553 -3.666389 0.028145 -1.692220 -0.814153 5.223824 0.915353 2.154185 2.729894 -5.214393
持 1.541585 5.749745 -0.549631 -2.535661 2.995992 0.344065 -3.144502 -4.215754 -3.710376 2.549464 1.561859 3.536878 -1.179981 -0.213281 -2.815026 -5.195006 -0.733597 7.443183 -2.597495 2.676408 0.713870 4.325202 2.141819 -3.972670 3.948565 -2.751027 -4.179976 -1.180079 0.569710 6.491199 1.869588 -0.272364 4.083253 -0.626407 -4.966739 -3.162348 -7.075117 -1.686129 -1.926612 3.569647 3.036346 2.012377 -1.093154 3.526921 -0.800013 3.901028 3.410291 -1.631137 -5.313250 0.152215 -0.464111 3.271577 -1.979051 -0.222552 2.685930 -2.658756 -0.163295 -1.319444 4.721303 4.860876 -6.661329 -0.050437 -2.757165 -5.395225
现 -6.192451 -8.811170 0.128950 -1.033799 -1.182927 5.863822 1.915951 -3.069797 -7.409181 -2.084089 3.773634 -5.611886 1.770396 1.668155 -1.204139 -2.269880 2.501455 -0.102340 -0.330669 0.511507 1.740854 4.092876 5.927286 -1.444309 -1.882170 -5.345911 -1.593249 -1.700235 -3.157714 -1.076634 1.676069 2.484076 4.706666 -2.743836 -0.920284 -0.649652 1.475384 -0.398324 2.264092 1.648588 -0.459661 0.209885 3.023062 4.348319 1.981860 -3.582375 -2.449030 -3.128785 -2.431041 -4.532538 2.697650 2.725686 3.298849 0.489816 -2.264858 -3.890937 3.784122 -5.645600 -1.477952 0.640768 7.081220 -1.833480 3.502804 -1.950204
保 -2.260507 -0.086590 -4.514349 -0.373548 0.733572 0.048531 -2.127474 3.534075 3.012255 1.276179 -5.391174 -0.746053 5.982854 -2.189354 -4.074822 5.498369 4.498490 3.906757 -4.667951 -1.330339 7.661306 -3.279198 1.582504 4.056435 -5.966959 7.003432 3.313032 2.080140 -2.413024 2.940707 -8.613834 3.126623 -2.329379 6.562644 -0.686047 4.136147 -0.888700 -2.274613 -7.551382 -0.391979 0.968523 -6.594714 6.706367 -2.189088 -1.410752 1.451790 -4.656552 -1.588261 6.416032 -4.515153 1.505400 0.282649 1.063738 0.236252 -1.256189 -1.130971 3.693289 -1.712248 -1.679854 -0.976760 -1.554999 1.847463 -0.362131 7.619948
票 2.792225 -0.352264 -2.841259 -2.405509 -0.245111 1.958130 -0.952179 3.892181 -0.493744 6.669405 -6.081457 -1.692306 4.684274 -2.904052 -0.991417 0.488898 -1.698882 1.510895 0.087632 3.937737 1.765222 0.014706 -2.267986 -0.793757 -1.517765 -10.462437 -4.753539 -4.097625 4.481877 4.159063 4.674524 -0.130925 1.557958 -2.717380 4.333400 0.127793 -3.613759 -2.238018 4.408122 -4.140839 0.213899 -0.375937 -6.019540 -0.672811 2.093201 -0.883243 -2.223793 -2.095063 -1.896281 1.957336 1.006888 0.072547 -5.542559 1.357500 0.250559 0.636268 0.785835 -5.264966 3.683877 0.181109 -3.533498 0.110772 4.113538 -4.358962
生 0.644189 -7.520558 -5.969322 -2.057893 0.631665 -2.281332 10.121054 4.438132 -0.660868 -0.790284 1.062606 -0.636626 -3.112025 0.698655 -7.112791 -1.630225 2.917932 0.344180 -3.209808 -0.665771 0.587742 0.985615 2.588162 -2.915687 -1.163705 0.779543 1.142702 -2.408524 -3.220400 -0.420714 1.844711 -1.400906 0.736785 -2.255458 6.097391 2.032031 1.633341 1.691128 -1.239475 -1.166654 0.756817 -0.594411 -2.129705 0.070063 5.093293 -0.197273 2.623112 4.538022 -0.764510 -8.106617 -3.131660 1.471602 0.989760 2.150328 -1.015334 1.698475 -3.177793 -0.764761 -2.182241 -2.568163 -1.050410 -0.023080 1.477120 1.591829
实 6.995358 1.856363 -0.877445 3.620867 4.608931 -2.832190 -0.243410 3.768394 -3.452884 4.711840 0.006465 3.891762 3.274468 -5.901389 0.879046 3.113972 5.793781 -0.721979 1.661396 1.615456 -1.649189 -2.845666 -3.047010 -2.520033 0.867874 0.533904 -1.299447 -3.040778 -0.371430 -1.750469 0.309578 -1.938391 -5.850452 4.634066 2.263814 2.631351 -1.536667 -0.937635 -0.447007 0.245523 2.460277 -4.726326 -2.837728 -4.528388 -6.117558 5.416268 -1.305902 7.617874 -2.402686 3.091159 -5.195397 -3.955258 0.000341 0.024344 -1.047751 6.884677 -4.008528 7.922705 3.362052 -1.365914 -7.394793 5.379354 -8.111129 -0.511125
总 -1.118109 -1.545787 4.731923 0.189615 0.528137 3.306727 8.233851 3.084747 -3.667219 -5.446440 0.071051 -5.674175 -1.475734 0.913148 -5.110529 -2.457890 1.751098 -0.385104 -4.210002 2.073137 2.644033 -3.674801 -1.702432 -0.648390 1.733336 -4.696102 1.849582 -2.673855 3.059236 -1.105403 -0.288536 -4.285573 -0.377717 1.146022 -0.741543 -1.390653 -9.803178 -0.986869 -7.265767 -3.926107 -0.061843 1.769067 0.212937 0.917871 -3.505875 2.540934 5.673259 -2.037046 -3.145185 -2.914375 0.879163 2.887244 2.563246 -5.746972 -1.384901 0.715482 0.798870 4.625801 1.627105 -1.144426 -6.363931 -1.460152 -0.043177 0.885797
主 2.511950 3.124619 -0.041674 -3.181093 -0.083557 0.907916 4.336502 -2.277324 -5.292230 -0.067440 3.788323 -0.995725 0.694973 -3.169355 1.898889 1.951029 2.946098 6.874934 1.597808 -2.792241 -5.341087 -3.164286 1.251683 1.977974 1.295461 -2.631478 4.669957 2.020165 -3.155629 -7.006712 0.266748 -0.715280 3.047544 -9.435702 1.387348 2.583844 0.261586 1.200544 -0.925647 -0.905559 4.317087 5.092076 8.208301 1.036179 -6.189214 -0.489008 1.878704 -5.085285 -0.003486 1.209826 0.766168 -4.362006 3.578501 -1.520246 -5.520288 5.980403 1.465919 4.260882 2.942257 -3.891716 4.237287 -2.289257 -0.457406 2.095164
下 -1.356695 -0.843799 -1.435913 -1.302578 -2.619211 2.282285 3.219187 -0.092885 1.120591 -1.889292 -1.402075 3.527568 -4.511918 -4.923902 -1.008669 6.146633 -6.389259 -2.524033 2.581814 3.143089 -2.099514 4.523309 -2.507172 -0.454347 -4.436644 -3.594685 2.981280 -0.288697 2.430683 -4.161196 7.742631 1.309006 1.151891 2.551711 3.820877 -1.096654 -4.953896 -2.911964 -1.746423 3.379269 -2.326932 -2.411250 -0.883762 -0.169272 -2.681375 -5.466102 -0.346698 -6.622349 3.631729 2.085572 5.033302 0.693573 -2.033373 -0.879684 -3.828110 1.309670 -1.378493 -1.739651 -0.421092 -1.917336 0.084684 1.942753 -0.479337 -2.027220
规 3.649671 1.004917 1.338639 -7.548284 -2.007178 -3.865398 0.173661 2.679404 -2.574504 1.463432 -4.761309 7.574818 1.023691 5.782668 -2.173965 0.390305 -1.923550 1.589708 0.566376 -1.027215 1.313802 -1.241401 6.612895 -0.214879 -1.671200 -1.904695 -1.759748 0.922976 -7.979529 1.650043 1.688743 -4.190863 -4.602996 -3.636494 -2.323643 -2.514260 -0.124630 3.426670 3.691644 2.605132 -2.635241 -3.116152 0.770023 -4.781977 -0.038264 -2.071758 1.259482 3.314873 -1.500378 -2.569648 6.054725 -2.184222 -9.021802 -2.422371 2.710934 -1.745270 0.929427 7.614770 3.924857 1.082998 8.499634 3.589736 -4.935183 -1.128440
报 2.737673 1.005676 5.465461 -5.518863 3.052448 -2.738615 -4.344337 -5.537864 -3.822874 -5.941238 0.418064 1.672789 4.683959 -5.666626 5.049313 2.018610 -5.096406 -0.303384 2.158943 -0.653140 2.344174 -1.524127 -1.096160 1.329423 -6.419772 -4.747905 3.507597 5.066126 2.158436 -3.761184 -8.221307 -2.004386 -4.230399 2.937703 3.315465 2.638714 -1.613397 -4.141613 3.790208 -2.867434 -2.779375 0.343875 -4.545087 -0.042324 -5.543561 2.173871 -6.845457 2.735876 1.914698 -1.850109 -1.229590 0.183480 1.087851 -1.373771 -4.409272 -0.905079 4.962752 -5.209381 -9.235750 1.284413 2.586107 1.390853 0.906123 0.891576
设 7.065555 0.804644 -3.297866 1.306289 4.888259 2.316571 -4.312357 3.147273 0.032548 -0.927450 1.105531 -2.848058 -1.291703 -2.506285 1.685703 5.123395 6.760124 -0.990624 0.539533 -2.729921 -0.421193 -4.786564 -0.607286 1.517667 3.540364 1.854809 -5.482861 3.410554 -5.355130 -3.441819 1.638712 1.942753 -0.508091 4.251741 -1.391214 3.245802 -7.371130 5.241614 -4.383730 3.038829 2.282740 -1.489058 -5.467090 4.593874 -2.969660 -5.633751 3.277766 4.680543 -1.582333 4.975813 -1.709611 -3.149824 -0.782913 3.911801 -1.060597 4.572207 0.272029 7.800687 -1.274542 6.379904 -1.201590 -2.801674 -1.110375 -2.305275
内 8.341070 -1.894263 4.327863 -3.413889 -2.882169 -1.010150 1.078844 -0.443547 2.932977 1.382907 2.966909 2.913816 1.106776 3.707236 -0.688913 0.530321 3.306594 -0.070924 2.162891 0.942415 0.915972 1.863131 -3.721893 2.900135 3.403613 -2.497961 -4.789237 -3.391816 1.944034 -0.422577 0.761502 -0.661440 2.178584 2.534854 1.777755 -2.030269 0.387949 -2.183983 -3.805056 2.497081 -1.672019 0.173963 8.073214 0.155186 -2.452421 -1.427337 -2.002819 -1.330741 3.268904 4.125599 0.166451 -0.572167 3.891370 0.958166 -2.568544 -0.395779 0.293247 -4.135389 -6.122773 4.562825 -1.196043 3.890610 0.055598 -1.866336
团 -5.732738 4.906086 -6.339383 3.313412 1.156848 7.126255 3.351614 -0.124302 9.318938 9.113595 1.477713 -0.742261 -8.351279 2.259500 3.169191 -2.890718 -0.435758 -0.027308 0.929889 0.779028 3.940354 -6.627265 -1.407265 4.538340 3.550973 1.921637 2.828485 -3.480958 -2.834799 -0.546015 5.758413 -3.149484 -3.475487 -7.337979 1.613474 -10.149669 -1.826675 -6.799349 -7.074775 7.584407 7.500323 -0.399612 2.007883 1.710283 1.280719 6.351159 0.075875 1.914680 1.898592 -1.799329 1.097891 -1.618735 -1.512828 -1.480910 -2.524463 3.013498 7.370842 2.016392 3.942381 -1.751981 2.045693 -1.026107 -2.781822 -6.367670
开 6.151579 0.162535 -2.528777 1.560998 -5.307718 -0.942167 1.670988 2.877773 0.647721 4.065300 -7.129865 3.039072 -0.989664 -1.019575 -6.402221 -1.439189 1.895894 -4.066371 -6.027180 -2.045459 -4.892996 1.256646 1.469767 0.723175 1.262645 2.531914 -7.020927 -3.045139 -5.673105 -3.226273 1.328204 -1.428725 5.234899 1.154156 -2.361274 1.972057 1.886038 -0.114876 -2.945771 0.345320 -1.364624 1.446270 0.969658 1.991922 2.602515 -5.500205 2.281009 -1.585152 -1.346586 -2.630281 -1.448502 0.694590 1.923903 -1.371693 2.801086 -0.893675 -1.787372 -1.895970 -2.914283 -1.326341 -0.387847 -3.356128 -0.480468 -5.190825
信 -2.411435 0.613783 1.553876 -5.543694 5.072886 -3.916617 1.999369 -2.486098 4.818245 1.115616 -1.954603 -0.310498 1.721468 -3.425004 -1.235973 -0.993168 0.187176 -7.719353 -2.051336 7.242245 6.399286 -0.550806 -3.138499 0.199640 -2.647903 6.142314 -7.844615 3.702017 -0.710558 1.156458 -6.942912 -0.618472 -0.206745 -1.097471 -1.324957 -0.718953 -2.384495 10.512956 0.622673 4.148739 2.759889 2.314775 0.959100 1.018742 0.389439 -1.461044 -4.140695 -0.505973 0.733432 1.005841 4.724809 5.369733 0.821561 -1.447922 1.515058 0.344213 2.546345 7.931617 -1.782553 -0.342776 -0.417188 0.220478 -5.891325 -1.828157
建 -6.026148 1.429427 3.839134 -6.352031 -7.415861 0.817114 2.608852 1.789708 2.409708 9.155549 -2.781765 -2.805545 -1.522851 5.599685 -1.753968 -3.547497 -1.888192 -1.379510 2.855853 -5.203766 -4.902885 -0.231087 3.278551 5.338641 3.457472 4.711818 -1.191613 0.808009 2.916802 -1.679940 -0.422140 3.076518 -0.647478 -2.446884 2.127440 5.259731 4.032843 -2.107694 -0.929279 -4.481020 -0.493441 0.421120 -0.241396 -2.651967 3.304633 -1.222875 0.020670 -2.705523 4.085480 -2.053748 3.134964 4.148361 1.476926 -2.071336 0.399261 0.931477 3.005741 -1.692189 -0.955947 -1.614191 -0.477793 0.136903 0.029136 -2.388877
目 -1.511676 -1.317079 -1.022379 -4.276418 6.823835 -0.293275 0.068027 -5.357394 -3.513420 -5.440246 -3.355556 4.973782 3.620580 4.337422 -1.083002 -0.189289 -4.886457 -7.468514 0.398828 -3.154416 0.876053 -6.793981 2.479382 -3.519851 -2.597446 -1.108657 -1.253761 -0.572372 4.290967 -2.631449 9.268044 2.717841 -1.580637 1.408574 2.157288 8.446408 1.385370 -1.149987 -6.959502 4.088386 -2.678835 -5.198118 0.350460 6.689115 -0.685932 -5.316860 3.092084 -1.204905 8.000478 1.952068 1.615315 3.288963 -1.089123 -1.431243 -5.687587 5.793330 -4.605922 -1.903495 6.417545 3.535272 2.909276 1.812959 1.080743 -3.498712
能 2.298116 -0.672485 -0.006335 -2.462055 3.807781 -0.381268 -2.215547 5.655402 -4.224323 2.048764 -1.896911 -1.409062 0.673692 1.255636 -2.159917 -4.292523 2.004237 -1.149735 1.439163 -0.910135 -4.602655 2.863347 1.222959 1.434626 2.312836 0.688830 4.538074 -4.780272 -1.634185 5.511075 -0.115973 2.949933 2.115118 1.002264 3.264943 3.373023 -0.279921 3.336446 -1.797440 -3.377486 3.832202 -1.448900 -0.239318 0.259909 0.072426 5.340168 -0.117918 4.284184 1.689446 0.038175 3.130823 2.529831 -2.928295 4.431896 -5.381201 3.741160 -4.534790 -3.011253 0.237803 0.036478 -7.105580 -0.614253 -6.342274 -5.128678
- -2.742614 -1.389269 -3.529460 1.619607 1.902849 -0.926367 2.731819 0.787811 1.397246 -1.247613 0.981224 -0.024524 1.299273 -6.185174 2.609599 -2.585160 -1.726313 -3.665380 -1.863249 1.734037 -0.572864 -2.770526 -2.336633 1.652323 3.968881 -4.224967 -1.149251 2.865439 2.190233 -1.913013 -0.180477 0.119321 -1.616799 -1.990766 -1.339570 -1.058134 1.595647 0.783549 -0.757553 -2.147294 -7.221793 -3.244234 1.815403 3.229118 -0.683618 0.605352 0.983895 -1.034480 -0.963731 1.068019 -0.383499 -1.806120 -2.061293 0.378935 2.197537 -4.111221 -1.163232 1.647844 -3.743213 0.766176 -1.332128 1.300039 0.319128 1.667105
部 -6.530634 2.707183 -0.366747 2.583484 0.005951 0.783965 -0.240694 -1.328847 -2.254160 -1.514135 -1.557572 -0.720017 0.821396 -0.994418 2.281792 6.769270 -6.634291 0.978096 -0.663898 -10.217047 -2.037748 0.243310 0.369226 -2.289613 1.592450 2.553099 0.366569 1.789088 -6.245038 -3.109951 -4.698916 -0.957664 -0.436022 -2.131265 -0.422966 2.795453 0.392893 5.317725 0.831513 1.362279 0.319967 -4.933128 0.860963 1.721131 0.917633 5.676284 -3.354688 3.715565 -2.563461 -2.097795 -4.213365 1.957161 -0.057011 -2.402955 5.920598 4.416609 -1.616792 -2.492611 3.379432 -6.448979 -2.076344 -4.404270 -1.038130 0.018010
地 -2.416046 -1.859796 -2.733531 -0.107498 2.618738 0.007409 -0.996553 1.168847 3.410625 3.989885 -0.353272 -0.805559 -3.857318 3.939992 3.136771 -1.610943 1.630848 0.972101 -1.277024 2.528999 -2.540688 -6.041525 2.489303 0.156302 -2.490335 3.671846 -7.005920 -4.790895 -2.727029 -2.061808 3.286466 -0.323076 0.761435 -2.130437 1.874275 5.150797 -3.125896 7.475003 5.190402 -5.283723 1.206289 -0.958420 1.055844 -2.232482 -1.979649 -0.312608 -1.552779 2.985371 1.562578 -5.256447 -2.111969 7.355201 1.575827 2.955946 -0.557015 -0.800855 0.527142 -0.075939 1.595415 0.058061 1.352518 4.947846 5.088660 4.400789
基 -3.465194 -1.789892 5.386127 -2.116931 -2.208697 -1.330315 -1.276648 0.854253 -5.458451 -1.497231 -2.746472 -1.625263 1.698918 -1.321874 -5.034966 3.435409 4.089780 3.104463 -4.750834 -6.091127 3.808779 -3.186604 2.258345 0.242019 4.167401 -2.854576 -0.315211 0.212443 5.042234 -1.409654 -2.971850 3.954171 3.957639 3.749337 3.153504 0.894521 7.481018 -3.541052 5.096500 5.121516 0.204719 -2.352831 0.013245 6.233703 1.464502 0.368715 2.240769 -3.082617 -3.990624 0.736581 1.675732 1.690727 -1.292421 1.128737 2.197941 -0.115629 6.676748 1.776324 -0.873699 0.826717 0.254616 -1.645656 -2.860612 -0.379603
要 1.770222 -0.993920 -1.830261 -2.099296 0.854581 3.415914 -1.960093 -1.557213 3.266214 -2.685255 1.072353 7.842766 -5.494377 5.463185 0.200796 -0.956434 -3.156630 -3.590286 1.841159 -1.994489 5.257977 3.383055 -1.256922 4.136284 0.089018 1.431408 1.040282 -3.704282 -0.128874 1.479657 -4.391149 4.231935 1.234880 7.791979 -0.369165 -5.256218 0.775179 2.461605 -1.988968 -1.242681 -0.487905 -11.003667 -6.418112 -0.575679 1.593489 0.939769 -7.238607 4.326055 -3.037664 4.416485 -0.447529 6.865365 -4.543510 -0.783850 4.448302 -4.404379 -2.421655 -1.269667 1.082619 3.185221 -3.115794 1.429887 2.708893 0.420413
同 2.843611 -5.354900 0.376785 -2.629491 6.528454 -2.007288 -6.186789 -3.859600 -0.647797 1.104178 -4.212634 4.476329 -3.303516 -1.929643 -5.273164 -1.162132 -2.655649 7.702604 -0.318977 3.014652 -3.374042 4.290883 2.323267 1.028420 0.259817 2.374764 -2.076202 3.769860 1.188001 0.913947 -3.348682 0.042235 0.701676 1.845260 1.155655 1.767703 3.344701 -5.861114 5.026545 -3.234370 -0.833645 -2.218378 4.615618 -4.927639 0.881299 -0.525431 -0.726867 3.965903 0.320705 6.379994 -2.324124 -0.347241 2.071866 -3.443612 -2.318497 -0.246714 1.142562 0.951717 1.419542 -1.162682 -2.818416 6.497757 2.195704 -3.584604
额 -6.521932 -0.124920 0.602145 -2.273583 -1.177734 4.983520 -5.560420 -5.864091 -3.768639 -0.010908 0.284768 -1.010433 1.601504 -4.707808 1.678722 0.495948 2.074212 0.993095 -0.023335 -6.500839 6.257239 0.516313 1.354502 0.091608 -9.656770 -4.771736 -4.292693 -1.958893 -0.056134 -1.188386 2.072140 2.068760 4.071080 -0.283549 1.355624 0.582942 6.329911 -0.982472 -0.374060 -2.457076 -3.111798 -0.503286 7.926705 4.787778 6.336575 2.997615 1.874594 5.033320 -3.944180 1.706896 1.803899 -4.424125 1.366661 1.312784 5.012525 -1.940719 2.205759 -1.620957 0.185778 2.112882 6.106866 2.464754 -3.827368 0.652432
告 5.912102 -6.223806 -9.287698 2.289305 -8.272191 -4.570889 -0.043696 -2.179770 -2.340169 -4.562967 1.484419 0.428303 -0.578806 0.935213 -4.037950 4.099809 -4.393586 -2.622454 -1.946554 -1.141796 4.730658 -0.386320 -6.227555 2.932466 -0.503239 -0.317630 -1.773605 -0.034630 1.529739 0.918381 -1.769544 5.486459 -0.813288 -1.833109 -0.905895 2.719913 2.780606 2.737642 3.229691 4.606833 6.329078 1.531751 3.112798 0.072067 1.635101 4.985948 10.347573 -2.868192 -4.799236 1.934208 4.501016 -2.366689 -2.950061 -0.207075 -0.842035 -1.166523 -4.443159 -1.195327 2.430827 -2.963769 0.673780 0.199346 1.285583 -5.545000
购 4.576784 5.129565 5.676573 2.952435 8.590588 0.900474 -1.768451 -3.491012 -5.861915 -3.501355 -6.718517 2.119020 -3.080459 -0.682463 -7.027470 3.363345 4.881732 1.176184 -2.184348 -0.428536 3.247145 2.626252 -3.890234 -1.512418 -5.598537 -5.435539 5.762112 0.711505 1.933325 -5.507785 6.501585 -5.538871 -4.228546 2.124817 3.510689 -2.694782 -4.728835 1.545094 7.105374 -3.921487 2.264308 0.920407 -0.500703 5.656977 0.391614 -5.003996 -4.425819 4.345780 -4.029134 -2.043658 -6.889771 -1.496738 -0.918952 4.861186 -0.165863 -4.497529 3.583610 -3.081144 -1.528457 1.265574 3.597417 -0.644941 4.361396 -0.462192
了 0.755803 0.075391 1.452613 -0.814040 0.258201 -1.110564 -1.636146 -0.678574 -0.606539 0.235287 -0.309307 -3.317064 1.026073 -0.013066 0.321465 0.766569 0.341281 -0.924593 2.832670 -0.710765 -4.409420 -1.616932 0.069864 2.054946 1.812815 -0.627833 0.003799 -0.750548 -3.409011 2.347685 0.863975 1.329708 0.065710 4.307160 1.518101 -0.788534 0.138944 0.949210 -0.677575 2.903349 2.249541 0.629162 -2.395753 -0.765240 0.728335 -0.774825 -3.034670 2.947129 4.850584 2.497706 0.670939 0.035383 -0.034518 0.991828 0.873891 -1.040048 -1.945751 1.572643 -0.599509 -2.643568 3.879556 -0.117522 0.581695 -2.141846
与 3.576481 -0.335248 1.311174 1.560884 2.871049 -0.520986 0.381774 -0.379762 -0.675289 1.901441 0.428442 1.279441 0.821459 -1.407933 -2.442062 1.196257 0.397594 0.171023 -3.316826 0.724917 0.066767 0.689569 -0.688050 -0.481837 4.025966 1.701213 1.632652 -0.268238 -1.472096 0.584588 -1.234069 0.217519 -0.289309 0.651925 2.109505 -0.013608 -0.806199 1.760673 0.548653 2.219165 0.806161 0.602389 0.541801 -1.414786 0.443284 2.306496 0.559176 0.523043 1.837998 -0.604101 0.283476 -0.280719 3.041607 -0.544498 1.397908 -1.876943 -0.380351 0.090555 1.240882 -2.641664 0.411672 -2.555912 3.478751 -3.805507
表 5.072144 -0.041664 -6.263185 2.391965 -4.358034 0.676776 2.597854 -2.294820 -7.249950 4.083368 4.872702 -1.033760 -2.092581 -2.603370 -3.779760 1.724867 -4.022116 0.031660 -5.211352 6.636790 4.200849 3.518084 1.185053 -4.306551 -0.046582 -4.666569 0.684675 2.974572 0.799710 0.774051 -0.220549 2.152671 -2.560722 -4.376001 1.396442 -0.248082 1.969343 -0.909242 2.179247 2.578928 0.574168 1.700079 0.342930 -2.926547 5.529830 -6.123642 3.431405 -1.246590 -5.399260 3.257774 -2.642065 0.860236 2.300540 0.147003 5.444326 -0.409852 -11.099895 0.138762 3.805492 -3.081330 6.310604 1.878128 -1.100428 -0.197066
动 -2.412048 -1.128927 -7.294482 -2.663375 6.568329 -6.931736 2.464569 1.044898 -7.571267 6.787667 5.006933 -2.357001 0.404932 0.501005 0.491924 1.015096 2.415067 1.317213 -1.970150 -1.402383 2.372947 5.457862 5.797299 -5.527524 -1.624103 -2.157394 4.062304 -5.216740 -2.816750 -2.597232 -3.316207 -0.764954 2.030682 -1.031490 4.390501 -0.364479 2.836195 -1.591370 1.346524 -4.607107 -5.540785 -0.463686 -4.594984 0.779721 -3.522503 -1.849315 0.633964 -3.670072 -1.544961 -2.420866 -1.177772 1.652407 0.275207 0.388369 -1.750799 -4.129601 2.935730 1.918025 -3.717290 2.735683 -5.753685 -1.288972 -0.735157 -3.099009
价 1.978062 -2.878277 -0.036155 -1.333753 -2.169479 1.166051 0.637242 -1.139601 0.124829 3.826643 -3.911324 0.928141 1.929868 -4.199505 1.400327 -2.096006 -0.224329 4.889034 4.620971 2.060478 3.006261 -4.307635 -6.079075 -3.193028 -7.001401 1.982132 -2.119341 -4.518450 -2.542969 -0.420472 7.933405 -4.220252 5.839690 -2.791894 3.992766 -4.872749 0.053737 1.824970 0.217145 1.879441 5.594358 -3.473747 2.112893 -6.614078 2.392494 2.239168 7.490428 4.329083 -5.300566 -0.111746 -1.868592 -3.630559 -8.778271 -0.428055 3.717533 -3.724834 5.839478 -1.210842 0.372350 -2.397345 5.108558 -2.912239 1.767128 5.167924
联 5.350840 -4.242841 2.389139 0.501617 10.759328 1.887320 5.840435 -0.499756 2.710606 6.307773 2.380844 6.043602 -3.346449 -2.062334 4.336041 2.130478 -4.051424 -3.910160 2.585345 -1.255682 0.630945 2.183627 5.800213 4.002026 0.707286 3.033870 -1.167133 7.057756 -4.286540 -0.616350 -4.076746 0.199961 3.041851 -2.134429 0.211204 0.398480 0.407565 -1.849220 2.229559 2.122203 -4.593791 0.018267 1.031371 -1.671457 3.172537 -0.887794 -1.586435 -3.910937 1.070481 -0.385788 -3.782171 -6.309129 -4.140079 -3.485640 -2.855484 -3.084591 -2.660186 -3.906285 0.720137 0.914242 0.021161 -5.611885 2.795366 -1.468923
机 0.480723 -0.472893 2.933579 1.071371 -2.072098 1.057870 0.551379 5.688495 -3.062819 1.713136 0.424857 0.711089 -0.230428 -3.546515 -2.758194 -8.270662 1.389643 -5.119277 2.271894 0.745835 -3.094857 -0.186514 -2.161781 3.926466 0.444831 8.687383 2.269176 4.379081 -3.847409 1.140689 -2.143796 2.051039 -1.350305 -3.891096 -1.105208 2.798823 0.057627 3.016697 2.397070 3.177506 -1.631179 3.415604 1.959344 4.075799 0.927321 -0.846693 -6.265230 0.112716 -0.303571 4.335960 -3.146053 -0.003185 -1.509423 -4.501319 -1.261638 7.823078 2.128020 -4.090835 -3.568097 -2.983345 -3.070560 -1.336778 10.797065 -1.139732
制 1.062638 -1.893576 1.166034 1.730781 0.782411 -5.254527 -1.867817 1.096124 -2.101526 6.264151 3.077529 0.501286 1.797423 2.613873 1.251784 5.596115 -0.789358 1.235027 -4.331490 -4.081987 -4.720144 3.566328 3.982630 -0.716879 -4.714498 0.487146 0.810101 -1.565639 2.246556 -1.764461 0.385469 2.665533 -4.868581 -0.604495 0.755580 1.028631 -1.590765 1.905972 -0.863804 10.529746 -0.913949 -3.509036 4.560755 -0.629749 0.832256 1.735890 0.844155 1.420346 -0.816955 2.593757 1.694309 -5.169305 4.322357 1.406062 -3.359216 -3.133994 5.237497 2.493286 -2.029186 5.126759 5.846827 -0.829137 -6.087974 3.179400
是 1.277566 -1.775004 1.489732 -0.408806 1.396534 -0.110636 1.601238 -1.460698 1.272957 -2.273049 0.232989 1.028868 -1.588487 0.221446 -2.345486 0.373582 -0.118288 -1.934400 -0.964892 0.213900 -2.770150 2.762827 1.379677 -1.032226 4.982266 1.866487 0.794151 -3.198727 -0.868147 1.801909 -0.430783 2.328604 1.490927 0.619530 2.034130 -0.656803 0.942309 -1.539119 0.107630 -0.324752 3.035387 -0.348816 -0.559707 -1.709062 -1.226946 3.498593 -0.729704 -1.818082 3.224993 3.349866 -0.759169 3.156486 -0.047203 3.832577 1.724703 -1.198356 -2.514978 0.988473 -0.223093 -3.117326 -1.248001 1.216921 1.943023 0.782471
进 5.204813 -2.259110 -0.526911 2.319882 1.020957 -1.263729 0.911634 -1.035630 -3.514496 1.947680 -1.373017 -2.306210 2.638924 4.009123 -4.050611 -5.223351 -2.231644 -0.961686 1.845162 -4.771557 -5.783414 3.208909 -1.519249 -5.478589 -4.692269 4.719476 -1.117446 -3.468657 0.376600 -2.405792 -4.422698 0.143247 0.689335 -0.520098 2.502824 -3.016507 -2.387816 -2.766863 2.122762 -0.273953 0.385641 -5.940069 -5.255262 -1.354697 -4.916382 -2.474457 2.958749 1.978703 2.631271 2.437869 6.313026 0.410403 5.255898 -0.467930 -0.029138 -3.985489 1.842324 2.256420 1.106318 -1.884649 1.991913 -1.787341 3.059772 -1.319993
第 -3.376504 2.022601 -3.229218 2.726986 -5.350168 -9.278076 3.130280 -4.288148 1.780625 -3.647340 -5.950541 -3.767756 -0.836229 4.562479 1.056970 -0.501529 -1.482087 -0.023285 -1.210488 0.825292 3.643913 -3.121121 1.651664 2.364628 1.110595 -1.248789 -4.454184 -0.723891 2.116660 -1.706735 -0.085807 0.519747 2.342695 1.051039 -2.810404 -2.497805 -4.380482 -2.151664 0.867523 -3.508640 0.184541 0.829748 -0.073694 -2.836644 -0.359557 4.160333 -2.904922 -3.797226 3.169339 7.729479 -3.640368 -3.704095 -0.565136 -1.072156 -1.518259 -2.903761 -2.437141 -1.267499 1.794524 2.571623 -0.532861 3.297007 5.686109 -1.294441
度 -0.028085 1.048476 -2.507665 -2.464825 -1.894782 -0.600191 4.819016 -3.645243 -2.768985 -1.128609 1.702415 -2.665324 6.071226 -0.607971 -4.555664 -3.532464 1.162596 -2.827644 4.869518 1.534877 -0.519537 -1.614442 1.788229 3.643219 -0.344028 -4.539583 -1.745000 2.405565 -3.152910 -1.631365 -1.468202 2.433825 -2.922363 0.564307 0.739524 -1.790185 -2.808578 0.584519 -3.915372 -2.651625 -1.523054 -1.397780 -4.340070 -2.437716 0.634486 5.696606 -1.207069 -0.372860 -1.841804 0.719030 -5.697023 -1.407408 -6.700108 -1.353082 -1.537161 3.189161 -2.578754 2.598595 -1.393674 -0.236365 -0.212712 1.013202 3.383801 -4.950861
时 -2.650278 1.575481 0.751556 -0.746295 -8.703696 -0.929458 3.384241 -1.037065 -1.863219 4.074121 2.424946 -2.562404 3.972031 1.405937 1.637812 1.367115 -0.480945 -3.932012 1.496209 -0.081453 2.402564 5.756964 -1.785574 -1.739000 -4.046182 -4.642354 0.147966 -1.804671 0.119332 2.922624 0.330104 -3.353357 -3.160871 -1.424412 -0.866906 -2.268720 3.844383 2.639671 -0.108042 4.440647 1.938195 1.057832 -6.469121 1.500313 -0.918929 -1.885889 0.638771 -4.098995 5.397313 -3.932368 -0.411095 -2.414242 -4.122590 6.160952 2.214432 1.421647 -4.199401 0.974423 2.120524 -1.295156 1.568927 -5.418203 1.991013 -0.818159
提 -4.836524 1.015050 2.887095 0.366947 0.027550 -2.988809 2.046884 -0.531528 -10.840663 1.580730 2.207074 0.268796 3.493996 -2.911809 -1.591397 -1.393791 -2.345453 -0.549565 -0.554426 2.163473 8.282980 -2.795168 0.078514 3.463356 1.664424 3.393796 0.638774 0.916373 -8.882549 -0.642513 0.751063 5.863887 -0.592538 1.832153 -4.269477 -1.478962 -3.075062 -3.699698 -3.222153 0.526359 1.937472 -6.592965 -1.945449 -2.178064 0.926247 -0.716386 7.216217 3.055094 0.362857 4.231231 -4.102194 -0.811700 6.511729 7.106986 -2.871002 -0.967130 -2.226756 -5.169403 8.844945 1.026782 3.950209 3.019092 3.299054 -0.935544
新 0.029217 -1.174398 -0.236609 -0.636969 3.221963 3.760659 0.660153 3.360613 3.135452 0.588353 0.188073 1.927690 -4.153250 2.058614 -2.082486 -2.638429 -2.322134 4.121760 2.256412 1.616329 0.198334 -4.390907 -1.040875 -1.165614 -0.165090 0.416414 -0.126353 -0.314910 -0.702497 1.159921 -0.405894 2.695975 2.048041 0.491058 -3.313529 0.200116 -4.955966 1.241689 1.507816 -0.825295 3.313533 -0.969409 -3.646448 1.365009 4.103200 -2.767544 0.418362 -3.840853 2.248904 1.024870 -0.423309 -0.206595 7.439352 3.342768 -0.339180 -1.173649 1.578655 0.961230 -2.190734 -1.948405 0.469226 -1.340381 -0.243353 -1.818435
电 -0.702756 1.574186 -2.994756 0.960823 1.108846 -6.806419 1.628786 3.528215 5.857684 0.523980 2.891290 2.405432 -1.799642 0.376108 -2.998474 -3.955410 -1.595649 -1.482435 3.416384 -0.067506 -4.159234 -2.956351 -1.910681 1.840335 5.349303 -3.821456 7.347116 1.532237 -2.210046 3.069697 2.891440 0.413382 2.034467 -3.404640 0.281442 -1.963210 -2.276441 3.841579 -4.288428 -4.016753 -2.890879 -1.098741 1.386969 0.531362 2.508529 -5.125992 1.975858 1.147569 4.243259 -1.558800 1.560578 -0.257600 2.434824 8.025872 -3.247378 0.971760 7.905258 -0.553966 -0.431393 -0.644989 -1.009786 -5.485745 -3.672535 -5.643150
长 3.770005 -1.912353 0.249569 -3.881591 2.807674 3.338047 2.967913 -4.115655 3.316404 0.052058 0.455754 -1.337896 -3.168574 6.825077 0.123357 -3.746704 -2.600130 7.802070 -1.630450 1.147253 0.917192 0.252473 -3.130192 1.915013 0.203075 -2.515898 1.106880 0.366632 -0.185682 -3.568551 0.202386 -0.698063 -0.299015 -0.557875 -1.688709 0.630051 -0.892706 0.940353 -1.829544 -6.454445 -0.925975 1.207734 0.234737 0.702831 1.004329 0.102228 1.269810 -0.181205 0.407982 -1.731925 0.578835 -2.325870 10.120276 2.834632 -0.239366 0.602879 -2.909564 1.537274 -4.092023 1.455633 -2.310858 4.076528 0.648255 -3.014233
过 6.817690 1.362619 3.647078 2.445919 -2.997838 2.373182 -0.720674 -1.412288 1.455867 -0.640013 -5.549792 0.377347 6.279756 -0.462356 -1.850060 -8.252411 -6.600192 -8.232254 -3.944940 -0.366184 -5.241100 5.479607 8.489577 3.660266 -1.696479 3.518152 -3.913087 3.682416 5.812997 -3.341261 -4.048038 -5.793979 -2.592961 7.130622 3.199710 -5.011946 -1.106925 3.035759 -3.473584 -0.182797 9.199754 0.990465 1.678403 4.653380 2.527136 -0.897489 0.004021 1.117263 -2.992880 -0.299220 -4.430659 -0.669441 -1.912625 2.365347 2.242455 -2.058640 3.476481 -3.766906 3.044658 -8.374869 -1.130127 4.570889 -2.620418 -0.786301
并 1.364565 -4.188376 2.888772 -1.128306 -0.828436 0.548058 -2.021036 -1.882911 -0.342768 2.262335 1.057807 1.213913 -1.958037 -0.939252 -0.973581 -0.984686 -2.829504 -0.093427 4.719354 -1.615303 -0.980332 3.866001 1.404159 -0.054758 -0.860934 -1.456726 -1.703098 -1.354559 -1.137255 4.972527 -2.418315 -0.305408 -0.903934 2.902576 2.736535 2.546547 0.394084 -3.246832 1.881154 1.899336 -1.154827 -2.006255 4.311481 -2.698250 -0.674776 -2.366380 0.090516 4.216519 0.696470 -0.734659 -0.812528 1.305096 -1.393775 -4.119735 -0.362586 -0.685444 0.399823 1.829701 1.306309 -4.557528 0.375085 2.818275 1.447250 -2.126318
等 1.070139 3.627969 1.379830 -1.854421 0.166050 0.137619 0.897022 1.048143 -0.902998 -0.566235 -0.071350 -0.823395 -0.816879 0.825408 -1.836492 -0.250142 0.888307 0.950419 -0.858565 0.209730 -1.205533 -0.752189 0.858073 -4.234570 1.668769 2.455003 1.318073 0.490276 0.167616 -0.488374 -0.790610 1.092044 -0.400687 0.931604 2.642698 1.511544 0.892939 2.568161 0.549078 0.530118 -0.566650 -2.044227 -1.047314 -1.495689 0.246444 0.992634 -1.389155 2.641151 1.151712 0.713960 0.740741 -0.887952 -0.761126 1.162247 -0.530688 -0.661441 0.376834 -0.941428 1.446311 -0.458897 -0.821364 0.127686 0.739802 -0.170330
后 1.699529 -1.302300 -0.941290 -2.476449 0.437145 -0.905379 -0.388451 -1.523910 1.561517 1.446481 -0.154768 -1.011746 0.455504 0.980503 -2.782110 1.580159 -1.276026 1.085879 -0.010401 -1.883535 0.040702 2.859684 -2.322671 -1.676137 -0.930186 -3.984072 -4.245872 -4.670997 -3.372715 0.652030 1.812365 0.103978 2.869375 3.219434 -0.288698 -0.971330 -2.247859 -0.516596 0.396344 0.121741 1.684719 0.428514 0.191523 -0.055220 -1.123707 -0.514449 2.860442 2.759690 2.710070 -1.938216 -2.005510 -0.458681 -0.131179 0.637532 1.702610 1.322341 -1.407105 0.645674 -1.952747 -3.158311 -0.485336 0.252245 2.104786 -0.983258
将 1.939069 -0.538188 2.156981 -2.002619 1.167427 0.479645 0.389291 -1.240391 -1.233682 0.991312 -0.720590 1.207362 1.410456 -1.297691 -1.478806 1.681924 0.051849 2.310914 -0.239553 -1.869388 -1.077699 2.131773 -0.170333 0.279195 0.672397 0.184565 -0.239785 -3.104019 -1.861101 1.970885 0.967600 -0.253050 -0.260841 3.734902 0.596494 -1.649722 0.404067 0.493981 -1.014579 2.194031 2.824924 -1.329647 -0.696509 -0.909018 -0.806065 1.026585 0.041322 -1.434185 3.129861 -0.225769 -1.200185 -0.989346 0.379739 -0.522151 0.933955 0.080856 -0.317818 0.099998 1.511474 -1.700662 -0.684021 2.008539 1.137016 -2.826762
者 1.341541 0.140904 3.208398 -0.468783 -3.027327 0.683400 -5.090400 5.140106 -6.608268 2.398390 0.470118 -0.135101 0.665342 -1.915801 -0.842696 1.005206 -4.883790 3.978765 3.486782 0.284537 -0.614636 3.054563 -1.352456 -0.653181 1.551857 -0.085317 -3.295177 1.889360 1.073040 -1.582537 0.842749 -0.191850 -0.981049 -6.501926 8.176499 -0.953245 0.540409 0.173052 1.298472 -2.837479 3.028139 2.101122 -1.128751 4.478619 -3.462533 -0.557308 3.355830 1.643232 6.688894 1.723984 2.686666 5.516903 -4.440062 -1.877451 3.111121 -0.553832 2.649601 -3.678075 3.156337 2.387913 -3.114254 4.135745 -2.023406 -0.452707
作 -0.880969 -2.130294 0.631887 -5.871043 -2.476008 -0.541552 -1.521228 -1.122373 1.101724 -0.097659 0.260578 -2.046410 -4.232643 -1.361943 -3.563324 0.570101 -6.636926 0.102593 1.814133 -0.550464 2.685363 -2.652500 8.703652 -0.912656 -0.535914 -0.422960 -0.516982 1.345636 -3.151646 5.677554 -2.285416 4.298223 2.499540 -1.946645 -2.706208 6.100332 3.051901 -1.049648 1.211960 5.999064 -1.908228 -1.169233 2.038086 -4.606631 -4.592364 -3.516340 -4.145998 2.657523 -3.446058 2.107233 -1.417485 0.189537 1.310540 0.574490 -2.527577 -0.299184 -4.995493 6.001980 -1.303023 -3.608741 -1.114115 -3.739610 6.873006 -3.446391
海 1.170187 -2.886401 -2.491867 2.223520 0.974308 2.815027 -6.896658 -5.156100 2.609972 2.754534 -2.417572 -2.250013 2.148020 -0.246702 2.234319 -0.638952 4.347673 -4.652559 -1.287149 -0.483722 0.245056 -8.683992 1.385450 -0.117067 5.980887 0.840107 3.974400 -2.305304 3.652788 1.150725 -4.665349 -4.335664 -4.496950 -5.064712 -4.602606 0.093249 2.435655 0.795611 5.450862 2.590403 0.302351 -6.098750 0.447960 3.907660 -0.011665 1.088475 4.945935 -2.919291 1.829695 -5.240065 -4.787632 6.355268 2.036193 -0.472151 6.264074 4.378731 -0.547754 -0.568631 0.429214 -1.815593 -0.271259 -4.197161 1.033743 -0.347296
网 3.467653 -1.216679 -3.822754 3.793471 -2.401592 0.437460 -9.335130 -3.338956 -1.786089 7.378498 -0.667236 0.049823 5.094729 1.042114 -3.432683 -2.732247 4.460518 -3.480853 -2.429420 0.643353 1.581168 -3.860232 -3.072768 -1.211776 1.690480 -0.098638 1.977397 -1.698969 -0.752160 0.763635 -2.679565 -3.800453 0.151576 -2.280145 2.493260 2.803962 3.795042 4.135340 6.365769 -6.000928 0.078687 5.221372 1.796701 -1.168704 -3.004270 -2.680077 1.064656 1.130054 6.486859 -2.944286 0.067132 3.641281 -0.275083 0.853988 1.985710 -3.743919 4.930370 1.901079 -0.255365 -4.067029 3.036424 -4.959441 1.271459 -0.680279
增 -6.521775 4.216980 0.294743 1.217923 -0.381634 0.322697 -1.458979 -1.964066 -9.568283 0.359682 -4.185980 -2.083291 2.448313 -4.199631 -4.402155 -0.967657 3.180693 3.423685 3.438034 -5.108598 1.964814 3.505765 -1.319444 -2.414349 -0.653193 1.271549 -4.188585 -4.910838 7.882416 -0.778172 -2.598798 -1.411688 -1.488337 1.819488 -0.568997 -5.227397 3.212654 4.278777 -4.602379 1.234422 -0.426738 -0.219378 -0.425121 -1.910538 3.755807 3.112120 6.317444 -3.241685 2.671471 -3.417233 -3.434760 -5.009145 -7.931376 -2.338959 -3.263024 1.154600 0.469550 0.842764 -0.303241 -4.762522 3.397320 0.769913 -2.791432 -0.865274
或 3.065719 1.815044 0.656833 2.894094 1.382525 -0.142096 1.579889 -0.111150 -3.194460 -1.691357 -0.304679 1.193567 -1.224500 -2.777452 1.110823 2.797297 -1.743800 0.130329 -3.887402 1.401126 1.439074 1.625082 -0.570331 -4.692086 0.298775 -0.805385 0.666248 -0.195608 -3.380914 6.795355 -0.956694 1.626156 2.237639 3.096212 0.423595 -2.776956 -0.636096 3.047801 -0.244188 3.809149 -0.078209 -1.044096 4.632014 -0.614128 -0.654426 -0.692493 -1.940604 4.015482 2.883176 -1.846360 0.971199 0.495542 -1.059989 0.515243 1.387417 -0.641767 0.127569 -1.359144 -2.256132 -2.151526 1.434396 1.421997 2.273145 -0.714325
“ -2.648106 -0.453284 -1.009762 -0.386745 -3.053818 0.008667 -4.457684 0.293833 2.021617 -0.857650 -2.419202 -0.383242 -0.628956 -0.724989 -2.625099 -2.053416 -0.530164 -1.963261 3.179466 -0.131329 -1.227865 -0.456084 1.215414 0.033720 0.078268 2.135393 4.420557 -0.046717 -0.888944 -0.939358 1.442831 3.235356 2.961006 -0.699271 1.403941 -0.322576 -1.856165 -2.477268 2.383543 1.683533 -2.419247 3.880869 -2.718247 0.853413 -4.160682 1.771149 -0.029387 1.251921 3.577082 1.371119 0.276083 2.235103 -2.191843 0.988956 0.057271 -2.259619 -0.308059 -1.264212 -0.211622 -0.127664 2.171725 0.408797 -1.351302 1.103938
